{"learner":{"attributes":{"scikit_learn":"{\"_estimator_type\": \"regressor\"}"},"feature_names":["lag_5","lag_4","lag_3","lag_2","lag_1"],"feature_types":["float","float","float","float","float"],"gradient_booster":{"model":{"gbtree_model_param":{"num_parallel_tree":"1","num_trees":"150"},"iteration_indptr":[0,1,2,3,4,5,6,7,8,9,10,11,12,13,14,15,16,17,18,19,20,21,22,23,24,25,26,27,28,29,30,31,32,33,34,35,36,37,38,39,40,41,42,43,44,45,46,47,48,49,50,51,52,53,54,55,56,57,58,59,60,61,62,63,64,65,66,67,68,69,70,71,72,73,74,75,76,77,78,79,80,81,82,83,84,85,86,87,88,89,90,91,92,93,94,95,96,97,98,99,100,101,102,103,104,105,106,107,108,109,110,111,112,113,114,115,116,117,118,119,120,121,122,123,124,125,126,127,128,129,130,131,132,133,134,135,136,137,138,139,140,141,142,143,144,145,146,147,148,149,150],"tree_info":[0,0,0,0,0,0,0,0,0,0,0,0,0,0,0,0,0,0,0,0,0,0,0,0,0,0,0,0,0,0,0,0,0,0,0,0,0,0,0,0,0,0,0,0,0,0,0,0,0,0,0,0,0,0,0,0,0,0,0,0,0,0,0,0,0,0,0,0,0,0,0,0,0,0,0,0,0,0,0,0,0,0,0,0,0,0,0,0,0,0,0,0,0,0,0,0,0,0,0,0,0,0,0,0,0,0,0,0,0,0,0,0,0,0,0,0,0,0,0,0,0,0,0,0,0,0,0,0,0,0,0,0,0,0,0,0,0,0,0,0,0,0,0,0,0,0,0,0,0,0],"trees":[{"base_weights":[-1.2189343E-3,1.1001315E-2,-6.415373E-2,1.990749E-2,-2.2378067E-2,2.8145162E-3,-8.824254E-3,-5.934368E-4,3.028679E-3,-7.6688663E-4,-5.5316635E-3],"categories":[],"categories_nodes":[],"categories_segments":[],"categories_sizes":[],"default_left":[0,0,0,0,0,0,0,0,0,0,0],"id":0,"left_children":[1,3,5,7,9,-1,-1,-1,-1,-1,-1],"loss_changes":[2.8392617E-2,9.661252E-3,1.582382E-2,6.8852417E-3,2.9672843E-3,0E0,0E0,0E0,0E0,0E0,0E0],"parents":[2147483647,0,0,1,1,2,2,3,3,4,4],"right_children":[2,4,6,8,10,-1,-1,-1,-1,-1,-1],"split_conditions":[1.07051514E-1,7.9768606E-2,-5.668029E-2,-2.6884908E-2,1.2434892E-1,2.8145162E-3,-8.824254E-3,-5.934368E-4,3.028679E-3,-7.6688663E-4,-5.5316635E-3],"split_indices":[2,0,1,0,0,0,0,0,0,0,0],"split_type":[0,0,0,0,0,0,0,0,0,0,0],"sum_hessian":[3.5E1,3E1,5E0,2.4E1,6E0,1E0,4E0,7E0,1.7E1,5E0,1E0],"tree_param":{"num_deleted":"0","num_feature":"5","num_nodes":"11","size_leaf_vector":"1"}},{"base_weights":[4.989028E-3,1.8297523E-2,-8.118315E-3,2.819561E-2,-1.4921193E-2,-2.3340955E-3,3.6284276E-3,-2.5817652E-3,1.1845453E-3],"categories":[],"categories_nodes":[],"categories_segments":[],"categories_sizes":[],"default_left":[0,0,0,0,0,0,0,0,0],"id":1,"left_children":[1,3,-1,5,7,-1,-1,-1,-1],"loss_changes":[4.2771034E-2,1.0942369E-2,0E0,1.1268463E-2,2.6391146E-3,0E0,0E0,0E0,0E0],"parents":[2147483647,0,0,1,1,3,3,4,4],"right_children":[2,4,-1,6,8,-1,-1,-1,-1],"split_conditions":[1.07051514E-1,5.2497752E-2,-8.118315E-3,-5.960469E-2,2.1533906E-2,-2.3340955E-3,3.6284276E-3,-2.5817652E-3,1.1845453E-3],"split_indices":[2,3,0,0,0,0,0,0,0],"split_type":[0,0,0,0,0,0,0,0,0],"sum_hessian":[3.5E1,3.1E1,4E0,2.4E1,7E0,3E0,2.1E1,5E0,2E0],"tree_param":{"num_deleted":"0","num_feature":"5","num_nodes":"9","size_leaf_vector":"1"}},{"base_weights":[-2.909676E-3,1.5929969E-2,-2.9615622E-2,5.085003E-3,4.0218276E-3,-4.0080458E-2,6.5665888E-3,3.0122872E-3,-1.9625972E-3,-4.995556E-3,2.904998E-4,1.4866444E-3,-9.166488E-4],"categories":[],"categories_nodes":[],"categories_segments":[],"categories_sizes":[],"default_left":[0,0,0,0,0,0,0,0,0,0,0,0,0],"id":2,"left_children":[1,3,5,-1,7,9,11,-1,-1,-1,-1,-1,-1],"loss_changes":[1.7075084E-2,8.11215E-3,5.5641662E-3,0E0,1.0466907E-2,4.8144646E-3,6.58602E-4,0E0,0E0,0E0,0E0,0E0,0E0],"parents":[2147483647,0,0,1,1,2,2,4,4,5,5,6,6],"right_children":[2,4,6,-1,8,10,12,-1,-1,-1,-1,-1,-1],"split_conditions":[2.8110243E-2,-5.668029E-2,4.7161557E-2,5.085003E-3,-4.2005636E-2,4.7161557E-2,6.632193E-2,3.0122872E-3,-1.9625972E-3,-4.995556E-3,2.904998E-4,1.4866444E-3,-9.166488E-4],"split_indices":[3,4,0,0,3,4,0,0,0,0,0,0,0],"split_type":[0,0,0,0,0,0,0,0,0,0,0,0,0],"sum_hessian":[3.2E1,1.9E1,1.3E1,4E0,1.5E1,1E1,3E0,7E0,8E0,8E0,2E0,2E0,1E0],"tree_param":{"num_deleted":"0","num_feature":"5","num_nodes":"13","size_leaf_vector":"1"}},{"base_weights":[-1.1620998E-3,8.490086E-3,-7.2355852E-3,2.2965057E-2,-2.357986E-2,1.3255212E-3,5.3122006E-3,-6.1567384E-3,-9.825618E-4],"categories":[],"categories_nodes":[],"categories_segments":[],"categories_sizes":[],"default_left":[0,0,0,0,0,0,0,0,0],"id":3,"left_children":[1,3,-1,5,7,-1,-1,-1,-1],"loss_changes":[2.8788494E-2,1.7717341E-2,0E0,6.90916E-3,5.664937E-3,0E0,0E0,0E0,0E0],"parents":[2147483647,0,0,1,1,3,3,4,4],"right_children":[2,4,-1,6,8,-1,-1,-1,-1],"split_conditions":[1.07051514E-1,5.2497752E-2,-7.2355852E-3,9.602357E-2,-5.668029E-2,1.3255212E-3,5.3122006E-3,-6.1567384E-3,-9.825618E-4],"split_indices":[2,3,0,1,2,0,0,0,0],"split_type":[0,0,0,0,0,0,0,0,0],"sum_hessian":[4E1,3.6E1,4E0,2.5E1,1.1E1,2E1,5E0,2E0,9E0],"tree_param":{"num_deleted":"0","num_feature":"5","num_nodes":"9","size_leaf_vector":"1"}},{"base_weights":[1.1701568E-3,8.807462E-3,-4.4848703E-2,-3.304364E-2,1.6623564E-2,3.1872352E-3,-6.6567385E-3,1.072803E-3,-5.761149E-3,-2.5640898E-3,2.2067646E-3],"categories":[],"categories_nodes":[],"categories_segments":[],"categories_sizes":[],"default_left":[0,0,0,0,0,0,0,0,0,0,0],"id":4,"left_children":[1,3,5,7,9,-1,-1,-1,-1,-1,-1],"loss_changes":[1.4804866E-2,1.2325353E-2,1.2119339E-2,7.0703113E-3,7.6986607E-3,0E0,0E0,0E0,0E0,0E0,0E0],"parents":[2147483647,0,0,1,1,2,2,3,3,4,4],"right_children":[2,4,6,8,10,-1,-1,-1,-1,-1,-1],"split_conditions":[1.07051514E-1,-5.668029E-2,-5.668029E-2,1.3254307E-2,-6.494723E-2,3.1872352E-3,-6.6567385E-3,1.072803E-3,-5.761149E-3,-2.5640898E-3,2.2067646E-3],"split_indices":[2,2,1,4,0,0,0,0,0,0,0],"split_type":[0,0,0,0,0,0,0,0,0,0,0],"sum_hessian":[4E1,3.5E1,5E0,5E0,3E1,1E0,4E0,2E0,3E0,3E0,2.7E1],"tree_param":{"num_deleted":"0","num_feature":"5","num_nodes":"11","size_leaf_vector":"1"}},{"base_weights":[1.8862814E-3,1.5592028E-2,-2.2216668E-2,-3.1961396E-3,2.2576895E-2,3.6529773E-3,-6.594157E-2,4.531798E-3,4.3949747E-4,-1.7638889E-3,1.8339598E-3,-7.1300208E-3,-1.95742E-3],"categories":[],"categories_nodes":[],"categories_segments":[],"categories_sizes":[],"default_left":[0,0,0,0,0,0,0,0,0,0,0,0,0],"id":5,"left_children":[1,3,5,-1,7,9,11,-1,-1,-1,-1,-1,-1],"loss_changes":[1.4551408E-2,1.002191E-2,1.8339247E-2,0E0,1.0137741E-2,3.7632515E-3,9.51495E-5,0E0,0E0,0E0,0E0,0E0,0E0],"parents":[2147483647,0,0,1,1,2,2,4,4,5,5,6,6],"right_children":[2,4,6,-1,8,10,12,-1,-1,-1,-1,-1,-1],"split_conditions":[2.8110243E-2,-6.494723E-2,2.9292548E-2,-3.1961396E-3,-7.883703E-3,-2.6884908E-2,2.1533906E-2,4.531798E-3,4.3949747E-4,-1.7638889E-3,1.8339598E-3,-7.1300208E-3,-1.95742E-3],"split_indices":[3,0,2,0,4,0,0,0,0,0,0,0,0],"split_type":[0,0,0,0,0,0,0,0,0,0,0,0,0],"sum_hessian":[4.2E1,2.7E1,1.5E1,3E0,2.4E1,1E1,5E0,1E1,1.4E1,4E0,6E0,4E0,1E0],"tree_param":{"num_deleted":"0","num_feature":"5","num_nodes":"13","size_leaf_vector":"1"}},{"base_weights":[-3.4309283E-4,7.5357947E-3,-6.328842E-2,-3.3552296E-2,2.0382553E-2,-7.198757E-3,-1.8595489E-3,-2.0066197E-3,-4.9340404E-3,6.701221E-4,4.023443E-3],"categories":[],"categories_nodes":[],"categories_segments":[],"categories_sizes":[],"default_left":[0,0,0,0,0,0,0,0,0,0,0],"id":6,"left_children":[1,3,5,7,9,-1,-1,-1,-1,-1,-1],"loss_changes":[1.78348E-2,1.757504E-2,2.165176E-4,7.13286E-4,6.520384E-3,0E0,0E0,0E0,0E0,0E0,0E0],"parents":[2147483647,0,0,1,1,2,2,3,3,4,4],"right_children":[2,4,6,8,10,-1,-1,-1,-1,-1,-1],"split_conditions":[1.07051514E-1,-5.1341143E-2,2.8717085E-3,8.8781975E-2,1.3254307E-2,-7.198757E-3,-1.8595489E-3,-2.0066197E-3,-4.9340404E-3,6.701221E-4,4.023443E-3],"split_indices":[2,2,0,4,0,0,0,0,0,0,0],"split_type":[0,0,0,0,0,0,0,0,0,0,0],"sum_hessian":[3.4E1,3.1E1,3E0,7E0,2.4E1,2E0,1E0,5E0,2E0,1.5E1,9E0],"tree_param":{"num_deleted":"0","num_feature":"5","num_nodes":"11","size_leaf_vector":"1"}},{"base_weights":[-7.408622E-3,8.766782E-3,-2.5868338E-2,-1.3100538E-2,2.3231328E-2,-8.79158E-3,-5.8556587E-2,1.89355E-3,-2.4958763E-3,-1.9893537E-3,3.2880716E-3,-3.0245327E-3,8.397678E-4,-6.320162E-3,-1.7665714E-3],"categories":[],"categories_nodes":[],"categories_segments":[],"categories_sizes":[],"default_left":[0,0,0,0,0,0,0,0,0,0,0,0,0,0,0],"id":7,"left_children":[1,3,5,7,9,11,13,-1,-1,-1,-1,-1,-1,-1,-1],"loss_changes":[1.1573329E-2,6.9466606E-3,9.532963E-3,3.8916215E-3,6.063785E-3,5.0480524E-3,2.3135915E-5,0E0,0E0,0E0,0E0,0E0,0E0,0E0,0E0],"parents":[2147483647,0,0,1,1,2,2,3,3,4,4,5,5,6,6],"right_children":[2,4,6,8,10,12,14,-1,-1,-1,-1,-1,-1,-1,-1],"split_conditions":[2.1533906E-2,1.2448549E-2,5.3527135E-2,-1.1883655E-2,-6.494723E-2,-5.5503566E-3,1.2434892E-1,1.89355E-3,-2.4958763E-3,-1.9893537E-3,3.2880716E-3,-3.0245327E-3,8.397678E-4,-6.320162E-3,-1.7665714E-3],"split_indices":[3,2,2,4,0,0,2,0,0,0,0,0,0,0,0],"split_type":[0,0,0,0,0,0,0,0,0,0,0,0,0,0,0],"sum_hessian":[3.7E1,2E1,1.7E1,8E0,1.2E1,1.2E1,5E0,2E0,6E0,2E0,1E1,5E0,7E0,4E0,1E0],"tree_param":{"num_deleted":"0","num_feature":"5","num_nodes":"15","size_leaf_vector":"1"}},{"base_weights":[-1.3406287E-2,-2.131865E-2,1.9028012E-2,-2.4238488E-2,2.729857E-3,-1.6235278E-3,3.4922548E-3,-1.0905748E-3,-4.8210807E-3,-7.069728E-4,7.357536E-4],"categories":[],"categories_nodes":[],"categories_segments":[],"categories_sizes":[],"default_left":[0,0,0,0,0,0,0,0,0,0,0],"id":8,"left_children":[1,3,5,7,-1,9,-1,-1,-1,-1,-1],"loss_changes":[8.874506E-3,4.4944463E-3,2.3544244E-3,7.7842595E-3,0E0,2.4766647E-4,0E0,0E0,0E0,0E0,0E0],"parents":[2147483647,0,0,1,1,2,2,3,3,5,5],"right_children":[2,4,6,8,-1,10,-1,-1,-1,-1,-1],"split_conditions":[7.9768606E-2,1.3799675E-1,-2.5765987E-2,5.0386142E-2,2.729857E-3,1.1776787E-1,3.4922548E-3,-1.0905748E-3,-4.8210807E-3,-7.069728E-4,7.357536E-4],"split_indices":[1,2,4,2,0,1,0,0,0,0,0],"split_type":[0,0,0,0,0,0,0,0,0,0,0],"sum_hessian":[3.2E1,2.6E1,6E0,2.5E1,1E0,3E0,3E0,1.7E1,8E0,2E0,1E0],"tree_param":{"num_deleted":"0","num_feature":"5","num_nodes":"11","size_leaf_vector":"1"}},{"base_weights":[2.4817842E-3,1.4360717E-2,-1.668996E-2,2.4192365E-2,-8.326627E-3,1.5778363E-2,-4.008866E-2,-1.7657867E-3,3.442155E-3,-2.1029224E-3,4.029578E-3,2.1110346E-4,2.0823088E-3,-5.0779423E-3,-1.7806694E-4],"categories":[],"categories_nodes":[],"categories_segments":[],"categories_sizes":[],"default_left":[0,0,0,0,0,0,0,0,0,0,0,0,0,0,0],"id":9,"left_children":[1,3,5,7,9,11,13,-1,-1,-1,-1,-1,-1,-1,-1],"loss_changes":[8.893794E-3,5.554737E-3,1.20282825E-2,7.885405E-3,5.788436E-3,4.386769E-4,3.5954537E-3,0E0,0E0,0E0,0E0,0E0,0E0,0E0,0E0],"parents":[2147483647,0,0,1,1,2,2,3,3,4,4,5,5,6,6],"right_children":[2,4,6,8,10,12,14,-1,-1,-1,-1,-1,-1,-1,-1],"split_conditions":[2.8110243E-2,5.2227695E-2,-5.5503566E-3,-5.960469E-2,5.395062E-2,1.3176757E-2,5.2227695E-2,-1.7657867E-3,3.442155E-3,-2.1029224E-3,4.029578E-3,2.1110346E-4,2.0823088E-3,-5.0779423E-3,-1.7806694E-4],"split_indices":[3,0,2,0,2,0,1,0,0,0,0,0,0,0,0],"split_type":[0,0,0,0,0,0,0,0,0,0,0,0,0,0,0],"sum_hessian":[3.7E1,2.3E1,1.4E1,1.6E1,7E0,6E0,8E0,3E0,1.3E1,6E0,1E0,2E0,4E0,6E0,2E0],"tree_param":{"num_deleted":"0","num_feature":"5","num_nodes":"15","size_leaf_vector":"1"}},{"base_weights":[8.046278E-6,1.3235788E-2,-2.022309E-2,5.5746366E-3,3.784385E-2,-8.2304515E-3,-4.7359332E-2,1.9372016E-3,-8.7295286E-4,5.240304E-3,5.816985E-4,1.3620978E-3,-2.359022E-3,-5.3282706E-3,-1.1832918E-3],"categories":[],"categories_nodes":[],"categories_segments":[],"categories_sizes":[],"default_left":[0,0,0,0,0,0,0,0,0,0,0,0,0,0,0],"id":10,"left_children":[1,3,5,7,9,11,13,-1,-1,-1,-1,-1,-1,-1,-1],"loss_changes":[1.1507382E-2,4.690713E-3,5.1426077E-3,4.313669E-3,2.4928832E-3,4.684549E-3,4.216917E-4,0E0,0E0,0E0,0E0,0E0,0E0,0E0,0E0],"parents":[2147483647,0,0,1,1,2,2,3,3,4,4,5,5,6,6],"right_children":[2,4,6,8,10,12,14,-1,-1,-1,-1,-1,-1,-1,-1],"split_conditions":[2.8110243E-2,9.602357E-2,2.9292548E-2,1.31782675E-2,2.1533906E-2,1.2702171E-2,1.2434892E-1,1.9372016E-3,-8.7295286E-4,5.240304E-3,5.816985E-4,1.3620978E-3,-2.359022E-3,-5.3282706E-3,-1.1832918E-3],"split_indices":[3,1,2,1,2,1,2,0,0,0,0,0,0,0,0],"split_type":[0,0,0,0,0,0,0,0,0,0,0,0,0,0,0],"sum_hessian":[4.1E1,2.5E1,1.6E1,2E1,5E0,1.2E1,4E0,1E1,1E1,3E0,2E0,5E0,7E0,3E0,1E0],"tree_param":{"num_deleted":"0","num_feature":"5","num_nodes":"15","size_leaf_vector":"1"}},{"base_weights":[2.9337574E-3,1.8953163E-2,-7.868086E-3,-1.3271007E-2,3.080047E-2,-1.4595446E-2,2.9417577E-3,-2.46515E-3,-4.263008E-4,-1.422041E-3,4.1226684E-3,-8.496075E-4,-4.8359646E-3],"categories":[],"categories_nodes":[],"categories_segments":[],"categories_sizes":[],"default_left":[0,0,0,0,0,0,0,0,0,0,0,0,0],"id":11,"left_children":[1,3,5,7,9,11,-1,-1,-1,-1,-1,-1,-1],"loss_changes":[6.8976497E-3,6.5170666E-3,6.4493804E-3,4.0748797E-4,6.2190304E-3,3.9138813E-3,0E0,0E0,0E0,0E0,0E0,0E0,0E0],"parents":[2147483647,0,0,1,1,2,2,3,3,4,4,5,5],"right_children":[2,4,6,8,10,12,-1,-1,-1,-1,-1,-1,-1],"split_conditions":[-5.5503566E-3,-4.2005636E-2,6.632193E-2,-9.754895E-2,-6.494723E-2,1.15913875E-1,2.9417577E-3,-2.46515E-3,-4.263008E-4,-1.422041E-3,4.1226684E-3,-8.496075E-4,-4.8359646E-3],"split_indices":[4,0,1,0,1,2,0,0,0,0,0,0,0],"split_type":[0,0,0,0,0,0,0,0,0,0,0,0,0],"sum_hessian":[3.8E1,1.5E1,2.3E1,4E0,1.1E1,2E1,3E0,1E0,3E0,2E0,9E0,1.8E1,2E0],"tree_param":{"num_deleted":"0","num_feature":"5","num_nodes":"13","size_leaf_vector":"1"}},{"base_weights":[2.045678E-3,1.3687262E-2,-1.4816955E-2,-2.2288589E-3,2.019807E-2,-2.4501595E-3,-4.1533872E-2,3.3323579E-3,4.5315912E-5,5.4156815E-4,-4.4487207E-3,-4.75057E-3,-8.8232907E-4],"categories":[],"categories_nodes":[],"categories_segments":[],"categories_sizes":[],"default_left":[0,0,0,0,0,0,0,0,0,0,0,0,0],"id":12,"left_children":[1,3,5,-1,7,9,11,-1,-1,-1,-1,-1,-1],"loss_changes":[7.6624984E-3,5.8375187E-3,5.1846774E-3,0E0,5.168139E-3,4.208809E-3,5.5755395E-4,0E0,0E0,0E0,0E0,0E0,0E0],"parents":[2147483647,0,0,1,1,2,2,4,4,5,5,6,6],"right_children":[2,4,6,-1,8,10,12,-1,-1,-1,-1,-1,-1],"split_conditions":[2.8110243E-2,-6.494723E-2,5.3527135E-2,-2.2288589E-3,5.0386142E-2,1.07051514E-1,2.1533906E-2,3.3323579E-3,4.5315912E-5,5.4156815E-4,-4.4487207E-3,-4.75057E-3,-8.8232907E-4],"split_indices":[3,0,2,0,0,0,0,0,0,0,0,0,0],"split_type":[0,0,0,0,0,0,0,0,0,0,0,0,0],"sum_hessian":[3.7E1,2.2E1,1.5E1,3E0,1.9E1,1.1E1,4E0,1.1E1,8E0,1E1,1E0,3E0,1E0],"tree_param":{"num_deleted":"0","num_feature":"5","num_nodes":"13","size_leaf_vector":"1"}},{"base_weights":[9.38279E-5,1.586798E-2,-1.651548E-2,-1.2619596E-3,1.9734355E-2,-3.5853945E-2,-2.2468823E-3,2.9396475E-3,3.5152756E-5,-4.036672E-3,-2.1322507E-4,1.4243984E-3,-2.1111746E-3],"categories":[],"categories_nodes":[],"categories_segments":[],"categories_sizes":[],"default_left":[0,0,0,0,0,0,0,0,0,0,0,0,0],"id":13,"left_children":[1,3,5,-1,7,9,11,-1,-1,-1,-1,-1,-1],"loss_changes":[1.0217982E-2,2.451912E-3,5.1621627E-3,0E0,3.3606915E-3,1.1313558E-3,4.0338906E-3,0E0,0E0,0E0,0E0,0E0,0E0],"parents":[2147483647,0,0,1,1,2,2,4,4,5,5,6,6],"right_children":[2,4,6,-1,8,10,12,-1,-1,-1,-1,-1,-1],"split_conditions":[2.1533906E-2,-6.494723E-2,2.8717085E-3,-1.2619596E-3,5.0386142E-2,5.2227695E-2,2.8717085E-3,2.9396475E-3,3.5152756E-5,-4.036672E-3,-2.1322507E-4,1.4243984E-3,-2.1111746E-3],"split_indices":[3,0,0,0,0,1,1,0,0,0,0,0,0],"split_type":[0,0,0,0,0,0,0,0,0,0,0,0,0],"sum_hessian":[3.7E1,1.9E1,1.8E1,2E0,1.7E1,7E0,1.1E1,1.1E1,6E0,6E0,1E0,6E0,5E0],"tree_param":{"num_deleted":"0","num_feature":"5","num_nodes":"13","size_leaf_vector":"1"}},{"base_weights":[4.5455035E-6,9.031321E-3,-2.0306079E-2,-1.6832368E-2,1.4261196E-2,-5.4486594E-3,-1.2245432E-2,1.3195649E-4,-2.1700244E-3,4.7820406E-3,8.787919E-4,-2.1847617E-3,1.0020299E-3],"categories":[],"categories_nodes":[],"categories_segments":[],"categories_sizes":[],"default_left":[0,0,0,0,0,0,0,0,0,0,0,0,0],"id":14,"left_children":[1,3,5,7,9,-1,11,-1,-1,-1,-1,-1,-1],"loss_changes":[7.1502896E-3,3.8921742E-3,2.6389929E-3,4.7044153E-4,3.8043712E-3,0E0,2.5707162E-3,0E0,0E0,0E0,0E0,0E0,0E0],"parents":[2147483647,0,0,1,1,2,2,3,3,4,4,6,6],"right_children":[2,4,6,8,10,-1,12,-1,-1,-1,-1,-1,-1],"split_conditions":[2.8110243E-2,-5.1341143E-2,2.9292548E-2,-7.7471785E-2,-2.6884908E-2,-5.4486594E-3,2.1533906E-2,1.3195649E-4,-2.1700244E-3,4.7820406E-3,8.787919E-4,-2.1847617E-3,1.0020299E-3],"split_indices":[3,2,3,3,2,0,4,0,0,0,0,0,0],"split_type":[0,0,0,0,0,0,0,0,0,0,0,0,0],"sum_hessian":[3.7E1,2.6E1,1.1E1,4E0,2.2E1,1E0,1E1,1E0,3E0,2E0,2E1,7E0,3E0],"tree_param":{"num_deleted":"0","num_feature":"5","num_nodes":"13","size_leaf_vector":"1"}},{"base_weights":[-2.473667E-3,2.0840187E-2,-8.050551E-3,-6.4996746E-3,3.1036753E-2,3.706482E-3,-2.0774053E-2,-1.0374594E-3,6.250814E-5,5.256129E-3,7.134163E-4,1.5010935E-3,-2.1404247E-3,-3.4800314E-3,-5.9980387E-4],"categories":[],"categories_nodes":[],"categories_segments":[],"categories_sizes":[],"default_left":[0,0,0,0,0,0,0,0,0,0,0,0,0,0,0],"id":15,"left_children":[1,3,5,7,9,11,13,-1,-1,-1,-1,-1,-1,-1,-1],"loss_changes":[5.3685205E-3,2.43191E-3,5.0134896E-3,8.930852E-5,2.7119722E-3,5.430832E-3,3.107302E-3,0E0,0E0,0E0,0E0,0E0,0E0,0E0,0E0],"parents":[2147483647,0,0,1,1,2,2,3,3,4,4,5,5,6,6],"right_children":[2,4,6,8,10,12,14,-1,-1,-1,-1,-1,-1,-1,-1],"split_conditions":[-4.4608336E-2,-5.1341143E-2,1.31782675E-2,7.9768606E-2,5.2227695E-2,6.574508E-2,5.2227695E-2,-1.0374594E-3,6.250814E-5,5.256129E-3,7.134163E-4,1.5010935E-3,-2.1404247E-3,-3.4800314E-3,-5.9980387E-4],"split_indices":[3,4,1,1,4,2,1,0,0,0,0,0,0,0,0],"split_type":[0,0,0,0,0,0,0,0,0,0,0,0,0,0,0],"sum_hessian":[3.9E1,7E0,3.2E1,2E0,5E0,1.7E1,1.5E1,1E0,1E0,2E0,3E0,1.2E1,5E0,7E0,8E0],"tree_param":{"num_deleted":"0","num_feature":"5","num_nodes":"15","size_leaf_vector":"1"}},{"base_weights":[-5.084204E-3,1.705425E-2,-1.0633347E-2,-1.2378003E-3,2.8928002E-2,6.8152514E-3,-1.926674E-2,4.9057207E-3,6.5991015E-4,-8.9936465E-4,2.1488273E-3,2.633063E-4,-2.3062988E-3],"categories":[],"categories_nodes":[],"categories_segments":[],"categories_sizes":[],"default_left":[0,0,0,0,0,0,0,0,0,0,0,0,0],"id":16,"left_children":[1,3,5,-1,7,9,11,-1,-1,-1,-1,-1,-1],"loss_changes":[4.849623E-3,3.153841E-3,4.8011667E-3,0E0,2.3730444E-3,2.7448651E-3,1.8066047E-3,0E0,0E0,0E0,0E0,0E0,0E0],"parents":[2147483647,0,0,1,1,2,2,4,4,5,5,6,6],"right_children":[2,4,6,-1,8,10,12,-1,-1,-1,-1,-1,-1],"split_conditions":[-4.4608336E-2,-2.5765987E-2,-5.5503566E-3,-1.2378003E-3,5.2227695E-2,1.2702171E-2,-5.618367E-2,4.9057207E-3,6.5991015E-4,-8.9936465E-4,2.1488273E-3,2.633063E-4,-2.3062988E-3],"split_indices":[3,4,4,0,4,0,1,0,0,0,0,0,0],"split_type":[0,0,0,0,0,0,0,0,0,0,0,0,0],"sum_hessian":[3.7E1,7E0,3E1,2E0,5E0,1E1,2E1,2E0,3E0,5E0,5E0,3E0,1.7E1],"tree_param":{"num_deleted":"0","num_feature":"5","num_nodes":"13","size_leaf_vector":"1"}},{"base_weights":[5.852281E-3,1.6725328E-3,2.4123661E-2,1.4142483E-2,-1.3402909E-2,4.1656587E-3,5.598201E-4,6.816574E-4,4.8499834E-3,3.109558E-3,-1.8802487E-3,1.2127292E-4,-6.20593E-6],"categories":[],"categories_nodes":[],"categories_segments":[],"categories_sizes":[],"default_left":[0,0,0,0,0,0,0,0,0,0,0,0,0],"id":17,"left_children":[1,3,5,7,9,-1,11,-1,-1,-1,-1,-1,-1],"loss_changes":[2.8617037E-3,6.205231E-3,2.8686812E-3,4.199976E-3,4.1887695E-3,0E0,1.6993837E-6,0E0,0E0,0E0,0E0,0E0,0E0],"parents":[2147483647,0,0,1,1,2,2,3,3,4,4,6,6],"right_children":[2,4,6,8,10,-1,12,-1,-1,-1,-1,-1,-1],"split_conditions":[9.602357E-2,1.31782675E-2,2.1533906E-2,1.2702171E-2,-1.0060166E-1,4.1656587E-3,-5.618367E-2,6.816574E-4,4.8499834E-3,3.109558E-3,-1.8802487E-3,1.2127292E-4,-6.20593E-6],"split_indices":[1,1,2,1,3,0,3,0,0,0,0,0,0],"split_type":[0,0,0,0,0,0,0,0,0,0,0,0,0],"sum_hessian":[3.7E1,3.1E1,6E0,1.7E1,1.4E1,3E0,3E0,1.5E1,2E0,1E0,1.3E1,1E0,2E0],"tree_param":{"num_deleted":"0","num_feature":"5","num_nodes":"13","size_leaf_vector":"1"}},{"base_weights":[2.5180948E-3,7.335166E-3,-2.7851366E-2,1.0544304E-2,-2.6131559E-3,-4.9879733E-3,-9.874342E-4,-1.985153E-3,1.353109E-3],"categories":[],"categories_nodes":[],"categories_segments":[],"categories_sizes":[],"default_left":[0,0,0,0,0,0,0,0,0],"id":18,"left_children":[1,3,5,7,-1,-1,-1,-1,-1],"loss_changes":[5.3245095E-3,3.604919E-3,1.487493E-3,2.9014016E-3,0E0,0E0,0E0,0E0,0E0],"parents":[2147483647,0,0,1,1,2,2,3,3],"right_children":[2,4,6,8,-1,-1,-1,-1,-1],"split_conditions":[1.07051514E-1,1.1776787E-1,-4.2005636E-2,-9.754895E-2,-2.6131559E-3,-4.9879733E-3,-9.874342E-4,-1.985153E-3,1.353109E-3],"split_indices":[2,3,1,2,0,0,0,0,0],"split_type":[0,0,0,0,0,0,0,0,0],"sum_hessian":[3.4E1,3E1,4E0,2.8E1,2E0,1E0,3E0,2E0,2.6E1],"tree_param":{"num_deleted":"0","num_feature":"5","num_nodes":"9","size_leaf_vector":"1"}},{"base_weights":[-3.7980769E-3,1.4962734E-3,-1.6929325E-2,-1.2078025E-2,1.4065868E-2,9.589834E-3,-2.8072739E-2,-2.9144778E-3,-6.804836E-4,3.2648274E-3,4.3406058E-4,-4.079354E-4,1.5506016E-3,-4.2441483E-3,-3.0936315E-4],"categories":[],"categories_nodes":[],"categories_segments":[],"categories_sizes":[],"default_left":[0,0,0,0,0,0,0,0,0,0,0,0,0,0,0],"id":19,"left_children":[1,3,5,7,9,11,13,-1,-1,-1,-1,-1,-1,-1,-1],"loss_changes":[2.6671449E-3,4.9473443E-3,3.519867E-3,1.0616218E-3,2.5690682E-3,3.8673214E-4,2.7400474E-3,0E0,0E0,0E0,0E0,0E0,0E0,0E0,0E0],"parents":[2147483647,0,0,1,1,2,2,3,3,4,4,5,5,6,6],"right_children":[2,4,6,8,10,12,14,-1,-1,-1,-1,-1,-1,-1,-1],"split_conditions":[5.3527135E-2,1.3254307E-2,-2.8184508E-3,-2.5765987E-2,4.5449E-2,-7.7471785E-2,1.15913875E-1,-2.9144778E-3,-6.804836E-4,3.2648274E-3,4.3406058E-4,-4.079354E-4,1.5506016E-3,-4.2441483E-3,-3.0936315E-4],"split_indices":[4,0,0,2,0,1,4,0,0,0,0,0,0,0,0],"split_type":[0,0,0,0,0,0,0,0,0,0,0,0,0,0,0],"sum_hessian":[3.7E1,2.7E1,1E1,1.3E1,1.4E1,3E0,7E0,2E0,1.1E1,4E0,1E1,1E0,2E0,4E0,3E0],"tree_param":{"num_deleted":"0","num_feature":"5","num_nodes":"15","size_leaf_vector":"1"}},{"base_weights":[-1.6691498E-3,-7.192274E-3,1.8154087E-2,8.028585E-3,-1.672622E-2,-2.5049912E-5,2.739813E-2,-1.0297707E-3,3.1125546E-3,1.2853119E-4,-1.9980331E-3,4.4629685E-4,3.7749968E-3],"categories":[],"categories_nodes":[],"categories_segments":[],"categories_sizes":[],"default_left":[0,0,0,0,0,0,0,0,0,0,0,0,0],"id":20,"left_children":[1,3,5,7,9,-1,11,-1,-1,-1,-1,-1,-1],"loss_changes":[4.510017E-3,4.7779633E-3,1.538058E-3,5.823183E-3,1.1979118E-3,0E0,1.2560496E-3,0E0,0E0,0E0,0E0,0E0,0E0],"parents":[2147483647,0,0,1,1,2,2,3,3,4,4,6,6],"right_children":[2,4,6,8,10,-1,12,-1,-1,-1,-1,-1,-1],"split_conditions":[7.9768606E-2,-5.5503566E-3,-5.960469E-2,2.1533906E-2,-5.618367E-2,-2.5049912E-5,9.602357E-2,-1.0297707E-3,3.1125546E-3,1.2853119E-4,-1.9980331E-3,4.4629685E-4,3.7749968E-3],"split_indices":[1,4,4,0,0,0,1,0,0,0,0,0,0],"split_type":[0,0,0,0,0,0,0,0,0,0,0,0,0],"sum_hessian":[3.9E1,3.1E1,8E0,1.2E1,1.9E1,3E0,5E0,7E0,5E0,3E0,1.6E1,2E0,3E0],"tree_param":{"num_deleted":"0","num_feature":"5","num_nodes":"13","size_leaf_vector":"1"}},{"base_weights":[-3.2159635E-3,2.4202287E-3,-2.2272184E-2,-8.4549785E-3,1.3144172E-2,7.6692033E-4,-2.6973508E-2,-1.7276474E-3,1.4407606E-3,5.713411E-4,2.8349163E-3,-3.435195E-3,-3.2254562E-4],"categories":[],"categories_nodes":[],"categories_segments":[],"categories_sizes":[],"default_left":[0,0,0,0,0,0,0,0,0,0,0,0,0],"id":21,"left_children":[1,3,5,7,9,-1,11,-1,-1,-1,-1,-1,-1],"loss_changes":[4.2426805E-3,3.7265117E-3,1.4737425E-3,3.4758276E-3,1.6457839E-3,0E0,1.2909882E-3,0E0,0E0,0E0,0E0,0E0,0E0],"parents":[2147483647,0,0,1,1,2,2,3,3,4,4,6,6],"right_children":[2,4,6,8,10,-1,12,-1,-1,-1,-1,-1,-1],"split_conditions":[5.395062E-2,2.1533906E-2,-2.8184508E-3,4.7161557E-2,5.395062E-2,7.6692033E-4,1.15913875E-1,-1.7276474E-3,1.4407606E-3,5.713411E-4,2.8349163E-3,-3.435195E-3,-3.2254562E-4],"split_indices":[4,0,0,4,2,0,4,0,0,0,0,0,0],"split_type":[0,0,0,0,0,0,0,0,0,0,0,0,0],"sum_hessian":[3.8E1,3E1,8E0,1.5E1,1.5E1,1E0,7E0,1.1E1,4E0,1.1E1,4E0,5E0,2E0],"tree_param":{"num_deleted":"0","num_feature":"5","num_nodes":"13","size_leaf_vector":"1"}},{"base_weights":[3.878479E-3,-1.4303889E-2,9.584295E-3,1.8028971E-3,-3.4888096E-2,1.9811776E-2,2.8017068E-3,-1.6833805E-3,2.6050867E-3,-4.209485E-3,-6.6339184E-4,2.5685662E-3,-4.413813E-4,-2.2310724E-3,1.4176543E-3],"categories":[],"categories_nodes":[],"categories_segments":[],"categories_sizes":[],"default_left":[0,0,0,0,0,0,0,0,0,0,0,0,0,0,0],"id":22,"left_children":[1,3,5,7,9,11,13,-1,-1,-1,-1,-1,-1,-1,-1],"loss_changes":[3.8719212E-3,3.046809E-3,1.8868193E-3,3.149948E-3,5.352297E-4,1.6786535E-3,5.457985E-3,0E0,0E0,0E0,0E0,0E0,0E0,0E0,0E0],"parents":[2147483647,0,0,1,1,2,2,3,3,4,4,5,5,6,6],"right_children":[2,4,6,8,10,12,14,-1,-1,-1,-1,-1,-1,-1,-1],"split_conditions":[-3.19373E-2,-5.668029E-2,-7.883703E-3,-6.494723E-2,-4.2005636E-2,6.632193E-2,2.1533906E-2,-1.6833805E-3,2.6050867E-3,-4.209485E-3,-6.6339184E-4,2.5685662E-3,-4.413813E-4,-2.2310724E-3,1.4176543E-3],"split_indices":[1,1,4,1,1,2,4,0,0,0,0,0,0,0,0],"split_type":[0,0,0,0,0,0,0,0,0,0,0,0,0,0,0],"sum_hessian":[3.5E1,8E0,2.7E1,5E0,3E0,1E1,1.7E1,3E0,2E0,2E0,1E0,8E0,2E0,5E0,1.2E1],"tree_param":{"num_deleted":"0","num_feature":"5","num_nodes":"15","size_leaf_vector":"1"}},{"base_weights":[-1.6372625E-3,1.593163E-2,-6.3791648E-3,-5.5551142E-3,2.2864288E-2,-9.705932E-3,2.0166377E-2,-7.0337526E-4,-1.2989194E-4,-6.302222E-4,2.8775744E-3,-3.362598E-4,-2.205634E-3,4.0403157E-3,-4.6935556E-6],"categories":[],"categories_nodes":[],"categories_segments":[],"categories_sizes":[],"default_left":[0,0,0,0,0,0,0,0,0,0,0,0,0,0,0],"id":23,"left_children":[1,3,5,7,9,11,13,-1,-1,-1,-1,-1,-1,-1,-1],"loss_changes":[3.5173392E-3,1.4676559E-3,3.1099906E-3,9.743839E-6,1.3882671E-3,2.2761156E-3,1.6381057E-3,0E0,0E0,0E0,0E0,0E0,0E0,0E0,0E0],"parents":[2147483647,0,0,1,1,2,2,3,3,4,4,5,5,6,6],"right_children":[2,4,6,8,10,12,14,-1,-1,-1,-1,-1,-1,-1,-1],"split_conditions":[-4.4608336E-2,-5.1341143E-2,6.632193E-2,7.9768606E-2,-3.19373E-2,1.3552408E-2,1.15913875E-1,-7.0337526E-4,-1.2989194E-4,-6.302222E-4,2.8775744E-3,-3.362598E-4,-2.205634E-3,4.0403157E-3,-4.6935556E-6],"split_indices":[3,4,1,1,1,1,1,0,0,0,0,0,0,0,0],"split_type":[0,0,0,0,0,0,0,0,0,0,0,0,0,0,0],"sum_hessian":[4E1,8E0,3.2E1,2E0,6E0,2.9E1,3E0,1E0,1E0,1E0,5E0,2E1,9E0,1E0,2E0],"tree_param":{"num_deleted":"0","num_feature":"5","num_nodes":"15","size_leaf_vector":"1"}},{"base_weights":[1.05201696E-4,2.0121424E-3,-3.3318864E-3,1.5152664E-2,-1.2290918E-3,2.4958763E-3,1.5583982E-4,-1.3715344E-3,1.3173225E-4],"categories":[],"categories_nodes":[],"categories_segments":[],"categories_sizes":[],"default_left":[0,0,0,0,0,0,0,0,0],"id":24,"left_children":[1,3,-1,5,7,-1,-1,-1,-1],"loss_changes":[2.3616E-3,1.5093266E-3,0E0,8.942515E-4,9.401275E-4,0E0,0E0,0E0,0E0],"parents":[2147483647,0,0,1,1,3,3,4,4],"right_children":[2,4,-1,6,8,-1,-1,-1,-1],"split_conditions":[1.2434892E-1,-4.4608336E-2,-3.3318864E-3,2.9292548E-2,-6.494723E-2,2.4958763E-3,1.5583982E-4,-1.3715344E-3,1.3173225E-4],"split_indices":[0,3,0,1,1,0,0,0,0],"split_type":[0,0,0,0,0,0,0,0,0],"sum_hessian":[3.5E1,3.4E1,1E0,6E0,2.8E1,3E0,3E0,4E0,2.4E1],"tree_param":{"num_deleted":"0","num_feature":"5","num_nodes":"9","size_leaf_vector":"1"}},{"base_weights":[9.862292E-4,-1.322199E-2,6.1630355E-3,1.4658421E-3,-3.1140558E-2,-1.2055337E-2,1.0288924E-2,-1.2618116E-3,2.4450494E-3,-3.5308176E-3,-7.2350487E-4,-2.0482806E-3,3.1997313E-4,2.9395735E-3,1.2254005E-4],"categories":[],"categories_nodes":[],"categories_segments":[],"categories_sizes":[],"default_left":[0,0,0,0,0,0,0,0,0,0,0,0,0,0,0],"id":25,"left_children":[1,3,5,7,9,11,13,-1,-1,-1,-1,-1,-1,-1,-1],"loss_changes":[3.0236156E-3,2.9406815E-3,2.3790454E-3,2.574523E-3,2.4268823E-4,8.36909E-4,4.293354E-3,0E0,0E0,0E0,0E0,0E0,0E0,0E0,0E0],"parents":[2147483647,0,0,1,1,2,2,3,3,4,4,5,5,6,6],"right_children":[2,4,6,8,10,12,14,-1,-1,-1,-1,-1,-1,-1,-1],"split_conditions":[-3.19373E-2,-5.668029E-2,-5.618367E-2,-6.494723E-2,2.8717085E-3,7.9768606E-2,-5.5503566E-3,-1.2618116E-3,2.4450494E-3,-3.5308176E-3,-7.2350487E-4,-2.0482806E-3,3.1997313E-4,2.9395735E-3,1.2254005E-4],"split_indices":[1,1,2,1,0,0,2,0,0,0,0,0,0,0,0],"split_type":[0,0,0,0,0,0,0,0,0,0,0,0,0,0,0],"sum_hessian":[3.9E1,1E1,2.9E1,6E0,4E0,5E0,2.4E1,4E0,2E0,3E0,1E0,3E0,2E0,7E0,1.7E1],"tree_param":{"num_deleted":"0","num_feature":"5","num_nodes":"15","size_leaf_vector":"1"}},{"base_weights":[-5.542876E-4,-4.3984107E-3,2.068077E-2,5.610794E-3,-1.8383102E-2,-2.1332176E-4,3.1181148E-3,-3.9670576E-4,2.8620288E-3,-3.0127247E-3,-1.0672719E-3,-1.0496069E-4,7.296242E-5],"categories":[],"categories_nodes":[],"categories_segments":[],"categories_sizes":[],"default_left":[0,0,0,0,0,0,0,0,0,0,0,0,0],"id":26,"left_children":[1,3,5,7,9,11,-1,-1,-1,-1,-1,-1,-1],"loss_changes":[3.1929093E-3,4.7223396E-3,1.3230266E-3,4.521169E-3,9.461865E-4,3.1315333E-6,0E0,0E0,0E0,0E0,0E0,0E0,0E0],"parents":[2147483647,0,0,1,1,2,2,3,3,4,4,5,5],"right_children":[2,4,6,8,10,12,-1,-1,-1,-1,-1,-1,-1],"split_conditions":[9.602357E-2,1.31782675E-2,-5.960469E-2,-7.883703E-3,2.8110243E-2,-4.2005636E-2,3.1181148E-3,-3.9670576E-4,2.8620288E-3,-3.0127247E-3,-1.0672719E-3,-1.0496069E-4,7.296242E-5],"split_indices":[1,1,4,1,1,0,0,0,0,0,0,0,0],"split_type":[0,0,0,0,0,0,0,0,0,0,0,0,0],"sum_hessian":[3.7E1,3.2E1,5E0,1.9E1,1.3E1,2E0,3E0,1.4E1,5E0,4E0,9E0,1E0,1E0],"tree_param":{"num_deleted":"0","num_feature":"5","num_nodes":"13","size_leaf_vector":"1"}},{"base_weights":[2.0045949E-4,-3.014304E-3,2.7956034E-3,7.5228782E-3,-1.1696844E-2,1.4702432E-3,-4.2566936E-4,1.6369064E-4,-2.877326E-3],"categories":[],"categories_nodes":[],"categories_segments":[],"categories_sizes":[],"default_left":[0,0,0,0,0,0,0,0,0],"id":27,"left_children":[1,-1,3,5,7,-1,-1,-1,-1],"loss_changes":[2.9978603E-3,0E0,2.4858364E-3,2.3460295E-3,2.096333E-3,0E0,0E0,0E0,0E0],"parents":[2147483647,0,0,2,2,3,3,4,4],"right_children":[2,-1,4,6,8,-1,-1,-1,-1],"split_conditions":[-6.494723E-2,-3.014304E-3,6.574508E-2,5.0386142E-2,2.1533906E-2,1.4702432E-3,-4.2566936E-4,1.6369064E-4,-2.877326E-3],"split_indices":[2,0,2,0,3,0,0,0,0],"split_type":[0,0,0,0,0,0,0,0,0],"sum_hessian":[3.6E1,2E0,3.4E1,2.6E1,8E0,1.6E1,1E1,5E0,3E0],"tree_param":{"num_deleted":"0","num_feature":"5","num_nodes":"9","size_leaf_vector":"1"}},{"base_weights":[4.353736E-3,6.0746395E-3,-2.879939E-3,1.8372606E-2,1.9047699E-3,2.5009838E-4,3.7586892E-3,-7.0111266E-5,2.385416E-3],"categories":[],"categories_nodes":[],"categories_segments":[],"categories_sizes":[],"default_left":[0,0,0,0,0,0,0,0,0],"id":28,"left_children":[1,3,-1,5,7,-1,-1,-1,-1],"loss_changes":[2.2859187E-3,1.8111175E-3,0E0,2.6506523E-3,1.6182554E-3,0E0,0E0,0E0,0E0],"parents":[2147483647,0,0,1,1,3,3,4,4],"right_children":[2,4,-1,6,8,-1,-1,-1,-1],"split_conditions":[1.3799675E-1,-8.426538E-3,-2.879939E-3,-5.618367E-2,1.15913875E-1,2.5009838E-4,3.7586892E-3,-7.0111266E-5,2.385416E-3],"split_indices":[0,2,0,2,0,0,0,0,0],"split_type":[0,0,0,0,0,0,0,0,0],"sum_hessian":[3.6E1,3.5E1,1E0,8E0,2.7E1,5E0,3E0,2.5E1,2E0],"tree_param":{"num_deleted":"0","num_feature":"5","num_nodes":"9","size_leaf_vector":"1"}},{"base_weights":[-1.8863714E-3,1.9376337E-3,-1.4423459E-2,-7.536616E-3,7.0515894E-3,2.0840068E-3,-2.3024525E-2,-2.145468E-3,-2.05986E-4,3.267382E-3,3.983376E-4,7.063378E-4,-6.427053E-4,-2.6679756E-3,-2.3741844E-4],"categories":[],"categories_nodes":[],"categories_segments":[],"categories_sizes":[],"default_left":[0,0,0,0,0,0,0,0,0,0,0,0,0,0,0],"id":29,"left_children":[1,3,5,7,9,11,13,-1,-1,-1,-1,-1,-1,-1,-1],"loss_changes":[1.849739E-3,1.5066719E-3,1.3258199E-3,7.942907E-4,1.4421373E-3,2.1491559E-4,3.8954755E-4,0E0,0E0,0E0,0E0,0E0,0E0,0E0,0E0],"parents":[2147483647,0,0,1,1,2,2,3,3,4,4,5,5,6,6],"right_children":[2,4,6,8,10,12,14,-1,-1,-1,-1,-1,-1,-1,-1],"split_conditions":[5.395062E-2,-2.6884908E-2,-4.2005636E-2,-2.5765987E-2,-7.883703E-3,1.31782675E-2,9.554248E-2,-2.145468E-3,-2.05986E-4,3.267382E-3,3.983376E-4,7.063378E-4,-6.427053E-4,-2.6679756E-3,-2.3741844E-4],"split_indices":[4,0,3,2,0,0,4,0,0,0,0,0,0,0,0],"split_type":[0,0,0,0,0,0,0,0,0,0,0,0,0,0,0],"sum_hessian":[3.7E1,2.9E1,8E0,1E1,1.9E1,3E0,5E0,2E0,8E0,1E0,1.8E1,2E0,1E0,4E0,1E0],"tree_param":{"num_deleted":"0","num_feature":"5","num_nodes":"15","size_leaf_vector":"1"}},{"base_weights":[1.8629297E-3,-4.1175066E-4,2.073198E-3,2.590868E-3,-1.04941195E-2,6.6022866E-4,-1.6379831E-3,-1.5798564E-3,1.3318494E-3],"categories":[],"categories_nodes":[],"categories_segments":[],"categories_sizes":[],"default_left":[0,0,0,0,0,0,0,0,0],"id":30,"left_children":[1,3,-1,5,7,-1,-1,-1,-1],"loss_changes":[1.5966155E-3,1.0564881E-3,0E0,2.1628288E-3,1.2209145E-3,0E0,0E0,0E0,0E0],"parents":[2147483647,0,0,1,1,3,3,4,4],"right_children":[2,4,-1,6,8,-1,-1,-1,-1],"split_conditions":[9.602357E-2,5.0386142E-2,2.073198E-3,8.8781975E-2,1.15913875E-1,6.6022866E-4,-1.6379831E-3,-1.5798564E-3,1.3318494E-3],"split_indices":[0,0,0,3,3,0,0,0,0],"split_type":[0,0,0,0,0,0,0,0,0],"sum_hessian":[3.6E1,3.3E1,3E0,2.6E1,7E0,2.2E1,4E0,6E0,1E0],"tree_param":{"num_deleted":"0","num_feature":"5","num_nodes":"9","size_leaf_vector":"1"}},{"base_weights":[1.395298E-3,4.0681143E-3,-1.4874149E-2,7.2817286E-3,-8.089751E-3,-1.9115491E-3,-2.7199567E-3,1.7017148E-3,2.7626564E-4,9.341252E-5,-1.1253398E-3,5.90479E-4,-6.485259E-4],"categories":[],"categories_nodes":[],"categories_segments":[],"categories_sizes":[],"default_left":[0,0,0,0,0,0,0,0,0,0,0,0,0],"id":31,"left_children":[1,3,5,7,9,11,-1,-1,-1,-1,-1,-1,-1],"loss_changes":[1.843405E-3,1.4654519E-3,9.0662343E-4,1.2288443E-3,2.3889891E-4,1.8129275E-4,0E0,0E0,0E0,0E0,0E0,0E0,0E0],"parents":[2147483647,0,0,1,1,2,2,3,3,4,4,5,5],"right_children":[2,4,6,8,10,12,-1,-1,-1,-1,-1,-1,-1],"split_conditions":[8.8781975E-2,8.8781975E-2,-8.426538E-3,-5.5503566E-3,-4.2005636E-2,1.07051514E-1,-2.7199567E-3,1.7017148E-3,2.7626564E-4,9.341252E-5,-1.1253398E-3,5.90479E-4,-6.485259E-4],"split_indices":[4,3,1,2,2,4,0,0,0,0,0,0,0],"split_type":[0,0,0,0,0,0,0,0,0,0,0,0,0],"sum_hessian":[4E1,3.5E1,5E0,2.8E1,7E0,3E0,2E0,8E0,2E1,2E0,5E0,1E0,2E0],"tree_param":{"num_deleted":"0","num_feature":"5","num_nodes":"13","size_leaf_vector":"1"}},{"base_weights":[5.811165E-4,-9.938943E-3,4.693243E-3,-3.6855103E-3,-2.5386263E-3,1.1233484E-2,-1.9947095E-4,-1.7145453E-3,5.902037E-4,-3.8221122E-5,2.2912882E-3,2.2679814E-3,-4.76203E-4],"categories":[],"categories_nodes":[],"categories_segments":[],"categories_sizes":[],"default_left":[0,0,0,0,0,0,0,0,0,0,0,0,0],"id":32,"left_children":[1,3,5,7,-1,9,11,-1,-1,-1,-1,-1,-1],"loss_changes":[1.690519E-3,9.690252E-4,8.982276E-4,1.2626235E-3,0E0,1.6367295E-3,1.8825993E-3,0E0,0E0,0E0,0E0,0E0,0E0],"parents":[2147483647,0,0,1,1,2,2,3,3,5,5,6,6],"right_children":[2,4,6,8,-1,10,12,-1,-1,-1,-1,-1,-1],"split_conditions":[-1.1883655E-2,8.8781975E-2,-5.5503566E-3,-2.6884908E-2,-2.5386263E-3,-5.1341143E-2,-5.5503566E-3,-1.7145453E-3,5.902037E-4,-3.8221122E-5,2.2912882E-3,2.2679814E-3,-4.76203E-4],"split_indices":[2,4,4,0,0,4,2,0,0,0,0,0,0],"split_type":[0,0,0,0,0,0,0,0,0,0,0,0,0],"sum_hessian":[3.7E1,1E1,2.7E1,8E0,2E0,1.1E1,1.6E1,3E0,5E0,6E0,5E0,2E0,1.4E1],"tree_param":{"num_deleted":"0","num_feature":"5","num_nodes":"13","size_leaf_vector":"1"}},{"base_weights":[-1.8985595E-3,1.555854E-3,-1.0833054E-2,-1.2691891E-2,3.687974E-3,8.3871017E-4,-1.9088998E-2,-3.512594E-4,-1.4580791E-3,2.4908027E-3,-1.6281656E-5,-1.158779E-3,-3.5798734E-3],"categories":[],"categories_nodes":[],"categories_segments":[],"categories_sizes":[],"default_left":[0,0,0,0,0,0,0,0,0,0,0,0,0],"id":33,"left_children":[1,3,5,7,9,-1,11,-1,-1,-1,-1,-1,-1],"loss_changes":[1.2205286E-3,9.277666E-4,1.9055877E-3,1.8138671E-5,2.128619E-3,0E0,5.879174E-4,0E0,0E0,0E0,0E0,0E0,0E0],"parents":[2147483647,0,0,1,1,2,2,3,3,4,4,6,6],"right_children":[2,4,6,8,10,-1,12,-1,-1,-1,-1,-1,-1],"split_conditions":[5.3527135E-2,-6.494723E-2,-1.1883655E-2,-1.0060166E-1,-5.618367E-2,8.3871017E-4,5.2497752E-2,-3.512594E-4,-1.4580791E-3,2.4908027E-3,-1.6281656E-5,-1.158779E-3,-3.5798734E-3],"split_indices":[4,1,3,1,1,0,2,0,0,0,0,0,0],"split_type":[0,0,0,0,0,0,0,0,0,0,0,0,0],"sum_hessian":[3.8E1,2.8E1,1E1,3E0,2.5E1,3E0,7E0,1E0,2E0,3E0,2.2E1,6E0,1E0],"tree_param":{"num_deleted":"0","num_feature":"5","num_nodes":"13","size_leaf_vector":"1"}},{"base_weights":[-3.762876E-3,-6.190893E-4,-1.8854663E-2,5.666491E-3,-8.207359E-3,6.490813E-4,-3.8574766E-3,2.9613617E-5,3.0629437E-3,-1.2826668E-3,6.5475795E-4,-6.999289E-4,5.5316347E-4],"categories":[],"categories_nodes":[],"categories_segments":[],"categories_sizes":[],"default_left":[0,0,0,0,0,0,0,0,0,0,0,0,0],"id":34,"left_children":[1,3,5,7,9,11,-1,-1,-1,-1,-1,-1,-1],"loss_changes":[1.6489145E-3,1.4774074E-3,2.3327332E-3,2.2699472E-3,1.0381902E-3,1.8809181E-4,0E0,0E0,0E0,0E0,0E0,0E0,0E0],"parents":[2147483647,0,0,1,1,2,2,3,3,4,4,5,5],"right_children":[2,4,6,8,10,12,-1,-1,-1,-1,-1,-1,-1],"split_conditions":[5.395062E-2,1.31782675E-2,-1.1883655E-2,1.2702171E-2,2.1533906E-2,-3.19373E-2,-3.8574766E-3,2.9613617E-5,3.0629437E-3,-1.2826668E-3,6.5475795E-4,-6.999289E-4,5.5316347E-4],"split_indices":[4,1,3,1,4,1,0,0,0,0,0,0,0],"split_type":[0,0,0,0,0,0,0,0,0,0,0,0,0],"sum_hessian":[3.4E1,2.9E1,5E0,1.6E1,1.3E1,3E0,2E0,1.4E1,2E0,1E1,3E0,1E0,2E0],"tree_param":{"num_deleted":"0","num_feature":"5","num_nodes":"13","size_leaf_vector":"1"}},{"base_weights":[-7.592028E-4,-4.012883E-3,1.3293599E-2,-1.1953061E-2,2.762139E-3,2.365724E-2,-3.934407E-4,5.618404E-4,-2.2339255E-3,1.0569139E-3,-7.3418784E-4,6.9421047E-4,2.6914915E-3,-1.3938616E-4,4.0465347E-5],"categories":[],"categories_nodes":[],"categories_segments":[],"categories_sizes":[],"default_left":[0,0,0,0,0,0,0,0,0,0,0,0,0,0,0],"id":35,"left_children":[1,3,5,7,9,11,13,-1,-1,-1,-1,-1,-1,-1,-1],"loss_changes":[1.6993853E-3,1.6468625E-3,1.0022406E-3,2.6805198E-3,1.4185923E-3,3.0963914E-5,3.7577508E-6,0E0,0E0,0E0,0E0,0E0,0E0,0E0,0E0],"parents":[2147483647,0,0,1,1,2,2,3,3,4,4,5,5,6,6],"right_children":[2,4,6,8,10,12,14,-1,-1,-1,-1,-1,-1,-1,-1],"split_conditions":[7.9768606E-2,1.3254307E-2,2.1533906E-2,-5.5503566E-3,1.31782675E-2,-5.668029E-2,-4.2005636E-2,5.618404E-4,-2.2339255E-3,1.0569139E-3,-7.3418784E-4,6.9421047E-4,2.6914915E-3,-1.3938616E-4,4.0465347E-5],"split_indices":[1,0,2,3,1,0,0,0,0,0,0,0,0,0,0],"split_type":[0,0,0,0,0,0,0,0,0,0,0,0,0,0,0],"sum_hessian":[3.5E1,2.9E1,6E0,1.3E1,1.6E1,3E0,3E0,5E0,8E0,9E0,7E0,1E0,2E0,1E0,2E0],"tree_param":{"num_deleted":"0","num_feature":"5","num_nodes":"15","size_leaf_vector":"1"}},{"base_weights":[9.960687E-4,5.182583E-3,-1.27346115E-2,1.3667252E-2,-7.629897E-3,-2.833624E-3,-2.8113627E-3,2.2862398E-3,5.8639253E-4,-1.2272348E-3,1.9397311E-3,1.9305693E-4,-4.145863E-4],"categories":[],"categories_nodes":[],"categories_segments":[],"categories_sizes":[],"default_left":[0,0,0,0,0,0,0,0,0,0,0,0,0],"id":36,"left_children":[1,3,5,7,9,-1,11,-1,-1,-1,-1,-1,-1],"loss_changes":[1.9629598E-3,2.9307306E-3,1.158887E-3,1.0139798E-3,1.6182482E-3,0E0,4.597253E-5,0E0,0E0,0E0,0E0,0E0,0E0],"parents":[2147483647,0,0,1,1,2,2,3,3,4,4,6,6],"right_children":[2,4,6,8,10,-1,12,-1,-1,-1,-1,-1,-1],"split_conditions":[6.632193E-2,5.3527135E-2,-4.2005636E-2,-5.5503566E-3,5.0386142E-2,-2.833624E-3,8.8781975E-2,2.2862398E-3,5.8639253E-4,-1.2272348E-3,1.9397311E-3,1.9305693E-4,-4.145863E-4],"split_indices":[2,0,1,4,2,0,2,0,0,0,0,0,0],"split_type":[0,0,0,0,0,0,0,0,0,0,0,0,0],"sum_hessian":[3.2E1,2.5E1,7E0,1.5E1,1E1,2E0,5E0,6E0,9E0,9E0,1E0,1E0,4E0],"tree_param":{"num_deleted":"0","num_feature":"5","num_nodes":"13","size_leaf_vector":"1"}},{"base_weights":[5.949421E-4,3.414107E-3,-9.49486E-3,1.047178E-3,2.594536E-3,-3.2951464E-3,-2.9546283E-3,-6.615527E-4,1.0277092E-3,-7.154065E-4,1.1858641E-3],"categories":[],"categories_nodes":[],"categories_segments":[],"categories_sizes":[],"default_left":[0,0,0,0,0,0,0,0,0,0,0],"id":37,"left_children":[1,3,5,7,-1,9,-1,-1,-1,-1,-1],"loss_changes":[1.1702091E-3,1.6793865E-3,1.0214583E-3,2.1897717E-3,0E0,5.5265526E-4,0E0,0E0,0E0,0E0,0E0],"parents":[2147483647,0,0,1,1,2,2,3,3,5,5],"right_children":[2,4,6,8,-1,10,-1,-1,-1,-1,-1],"split_conditions":[6.632193E-2,5.395062E-2,2.8110243E-2,2.1582266E-2,2.594536E-3,1.3799675E-1,-2.9546283E-3,-6.615527E-4,1.0277092E-3,-7.154065E-4,1.1858641E-3],"split_indices":[2,2,4,3,0,2,0,0,0,0,0],"split_type":[0,0,0,0,0,0,0,0,0,0,0],"sum_hessian":[3.9E1,3.1E1,8E0,2.9E1,2E0,7E0,1E0,1.6E1,1.3E1,6E0,1E0],"tree_param":{"num_deleted":"0","num_feature":"5","num_nodes":"11","size_leaf_vector":"1"}},{"base_weights":[1.5295643E-3,5.2611297E-3,-1.3121447E-2,-5.795718E-3,1.0802282E-2,6.6325814E-4,-1.6890964E-2,-1.8315567E-3,-9.784663E-5,1.9336632E-3,1.2859066E-4,-2.8068968E-3,-1.03498E-3],"categories":[],"categories_nodes":[],"categories_segments":[],"categories_sizes":[],"default_left":[0,0,0,0,0,0,0,0,0,0,0,0,0],"id":38,"left_children":[1,3,5,7,9,-1,11,-1,-1,-1,-1,-1,-1],"loss_changes":[2.1465393E-3,1.961905E-3,7.0773566E-4,6.455028E-4,1.6806724E-3,0E0,2.2131181E-4,0E0,0E0,0E0,0E0,0E0,0E0],"parents":[2147483647,0,0,1,1,2,2,3,3,4,4,6,6],"right_children":[2,4,6,8,10,-1,12,-1,-1,-1,-1,-1,-1],"split_conditions":[5.395062E-2,-2.6884908E-2,-5.668029E-2,-2.5765987E-2,5.0386142E-2,6.6325814E-4,2.8717085E-3,-1.8315567E-3,-9.784663E-5,1.9336632E-3,1.2859066E-4,-2.8068968E-3,-1.03498E-3],"split_indices":[4,0,0,2,0,0,0,0,0,0,0,0,0],"split_type":[0,0,0,0,0,0,0,0,0,0,0,0,0],"sum_hessian":[3.7E1,3E1,7E0,1E1,2E1,1E0,6E0,2E0,8E0,1E1,1E1,1E0,5E0],"tree_param":{"num_deleted":"0","num_feature":"5","num_nodes":"13","size_leaf_vector":"1"}},{"base_weights":[-1.4534142E-3,1.3939348E-3,-1.1099459E-2,-5.8467145E-4,2.0055817E-3,8.408517E-4,-1.7874382E-2,-8.593251E-4,4.0826466E-4,-2.3675186E-3,-2.2482539E-4],"categories":[],"categories_nodes":[],"categories_segments":[],"categories_sizes":[],"default_left":[0,0,0,0,0,0,0,0,0,0,0],"id":39,"left_children":[1,3,5,7,-1,-1,9,-1,-1,-1,-1],"loss_changes":[1.0866325E-3,1.156386E-3,1.3397825E-3,1.1190623E-3,0E0,0E0,5.812808E-4,0E0,0E0,0E0,0E0],"parents":[2147483647,0,0,1,1,2,2,3,3,6,6],"right_children":[2,4,6,8,-1,-1,10,-1,-1,-1,-1],"split_conditions":[5.3527135E-2,5.0386142E-2,-2.8184508E-3,-8.426538E-3,2.0055817E-3,8.408517E-4,1.15913875E-1,-8.593251E-4,4.0826466E-4,-2.3675186E-3,-2.2482539E-4],"split_indices":[4,4,0,0,0,0,4,0,0,0,0],"split_type":[0,0,0,0,0,0,0,0,0,0,0],"sum_hessian":[3.8E1,3E1,8E0,2.8E1,2E0,2E0,6E0,1E1,1.8E1,4E0,2E0],"tree_param":{"num_deleted":"0","num_feature":"5","num_nodes":"11","size_leaf_vector":"1"}},{"base_weights":[2.4620502E-3,6.7008324E-3,-7.3953685E-3,1.2448444E-2,-3.1654292E-3,-2.548176E-3,-3.038553E-3,-8.6747415E-5,1.8579996E-3,-1.1647554E-3,7.646206E-4,3.7317388E-4,-1.4126926E-3],"categories":[],"categories_nodes":[],"categories_segments":[],"categories_sizes":[],"default_left":[0,0,0,0,0,0,0,0,0,0,0,0,0],"id":40,"left_children":[1,3,5,7,9,-1,11,-1,-1,-1,-1,-1,-1],"loss_changes":[1.5119759E-3,1.4570906E-3,7.893621E-4,1.3224734E-3,1.0061159E-3,0E0,8.034332E-4,0E0,0E0,0E0,0E0,0E0,0E0],"parents":[2147483647,0,0,1,1,2,2,3,3,4,4,6,6],"right_children":[2,4,6,8,10,-1,12,-1,-1,-1,-1,-1,-1],"split_conditions":[5.2227695E-2,5.2497752E-2,-4.2005636E-2,-4.4608336E-2,-5.5503566E-3,-2.548176E-3,1.07051514E-1,-8.6747415E-5,1.8579996E-3,-1.1647554E-3,7.646206E-4,3.7317388E-4,-1.4126926E-3],"split_indices":[4,3,1,0,0,0,0,0,0,0,0,0,0],"split_type":[0,0,0,0,0,0,0,0,0,0,0,0,0],"sum_hessian":[3.4E1,2.4E1,1E1,1.5E1,9E0,1E0,9E0,5E0,1E1,5E0,4E0,6E0,3E0],"tree_param":{"num_deleted":"0","num_feature":"5","num_nodes":"13","size_leaf_vector":"1"}},{"base_weights":[5.760681E-4,3.133853E-3,-9.087633E-3,-1.541413E-5,2.3607945E-3,-1.6374003E-2,2.2922363E-3,3.0904694E-4,-1.4299396E-3,-3.604874E-4,-2.368513E-3,-3.0541804E-4,9.165743E-4],"categories":[],"categories_nodes":[],"categories_segments":[],"categories_sizes":[],"default_left":[0,0,0,0,0,0,0,0,0,0,0,0,0],"id":41,"left_children":[1,3,5,7,-1,9,11,-1,-1,-1,-1,-1,-1],"loss_changes":[9.430331E-4,1.9347152E-3,7.008765E-4,1.2420303E-3,0E0,3.8140174E-4,1.7498838E-4,0E0,0E0,0E0,0E0,0E0,0E0],"parents":[2147483647,0,0,1,1,2,2,3,3,5,5,6,6],"right_children":[2,4,6,8,-1,10,12,-1,-1,-1,-1,-1,-1],"split_conditions":[6.632193E-2,5.2497752E-2,1.1776787E-1,5.395062E-2,2.3607945E-3,1.3552408E-2,1.3799675E-1,3.0904694E-4,-1.4299396E-3,-3.604874E-4,-2.368513E-3,-3.0541804E-4,9.165743E-4],"split_indices":[2,2,2,3,0,3,2,0,0,0,0,0,0],"split_type":[0,0,0,0,0,0,0,0,0,0,0,0,0],"sum_hessian":[3.6E1,2.9E1,7E0,2.6E1,3E0,4E0,3E0,2.2E1,4E0,2E0,2E0,2E0,1E0],"tree_param":{"num_deleted":"0","num_feature":"5","num_nodes":"13","size_leaf_vector":"1"}},{"base_weights":[1.4811538E-3,4.2189914E-3,-7.5053405E-3,-6.4348215E-3,8.584007E-3,8.764649E-4,-1.8201713E-2,6.899892E-4,-1.4252161E-3,1.740509E-3,3.8952348E-4,-6.2427914E-4,5.996791E-4,-2.2106122E-3,-3.2442436E-4],"categories":[],"categories_nodes":[],"categories_segments":[],"categories_sizes":[],"default_left":[0,0,0,0,0,0,0,0,0,0,0,0,0,0,0],"id":42,"left_children":[1,3,5,7,9,11,13,-1,-1,-1,-1,-1,-1,-1,-1],"loss_changes":[9.4199675E-4,1.4038542E-3,8.2284736E-4,1.0365162E-3,8.007642E-4,2.561542E-4,1.618826E-4,0E0,0E0,0E0,0E0,0E0,0E0,0E0,0E0],"parents":[2147483647,0,0,1,1,2,2,3,3,4,4,5,5,6,6],"right_children":[2,4,6,8,10,12,14,-1,-1,-1,-1,-1,-1,-1,-1],"split_conditions":[6.632193E-2,-5.1341143E-2,2.1533906E-2,1.3552408E-2,-8.426538E-3,-6.494723E-2,2.1533906E-2,6.899892E-4,-1.4252161E-3,1.740509E-3,3.8952348E-4,-6.2427914E-4,5.996791E-4,-2.2106122E-3,-3.2442436E-4],"split_indices":[2,2,3,1,2,0,0,0,0,0,0,0,0,0,0],"split_type":[0,0,0,0,0,0,0,0,0,0,0,0,0,0,0],"sum_hessian":[3.6E1,2.8E1,8E0,8E0,2E1,5E0,3E0,3E0,5E0,6E0,1.4E1,2E0,3E0,2E0,1E0],"tree_param":{"num_deleted":"0","num_feature":"5","num_nodes":"15","size_leaf_vector":"1"}},{"base_weights":[-1.0993202E-3,8.234491E-3,-2.7141303E-3,-6.48029E-3,1.7211953E-3,-2.4657825E-3,2.0486677E-4,-6.899778E-5,-9.0304576E-4,-1.5718995E-3,2.4723876E-4],"categories":[],"categories_nodes":[],"categories_segments":[],"categories_sizes":[],"default_left":[0,0,0,0,0,0,0,0,0,0,0],"id":43,"left_children":[1,3,5,7,-1,-1,9,-1,-1,-1,-1],"loss_changes":[6.101704E-4,9.041468E-4,2.1828734E-3,3.806797E-5,0E0,0E0,1.1582016E-3,0E0,0E0,0E0,0E0],"parents":[2147483647,0,0,1,1,2,2,3,3,6,6],"right_children":[2,4,6,8,-1,-1,10,-1,-1,-1,-1],"split_conditions":[-5.618367E-2,-6.494723E-2,-4.2005636E-2,-5.618367E-2,1.7211953E-3,-2.4657825E-3,-6.494723E-2,-6.899778E-5,-9.0304576E-4,-1.5718995E-3,2.4723876E-4],"split_indices":[1,1,1,0,0,0,2,0,0,0,0],"split_type":[0,0,0,0,0,0,0,0,0,0,0],"sum_hessian":[3.8E1,5E0,3.3E1,2E0,3E0,3E0,3E1,1E0,1E0,3E0,2.7E1],"tree_param":{"num_deleted":"0","num_feature":"5","num_nodes":"11","size_leaf_vector":"1"}},{"base_weights":[2.1856616E-3,6.558036E-3,-2.829678E-3,-3.8844733E-3,1.4505722E-2,-1.1527612E-2,6.1826645E-3,5.3412205E-4,-1.2333273E-3,2.5668445E-3,7.1111455E-4,-1.4527129E-4,-1.4198624E-3,-6.3044914E-5,2.0019042E-3],"categories":[],"categories_nodes":[],"categories_segments":[],"categories_sizes":[],"default_left":[0,0,0,0,0,0,0,0,0,0,0,0,0,0,0],"id":44,"left_children":[1,3,5,7,9,11,13,-1,-1,-1,-1,-1,-1,-1,-1],"loss_changes":[7.8607E-4,1.6332291E-3,1.4038803E-3,7.673891E-4,7.2544767E-4,2.2156502E-4,8.610402E-4,0E0,0E0,0E0,0E0,0E0,0E0,0E0,0E0],"parents":[2147483647,0,0,1,1,2,2,3,3,4,4,5,5,6,6],"right_children":[2,4,6,8,10,12,14,-1,-1,-1,-1,-1,-1,-1,-1],"split_conditions":[2.1533906E-2,-4.4608336E-2,5.395062E-2,1.3552408E-2,-8.426538E-3,-4.2005636E-2,4.7161557E-2,5.3412205E-4,-1.2333273E-3,2.5668445E-3,7.1111455E-4,-1.4527129E-4,-1.4198624E-3,-6.3044914E-5,2.0019042E-3],"split_indices":[2,2,2,1,2,0,0,0,0,0,0,0,0,0,0],"split_type":[0,0,0,0,0,0,0,0,0,0,0,0,0,0,0],"sum_hessian":[3.4E1,1.8E1,1.6E1,8E0,1E1,8E0,8E0,4E0,4E0,3E0,7E0,2E0,6E0,6E0,2E0],"tree_param":{"num_deleted":"0","num_feature":"5","num_nodes":"15","size_leaf_vector":"1"}},{"base_weights":[2.758137E-6,2.6804493E-3,-8.625665E-3,-1.4031421E-4,2.03453E-3,-1.9467407E-3,-2.746966E-3,-2.4276202E-4,1.3046775E-3,3.6216222E-4,-4.412001E-4],"categories":[],"categories_nodes":[],"categories_segments":[],"categories_sizes":[],"default_left":[0,0,0,0,0,0,0,0,0,0,0],"id":45,"left_children":[1,3,5,7,-1,-1,9,-1,-1,-1,-1],"loss_changes":[8.7797793E-4,1.4478774E-3,5.201416E-4,8.159082E-4,0E0,0E0,9.0206064E-5,0E0,0E0,0E0,0E0],"parents":[2147483647,0,0,1,1,2,2,3,3,6,6],"right_children":[2,4,6,8,-1,-1,10,-1,-1,-1,-1],"split_conditions":[6.632193E-2,5.2497752E-2,-4.2005636E-2,9.602357E-2,2.03453E-3,-1.9467407E-3,8.8781975E-2,-2.4276202E-4,1.3046775E-3,3.6216222E-4,-4.412001E-4],"split_indices":[2,2,1,1,0,0,2,0,0,0,0],"split_type":[0,0,0,0,0,0,0,0,0,0,0],"sum_hessian":[3.6E1,2.8E1,8E0,2.5E1,3E0,2E0,6E0,2.2E1,3E0,1E0,5E0],"tree_param":{"num_deleted":"0","num_feature":"5","num_nodes":"11","size_leaf_vector":"1"}},{"base_weights":[-9.810766E-4,-8.658884E-3,1.7960358E-3,2.0623736E-3,-1.9792616E-2,5.292711E-3,-7.60724E-3,-7.280097E-4,1.3831543E-3,-2.2471405E-3,-4.5387304E-4,1.055086E-3,-4.465945E-5,9.78372E-4,-1.1489338E-3],"categories":[],"categories_nodes":[],"categories_segments":[],"categories_sizes":[],"default_left":[0,0,0,0,0,0,0,0,0,0,0,0,0,0,0],"id":46,"left_children":[1,3,5,7,9,11,13,-1,-1,-1,-1,-1,-1,-1,-1],"loss_changes":[8.044706E-4,1.234496E-3,9.609086E-4,7.604136E-4,1.0231789E-4,6.384527E-4,6.525155E-4,0E0,0E0,0E0,0E0,0E0,0E0,0E0,0E0],"parents":[2147483647,0,0,1,1,2,2,3,3,4,4,5,5,6,6],"right_children":[2,4,6,8,10,12,14,-1,-1,-1,-1,-1,-1,-1,-1],"split_conditions":[-3.19373E-2,-5.618367E-2,5.395062E-2,-7.7471785E-2,2.8717085E-3,2.9292548E-2,2.8717085E-3,-7.280097E-4,1.3831543E-3,-2.2471405E-3,-4.5387304E-4,1.055086E-3,-4.465945E-5,9.78372E-4,-1.1489338E-3],"split_indices":[1,1,3,1,0,1,1,0,0,0,0,0,0,0,0],"split_type":[0,0,0,0,0,0,0,0,0,0,0,0,0,0,0],"sum_hessian":[3.6E1,9E0,2.7E1,5E0,4E0,2E1,7E0,3E0,2E0,3E0,1E0,1E1,1E1,1E0,6E0],"tree_param":{"num_deleted":"0","num_feature":"5","num_nodes":"15","size_leaf_vector":"1"}},{"base_weights":[-4.0515413E-4,4.940937E-3,-3.5068258E-3,-8.927835E-3,1.1381229E-2,-1.9088442E-3,5.6391966E-4,-1.4010196E-3,-8.6953056E-5,-1.4981047E-4,2.0217136E-3,2.2277188E-4,-1.5524131E-3],"categories":[],"categories_nodes":[],"categories_segments":[],"categories_sizes":[],"default_left":[0,0,0,0,0,0,0,0,0,0,0,0,0],"id":47,"left_children":[1,3,5,7,9,-1,11,-1,-1,-1,-1,-1,-1],"loss_changes":[6.308542E-4,1.352075E-3,1.5330552E-3,1.925937E-4,1.1682932E-3,0E0,5.69929E-4,0E0,0E0,0E0,0E0,0E0,0E0],"parents":[2147483647,0,0,1,1,2,2,3,3,4,4,6,6],"right_children":[2,4,6,8,10,-1,12,-1,-1,-1,-1,-1,-1],"split_conditions":[-5.5503566E-3,-4.2005636E-2,1.3176757E-2,-6.494723E-2,-5.960469E-2,-1.9088442E-3,1.3799675E-1,-1.4010196E-3,-8.6953056E-5,-1.4981047E-4,2.0217136E-3,2.2277188E-4,-1.5524131E-3],"split_indices":[4,0,4,0,4,0,0,0,0,0,0,0,0],"split_type":[0,0,0,0,0,0,0,0,0,0,0,0,0],"sum_hessian":[3.6E1,1.3E1,2.3E1,4E0,9E0,4E0,1.9E1,2E0,2E0,4E0,5E0,1.8E1,1E0],"tree_param":{"num_deleted":"0","num_feature":"5","num_nodes":"13","size_leaf_vector":"1"}},{"base_weights":[-4.19993E-3,-1.3296459E-3,-2.847062E-3,1.1057464E-4,-8.773393E-3,-6.359079E-4,4.5810602E-4,-1.4165647E-3,2.856399E-4],"categories":[],"categories_nodes":[],"categories_segments":[],"categories_sizes":[],"default_left":[0,0,0,0,0,0,0,0,0],"id":48,"left_children":[1,-1,3,5,7,-1,-1,-1,-1],"loss_changes":[3.6825548E-4,0E0,5.2680814E-4,6.3650374E-4,6.675706E-4,0E0,0E0,0E0,0E0],"parents":[2147483647,0,0,2,2,3,3,4,4],"right_children":[2,-1,4,6,8,-1,-1,-1,-1],"split_conditions":[-6.494723E-2,-1.3296459E-3,5.3527135E-2,1.2702171E-2,1.1776787E-1,-6.359079E-4,4.5810602E-4,-1.4165647E-3,2.856399E-4],"split_indices":[2,0,2,4,2,0,0,0,0],"split_type":[0,0,0,0,0,0,0,0,0],"sum_hessian":[3.2E1,3E0,2.9E1,2E1,9E0,8E0,1.2E1,6E0,3E0],"tree_param":{"num_deleted":"0","num_feature":"5","num_nodes":"9","size_leaf_vector":"1"}},{"base_weights":[-1.6478945E-3,6.7841555E-3,-4.403648E-3,1.21272635E-2,-4.2623216E-3,-9.003664E-3,1.4966325E-3,1.8959647E-3,2.2630637E-4,-6.948051E-5,-7.482436E-4,7.073781E-4,-1.2954101E-3,1.0547065E-3,-4.703282E-4],"categories":[],"categories_nodes":[],"categories_segments":[],"categories_sizes":[],"default_left":[0,0,0,0,0,0,0,0,0,0,0,0,0,0,0],"id":49,"left_children":[1,3,5,7,9,11,13,-1,-1,-1,-1,-1,-1,-1,-1],"loss_changes":[9.361045E-4,6.419156E-4,8.277167E-4,4.2886508E-4,4.0752406E-5,1.1713544E-3,8.351725E-4,0E0,0E0,0E0,0E0,0E0,0E0,0E0,0E0],"parents":[2147483647,0,0,1,1,2,2,3,3,4,4,5,5,6,6],"right_children":[2,4,6,8,10,12,14,-1,-1,-1,-1,-1,-1,-1,-1],"split_conditions":[-4.2005636E-2,2.8110243E-2,2.9292548E-2,6.574508E-2,-4.2005636E-2,-6.494723E-2,5.395062E-2,1.8959647E-3,2.2630637E-4,-6.948051E-5,-7.482436E-4,7.073781E-4,-1.2954101E-3,1.0547065E-3,-4.703282E-4],"split_indices":[4,3,3,2,0,3,3,0,0,0,0,0,0,0,0],"split_type":[0,0,0,0,0,0,0,0,0,0,0,0,0,0,0],"sum_hessian":[3.8E1,9E0,2.9E1,6E0,3E0,1.6E1,1.3E1,3E0,3E0,2E0,1E0,3E0,1.3E1,5E0,8E0],"tree_param":{"num_deleted":"0","num_feature":"5","num_nodes":"15","size_leaf_vector":"1"}},{"base_weights":[-3.580171E-4,6.236195E-3,-2.4736333E-3,1.1217718E-2,-4.0405197E-3,-1.036944E-2,1.2278075E-3,-2.7816059E-5,1.5871702E-3,-6.484836E-5,-7.1083143E-4,-1.4639294E-3,4.473319E-4,6.31575E-4,-6.823193E-4],"categories":[],"categories_nodes":[],"categories_segments":[],"categories_sizes":[],"default_left":[0,0,0,0,0,0,0,0,0,0,0,0,0,0,0],"id":50,"left_children":[1,3,5,7,9,11,13,-1,-1,-1,-1,-1,-1,-1,-1],"loss_changes":[5.7345896E-4,5.5726233E-4,9.1873325E-4,3.7892634E-4,3.701465E-5,6.992505E-4,9.442801E-4,0E0,0E0,0E0,0E0,0E0,0E0,0E0,0E0],"parents":[2147483647,0,0,1,1,2,2,3,3,4,4,5,5,6,6],"right_children":[2,4,6,8,10,12,14,-1,-1,-1,-1,-1,-1,-1,-1],"split_conditions":[-4.2005636E-2,2.8110243E-2,1.3176757E-2,-5.1341143E-2,-4.2005636E-2,6.574508E-2,5.395062E-2,-2.7816059E-5,1.5871702E-3,-6.484836E-5,-7.1083143E-4,-1.4639294E-3,4.473319E-4,6.31575E-4,-6.823193E-4],"split_indices":[4,3,4,0,0,3,4,0,0,0,0,0,0,0,0],"split_type":[0,0,0,0,0,0,0,0,0,0,0,0,0,0,0],"sum_hessian":[3.9E1,9E0,3E1,6E0,3E0,9E0,2.1E1,2E0,4E0,2E0,1E0,7E0,2E0,1.3E1,8E0],"tree_param":{"num_deleted":"0","num_feature":"5","num_nodes":"15","size_leaf_vector":"1"}},{"base_weights":[-3.7564436E-4,-1.9046959E-3,7.541713E-3,1.6410573E-3,-6.4394535E-3,1.8950645E-3,-8.119891E-4,-8.951745E-5,1.715684E-3,-1.079855E-3,5.3102704E-4,-2.9562335E-4,3.8824938E-4],"categories":[],"categories_nodes":[],"categories_segments":[],"categories_sizes":[],"default_left":[0,0,0,0,0,0,0,0,0,0,0,0,0],"id":51,"left_children":[1,3,5,7,9,-1,11,-1,-1,-1,-1,-1,-1],"loss_changes":[5.228186E-4,5.894162E-4,6.8253546E-4,8.417424E-4,8.768343E-4,0E0,6.180815E-5,0E0,0E0,0E0,0E0,0E0,0E0],"parents":[2147483647,0,0,1,1,2,2,3,3,4,4,6,6],"right_children":[2,4,6,8,10,-1,12,-1,-1,-1,-1,-1,-1],"split_conditions":[9.602357E-2,1.31782675E-2,1.15913875E-1,1.2702171E-2,5.395062E-2,1.8950645E-3,1.3799675E-1,-8.951745E-5,1.715684E-3,-1.079855E-3,5.3102704E-4,-2.9562335E-4,3.8824938E-4],"split_indices":[1,1,1,1,2,0,1,0,0,0,0,0,0],"split_type":[0,0,0,0,0,0,0,0,0,0,0,0,0],"sum_hessian":[4.1E1,3.5E1,6E0,2E1,1.5E1,2E0,4E0,1.8E1,2E0,1.1E1,4E0,3E0,1E0],"tree_param":{"num_deleted":"0","num_feature":"5","num_nodes":"13","size_leaf_vector":"1"}},{"base_weights":[-1.4887257E-3,2.5372216E-3,-5.860103E-3,-5.762405E-3,6.241233E-3,2.8648035E-4,-1.0356389E-2,4.2462558E-4,-1.0615122E-3,8.539443E-4,-1.2966853E-3,-4.0412307E-4,6.706427E-4,3.161179E-5,-1.4398094E-3],"categories":[],"categories_nodes":[],"categories_segments":[],"categories_sizes":[],"default_left":[0,0,0,0,0,0,0,0,0,0,0,0,0,0,0],"id":52,"left_children":[1,3,5,7,9,11,13,-1,-1,-1,-1,-1,-1,-1,-1],"loss_changes":[7.012268E-4,6.8154465E-4,5.28066E-4,3.8505887E-4,7.728929E-4,2.7715528E-4,4.79038E-4,0E0,0E0,0E0,0E0,0E0,0E0,0E0,0E0],"parents":[2147483647,0,0,1,1,2,2,3,3,4,4,5,5,6,6],"right_children":[2,4,6,8,10,12,14,-1,-1,-1,-1,-1,-1,-1,-1],"split_conditions":[2.1533906E-2,1.3176757E-2,-4.2005636E-2,2.1582266E-2,1.3799675E-1,2.1533906E-2,-5.618367E-2,4.2462558E-4,-1.0615122E-3,8.539443E-4,-1.2966853E-3,-4.0412307E-4,6.706427E-4,3.161179E-5,-1.4398094E-3],"split_indices":[2,4,4,0,0,0,0,0,0,0,0,0,0,0,0],"split_type":[0,0,0,0,0,0,0,0,0,0,0,0,0,0,0],"sum_hessian":[3.8E1,2E1,1.8E1,6E0,1.4E1,8E0,1E1,2E0,4E0,1.3E1,1E0,5E0,3E0,3E0,7E0],"tree_param":{"num_deleted":"0","num_feature":"5","num_nodes":"15","size_leaf_vector":"1"}},{"base_weights":[4.0672804E-4,3.3275918E-3,-6.003041E-3,6.158822E-3,-6.19257E-3,-8.301596E-3,8.4912573E-4,1.1438048E-3,-9.7787706E-5,-7.9390634E-4,-1.7997232E-4,-1.1116426E-3,-4.5723064E-4],"categories":[],"categories_nodes":[],"categories_segments":[],"categories_sizes":[],"default_left":[0,0,0,0,0,0,0,0,0,0,0,0,0],"id":53,"left_children":[1,3,5,7,9,11,-1,-1,-1,-1,-1,-1,-1],"loss_changes":[6.565258E-4,6.850295E-4,4.3696645E-4,7.2703353E-4,3.1744334E-5,5.4145465E-5,0E0,0E0,0E0,0E0,0E0,0E0,0E0],"parents":[2147483647,0,0,1,1,2,2,3,3,4,4,5,5],"right_children":[2,4,6,8,10,12,-1,-1,-1,-1,-1,-1,-1],"split_conditions":[5.0386142E-2,5.395062E-2,7.9768606E-2,2.1533906E-2,1.31782675E-2,1.2702171E-2,8.4912573E-4,1.1438048E-3,-9.7787706E-5,-7.9390634E-4,-1.7997232E-4,-1.1116426E-3,-4.5723064E-4],"split_indices":[0,3,3,2,2,4,0,0,0,0,0,0,0],"split_type":[0,0,0,0,0,0,0,0,0,0,0,0,0],"sum_hessian":[3.3E1,2.3E1,1E1,1.8E1,5E0,9E0,1E0,1E1,8E0,3E0,2E0,4E0,5E0],"tree_param":{"num_deleted":"0","num_feature":"5","num_nodes":"13","size_leaf_vector":"1"}},{"base_weights":[4.0491726E-4,-4.1924985E-3,3.3856267E-3,2.649033E-3,-1.0509968E-2,1.1225181E-3,1.1308314E-2,-6.974492E-4,1.4016181E-3,-1.8540261E-3,-1.983739E-4,-5.838105E-4,4.7841985E-4,1.4844178E-3,4.0030116E-4],"categories":[],"categories_nodes":[],"categories_segments":[],"categories_sizes":[],"default_left":[0,0,0,0,0,0,0,0,0,0,0,0,0,0,0],"id":54,"left_children":[1,3,5,7,9,11,13,-1,-1,-1,-1,-1,-1,-1,-1],"loss_changes":[5.212259E-4,6.761587E-4,3.9969396E-4,9.72892E-4,5.109659E-4,5.121946E-4,6.973132E-5,0E0,0E0,0E0,0E0,0E0,0E0,0E0,0E0],"parents":[2147483647,0,0,1,1,2,2,3,3,4,4,5,5,6,6],"right_children":[2,4,6,8,10,12,14,-1,-1,-1,-1,-1,-1,-1,-1],"split_conditions":[-7.883703E-3,-5.618367E-2,7.9768606E-2,-6.494723E-2,-4.2005636E-2,-7.883703E-3,1.1776787E-1,-6.974492E-4,1.4016181E-3,-1.8540261E-3,-1.983739E-4,-5.838105E-4,4.7841985E-4,1.4844178E-3,4.0030116E-4],"split_indices":[1,1,0,1,1,3,0,0,0,0,0,0,0,0,0],"split_type":[0,0,0,0,0,0,0,0,0,0,0,0,0,0,0],"sum_hessian":[3.6E1,1.4E1,2.2E1,7E0,7E0,1.8E1,4E0,4E0,3E0,3E0,4E0,6E0,1.2E1,2E0,2E0],"tree_param":{"num_deleted":"0","num_feature":"5","num_nodes":"15","size_leaf_vector":"1"}},{"base_weights":[5.702982E-4,-1.0377411E-3,8.783451E-3,1.223192E-3,-1.8877938E-3,1.6739315E-3,6.206916E-4,1.4478453E-4,-7.011906E-4,2.981402E-4,-1.16001254E-4],"categories":[],"categories_nodes":[],"categories_segments":[],"categories_sizes":[],"default_left":[0,0,0,0,0,0,0,0,0,0,0],"id":55,"left_children":[1,3,5,-1,7,-1,9,-1,-1,-1,-1],"loss_changes":[4.8456952E-4,3.7276858E-4,3.792608E-4,0E0,5.229178E-4,0E0,2.0273372E-5,0E0,0E0,0E0,0E0],"parents":[2147483647,0,0,1,1,2,2,4,4,6,6],"right_children":[2,4,6,-1,8,-1,10,-1,-1,-1,-1],"split_conditions":[9.602357E-2,-1.0060166E-1,1.15913875E-1,1.223192E-3,1.3552408E-2,1.6739315E-3,-5.668029E-2,1.4478453E-4,-7.011906E-4,2.981402E-4,-1.16001254E-4],"split_indices":[1,3,1,0,1,0,0,0,0,0,0],"split_type":[0,0,0,0,0,0,0,0,0,0,0],"sum_hessian":[3.5E1,3E1,5E0,1E0,2.9E1,2E0,3E0,1.8E1,1.1E1,1E0,2E0],"tree_param":{"num_deleted":"0","num_feature":"5","num_nodes":"11","size_leaf_vector":"1"}},{"base_weights":[8.5959304E-4,1.2013624E-2,-1.0280653E-3,-4.7369115E-4,1.7385486E-3,-1.1528666E-2,1.3371567E-4,-3.3728313E-4,-1.3920168E-3,5.292819E-4,-1.8380243E-4],"categories":[],"categories_nodes":[],"categories_segments":[],"categories_sizes":[],"default_left":[0,0,0,0,0,0,0,0,0,0,0],"id":56,"left_children":[1,3,5,-1,-1,7,9,-1,-1,-1,-1],"loss_changes":[7.2822085E-4,5.322613E-4,3.675235E-4,0E0,0E0,1.15637085E-5,2.945558E-4,0E0,0E0,0E0,0E0],"parents":[2147483647,0,0,1,1,2,2,5,5,6,6],"right_children":[2,4,6,-1,-1,8,10,-1,-1,-1,-1],"split_conditions":[-3.19373E-2,-3.19373E-2,-9.754895E-2,-4.7369115E-4,1.7385486E-3,-1.0060166E-1,1.2702171E-2,-3.3728313E-4,-1.3920168E-3,5.292819E-4,-1.8380243E-4],"split_indices":[2,0,0,0,0,0,2,0,0,0,0],"split_type":[0,0,0,0,0,0,0,0,0,0,0],"sum_hessian":[3.3E1,4E0,2.9E1,1E0,3E0,2E0,2.7E1,1E0,1E0,7E0,2E1],"tree_param":{"num_deleted":"0","num_feature":"5","num_nodes":"11","size_leaf_vector":"1"}},{"base_weights":[-7.624333E-4,-1.0952232E-2,8.437298E-5,-3.2041894E-4,-1.322416E-3,7.983127E-4,-1.280873E-3,-5.807085E-5,9.464386E-4],"categories":[],"categories_nodes":[],"categories_segments":[],"categories_sizes":[],"default_left":[0,0,0,0,0,0,0,0,0],"id":57,"left_children":[1,3,5,-1,-1,7,-1,-1,-1],"loss_changes":[3.3744672E-4,1.0436255E-5,3.508066E-4,0E0,0E0,4.3572122E-4,0E0,0E0,0E0],"parents":[2147483647,0,0,1,1,2,2,5,5],"right_children":[2,4,6,-1,-1,8,-1,-1,-1],"split_conditions":[-9.754895E-2,-1.0060166E-1,1.3799675E-1,-3.2041894E-4,-1.322416E-3,9.602357E-2,-1.280873E-3,-5.807085E-5,9.464386E-4],"split_indices":[0,0,0,0,0,0,0,0,0],"split_type":[0,0,0,0,0,0,0,0,0],"sum_hessian":[3.8E1,2E0,3.6E1,1E0,1E0,3.5E1,1E0,3.1E1,4E0],"tree_param":{"num_deleted":"0","num_feature":"5","num_nodes":"9","size_leaf_vector":"1"}},{"base_weights":[-3.3737862E-4,-1.888806E-3,6.492289E-3,-1.0539824E-4,-5.770296E-3,1.2129755E-2,-2.1776159E-3,-3.1120828E-4,5.585606E-4,-8.5951266E-4,1.1239008E-3,2.9532687E-4,1.3685559E-3,-9.214298E-5,-2.9730872E-4],"categories":[],"categories_nodes":[],"categories_segments":[],"categories_sizes":[],"default_left":[0,0,0,0,0,0,0,0,0,0,0,0,0,0,0],"id":58,"left_children":[1,3,5,7,9,11,13,-1,-1,-1,-1,-1,-1,-1,-1],"loss_changes":[4.5728346E-4,2.4167157E-4,4.1742425E-4,4.451592E-4,6.2513317E-4,3.0967E-5,1.2575492E-6,0E0,0E0,0E0,0E0,0E0,0E0,0E0,0E0],"parents":[2147483647,0,0,1,1,2,2,3,3,4,4,5,5,6,6],"right_children":[2,4,6,8,10,12,14,-1,-1,-1,-1,-1,-1,-1,-1],"split_conditions":[7.9768606E-2,5.0386142E-2,2.1533906E-2,1.3254307E-2,5.395062E-2,-5.668029E-2,1.2702171E-2,-3.1120828E-4,5.585606E-4,-8.5951266E-4,1.1239008E-3,2.9532687E-4,1.3685559E-3,-9.214298E-5,-2.9730872E-4],"split_indices":[1,0,2,0,2,0,0,0,0,0,0,0,0,0,0],"split_type":[0,0,0,0,0,0,0,0,0,0,0,0,0,0,0],"sum_hessian":[4.1E1,3.4E1,7E0,2.4E1,1E1,4E0,3E0,1.6E1,8E0,9E0,1E0,1E0,3E0,2E0,1E0],"tree_param":{"num_deleted":"0","num_feature":"5","num_nodes":"15","size_leaf_vector":"1"}},{"base_weights":[-1.1552738E-3,1.3141376E-3,-9.653804E-3,-8.478564E-3,3.2995283E-3,-1.0367437E-3,-2.3291857E-4,4.158138E-4,-1.8289079E-3,6.4964837E-4,-1.0692809E-4],"categories":[],"categories_nodes":[],"categories_segments":[],"categories_sizes":[],"default_left":[0,0,0,0,0,0,0,0,0,0,0],"id":59,"left_children":[1,3,5,7,9,-1,-1,-1,-1,-1,-1],"loss_changes":[7.472093E-4,5.7236076E-4,1.7668994E-5,6.959113E-4,3.4215182E-4,0E0,0E0,0E0,0E0,0E0,0E0],"parents":[2147483647,0,0,1,1,2,2,3,3,4,4],"right_children":[2,4,6,8,10,-1,-1,-1,-1,-1,-1],"split_conditions":[5.395062E-2,-4.2005636E-2,7.9768606E-2,-5.668029E-2,1.3552408E-2,-1.0367437E-3,-2.3291857E-4,4.158138E-4,-1.8289079E-3,6.4964837E-4,-1.0692809E-4],"split_indices":[3,1,2,1,2,0,0,0,0,0,0],"split_type":[0,0,0,0,0,0,0,0,0,0,0],"sum_hessian":[3.4E1,2.7E1,7E0,4E0,2.3E1,6E0,1E0,2E0,2E0,1.3E1,1E1],"tree_param":{"num_deleted":"0","num_feature":"5","num_nodes":"11","size_leaf_vector":"1"}},{"base_weights":[-2.1226057E-3,3.7883564E-3,-4.022173E-3,-4.3534506E-3,7.899624E-3,-9.645279E-3,-1.1529716E-3,-1.5620142E-5,-5.7004666E-4,1.6267486E-3,1.298982E-4,-1.3101537E-3,1.0730524E-3,7.836948E-5,-9.579728E-4],"categories":[],"categories_nodes":[],"categories_segments":[],"categories_sizes":[],"default_left":[0,0,0,0,0,0,0,0,0,0,0,0,0,0,0],"id":60,"left_children":[1,3,5,7,9,11,13,-1,-1,-1,-1,-1,-1,-1,-1],"loss_changes":[4.5313995E-4,3.6912208E-4,4.728939E-4,2.1724627E-5,3.6550168E-4,8.448266E-4,3.502237E-4,0E0,0E0,0E0,0E0,0E0,0E0,0E0,0E0],"parents":[2147483647,0,0,1,1,2,2,3,3,4,4,5,5,6,6],"right_children":[2,4,6,8,10,12,14,-1,-1,-1,-1,-1,-1,-1,-1],"split_conditions":[-4.2005636E-2,-7.7471785E-2,1.3176757E-2,2.9292548E-2,6.574508E-2,5.395062E-2,8.8781975E-2,-1.5620142E-5,-5.7004666E-4,1.6267486E-3,1.298982E-4,-1.3101537E-3,1.0730524E-3,7.836948E-5,-9.579728E-4],"split_indices":[4,4,4,2,2,2,2,0,0,0,0,0,0,0,0],"split_type":[0,0,0,0,0,0,0,0,0,0,0,0,0,0,0],"sum_hessian":[3.8E1,9E0,2.9E1,3E0,6E0,9E0,2E1,1E0,2E0,2E0,4E0,8E0,1E0,1.7E1,3E0],"tree_param":{"num_deleted":"0","num_feature":"5","num_nodes":"15","size_leaf_vector":"1"}},{"base_weights":[-4.5274844E-4,4.264181E-3,-2.0099666E-3,-4.0645218E-3,8.414271E-3,-9.070037E-3,-2.3515108E-4,-1.48391355E-5,-5.320435E-4,1.2418504E-4,1.103487E-3,-1.5411365E-3,-2.046532E-4,1.4376163E-3,-2.1307507E-4],"categories":[],"categories_nodes":[],"categories_segments":[],"categories_sizes":[],"default_left":[0,0,0,0,0,0,0,0,0,0,0,0,0,0,0],"id":61,"left_children":[1,3,5,7,9,11,13,-1,-1,-1,-1,-1,-1,-1,-1],"loss_changes":[2.950371E-4,3.7984864E-4,3.7377686E-4,1.8883773E-5,1.1786859E-4,2.3569021E-4,7.230621E-4,0E0,0E0,0E0,0E0,0E0,0E0,0E0,0E0],"parents":[2147483647,0,0,1,1,2,2,3,3,4,4,5,5,6,6],"right_children":[2,4,6,8,10,12,14,-1,-1,-1,-1,-1,-1,-1,-1],"split_conditions":[-4.2005636E-2,-7.7471785E-2,-8.426538E-3,-4.2005636E-2,-4.4608336E-2,1.3254307E-2,-5.5503566E-3,-1.48391355E-5,-5.320435E-4,1.2418504E-4,1.103487E-3,-1.5411365E-3,-2.046532E-4,1.4376163E-3,-2.1307507E-4],"split_indices":[4,4,4,0,0,0,4,0,0,0,0,0,0,0,0],"split_type":[0,0,0,0,0,0,0,0,0,0,0,0,0,0,0],"sum_hessian":[3.8E1,9E0,2.9E1,3E0,6E0,5E0,2.4E1,1E0,2E0,2E0,4E0,2E0,3E0,2E0,2.2E1],"tree_param":{"num_deleted":"0","num_feature":"5","num_nodes":"15","size_leaf_vector":"1"}},{"base_weights":[-1.620107E-3,3.6553722E-3,-3.2579356E-3,9.878522E-3,-1.1026227E-3,-6.2019154E-3,1.290378E-4,-2.4740404E-4,1.4820722E-3,-4.4182967E-4,3.6858165E-4,5.2137877E-4,-1.0827061E-3,6.5145554E-4,-5.4744194E-4],"categories":[],"categories_nodes":[],"categories_segments":[],"categories_sizes":[],"default_left":[0,0,0,0,0,0,0,0,0,0,0,0,0,0,0],"id":62,"left_children":[1,3,5,7,9,11,13,-1,-1,-1,-1,-1,-1,-1,-1],"loss_changes":[3.229609E-4,2.773797E-4,2.7999337E-4,2.8086244E-4,1.1154643E-4,8.484393E-4,5.3659704E-4,0E0,0E0,0E0,0E0,0E0,0E0,0E0,0E0],"parents":[2147483647,0,0,1,1,2,2,3,3,4,4,5,5,6,6],"right_children":[2,4,6,8,10,12,14,-1,-1,-1,-1,-1,-1,-1,-1],"split_conditions":[-4.2005636E-2,2.9292548E-2,2.9292548E-2,-3.19373E-2,5.2497752E-2,-4.2005636E-2,5.395062E-2,-2.4740404E-4,1.4820722E-3,-4.4182967E-4,3.6858165E-4,5.2137877E-4,-1.0827061E-3,6.5145554E-4,-5.4744194E-4],"split_indices":[3,1,3,1,4,4,3,0,0,0,0,0,0,0,0],"split_type":[0,0,0,0,0,0,0,0,0,0,0,0,0,0,0],"sum_hessian":[3.5E1,8E0,2.7E1,3E0,5E0,1.4E1,1.3E1,1E0,2E0,3E0,2E0,4E0,1E1,6E0,7E0],"tree_param":{"num_deleted":"0","num_feature":"5","num_nodes":"15","size_leaf_vector":"1"}},{"base_weights":[-1.0293501E-3,7.887043E-3,-2.8386263E-3,-6.0971826E-4,1.2287854E-3,-1.3334265E-3,-1.1147348E-3,-1.8401175E-4,9.2554E-5,-9.7100215E-4,6.1233493E-7],"categories":[],"categories_nodes":[],"categories_segments":[],"categories_sizes":[],"default_left":[0,0,0,0,0,0,0,0,0,0,0],"id":63,"left_children":[1,3,5,7,-1,-1,9,-1,-1,-1,-1],"loss_changes":[5.7088374E-4,2.3184792E-4,5.0984265E-4,7.3700435E-6,0E0,0E0,2.5054597E-4,0E0,0E0,0E0,0E0],"parents":[2147483647,0,0,1,1,2,2,3,3,6,6],"right_children":[2,4,6,8,-1,-1,10,-1,-1,-1,-1],"split_conditions":[-5.618367E-2,-7.7471785E-2,-4.2005636E-2,-1.0060166E-1,1.2287854E-3,-1.3334265E-3,-6.494723E-2,-1.8401175E-4,9.2554E-5,-9.7100215E-4,6.1233493E-7],"split_indices":[1,1,1,1,0,0,2,0,0,0,0],"split_type":[0,0,0,0,0,0,0,0,0,0,0],"sum_hessian":[3.3E1,5E0,2.8E1,2E0,3E0,3E0,2.5E1,1E0,1E0,2E0,2.3E1],"tree_param":{"num_deleted":"0","num_feature":"5","num_nodes":"11","size_leaf_vector":"1"}},{"base_weights":[1.6119404E-3,-5.0621927E-3,2.6364154E-3,8.792626E-5,-6.767372E-3,4.321438E-3,-3.7581532E-3,-1.7481111E-4,-7.857756E-4,-1.4699911E-4,5.842795E-4,-2.7843504E-5,-1.2318231E-3],"categories":[],"categories_nodes":[],"categories_segments":[],"categories_sizes":[],"default_left":[0,0,0,0,0,0,0,0,0,0,0,0,0],"id":64,"left_children":[1,3,5,-1,7,9,11,-1,-1,-1,-1,-1,-1],"loss_changes":[2.5265792E-4,5.660653E-5,3.502654E-4,0E0,8.155446E-6,2.288596E-4,2.050768E-4,0E0,0E0,0E0,0E0,0E0,0E0],"parents":[2147483647,0,0,1,1,2,2,4,4,5,5,6,6],"right_children":[2,4,6,-1,8,10,12,-1,-1,-1,-1,-1,-1],"split_conditions":[-6.494723E-2,-5.618367E-2,8.8781975E-2,8.792626E-5,-1.0060166E-1,-4.4608336E-2,1.3552408E-2,-1.7481111E-4,-7.857756E-4,-1.4699911E-4,5.842795E-4,-2.7843504E-5,-1.2318231E-3],"split_indices":[1,0,2,0,1,2,4,0,0,0,0,0,0],"split_type":[0,0,0,0,0,0,0,0,0,0,0,0,0],"sum_hessian":[3.4E1,4E0,3E1,1E0,3E0,2.4E1,6E0,1E0,2E0,5E0,1.9E1,5E0,1E0],"tree_param":{"num_deleted":"0","num_feature":"5","num_nodes":"13","size_leaf_vector":"1"}},{"base_weights":[1.5719838E-3,5.192007E-3,-2.9848868E-4,3.210056E-4,1.0821341E-2,-1.4292223E-3,8.8468764E-4,6.668197E-4,-4.8209485E-4,-2.7215926E-4,1.4074246E-3,2.873187E-4,-3.0229802E-4],"categories":[],"categories_nodes":[],"categories_segments":[],"categories_sizes":[],"default_left":[0,0,0,0,0,0,0,0,0,0,0,0,0],"id":65,"left_children":[1,3,5,7,9,11,-1,-1,-1,-1,-1,-1,-1],"loss_changes":[2.588536E-4,3.529926E-4,2.8150942E-4,2.9324277E-4,3.0262762E-4,1.7325356E-4,0E0,0E0,0E0,0E0,0E0,0E0,0E0],"parents":[2147483647,0,0,1,1,2,2,3,3,4,4,5,5],"right_children":[2,4,6,8,10,12,-1,-1,-1,-1,-1,-1,-1],"split_conditions":[-8.426538E-3,-4.4608336E-2,1.15913875E-1,1.3552408E-2,-2.6884908E-2,-4.4608336E-2,8.8468764E-4,6.668197E-4,-4.8209485E-4,-2.7215926E-4,1.4074246E-3,2.873187E-4,-3.0229802E-4],"split_indices":[2,2,0,1,0,0,0,0,0,0,0,0,0],"split_type":[0,0,0,0,0,0,0,0,0,0,0,0,0],"sum_hessian":[3.7E1,1.2E1,2.5E1,7E0,5E0,2.3E1,2E0,3E0,4E0,1E0,4E0,6E0,1.7E1],"tree_param":{"num_deleted":"0","num_feature":"5","num_nodes":"13","size_leaf_vector":"1"}},{"base_weights":[-5.5650296E-4,-4.8372094E-3,2.3238014E-3,-6.7738835E-3,1.0169778E-3,5.042532E-3,-3.8340217E-3,3.6462305E-5,-1.1281029E-3,1.0104291E-3,1.5012237E-4,1.4387221E-4,-8.1482605E-4],"categories":[],"categories_nodes":[],"categories_segments":[],"categories_sizes":[],"default_left":[0,0,0,0,0,0,0,0,0,0,0,0,0],"id":66,"left_children":[1,3,5,7,-1,9,11,-1,-1,-1,-1,-1,-1],"loss_changes":[4.304518E-4,4.7577993E-4,3.7090387E-4,4.2237894E-4,0E0,2.5370994E-4,1.709582E-4,0E0,0E0,0E0,0E0,0E0,0E0],"parents":[2147483647,0,0,1,1,2,2,3,3,5,5,6,6],"right_children":[2,4,6,8,-1,10,12,-1,-1,-1,-1,-1,-1],"split_conditions":[1.3176757E-2,6.632193E-2,5.395062E-2,-4.4608336E-2,1.0169778E-3,5.2227695E-2,2.9292548E-2,3.6462305E-5,-1.1281029E-3,1.0104291E-3,1.5012237E-4,1.4387221E-4,-8.1482605E-4],"split_indices":[4,3,3,4,0,4,4,0,0,0,0,0,0],"split_type":[0,0,0,0,0,0,0,0,0,0,0,0,0],"sum_hessian":[3.3E1,1.3E1,2E1,1.2E1,1E0,1.4E1,6E0,5E0,7E0,5E0,9E0,3E0,3E0],"tree_param":{"num_deleted":"0","num_feature":"5","num_nodes":"13","size_leaf_vector":"1"}},{"base_weights":[4.6448412E-4,9.5967785E-4,-9.6716324E-4,-1.3693225E-3,3.6059057E-3,1.2233776E-4,-1.0429178E-3,-6.572801E-4,5.9252133E-4],"categories":[],"categories_nodes":[],"categories_segments":[],"categories_sizes":[],"default_left":[0,0,0,0,0,0,0,0,0],"id":67,"left_children":[1,3,-1,5,7,-1,-1,-1,-1],"loss_changes":[2.1507463E-4,2.514603E-4,0E0,5.295276E-4,4.874887E-4,0E0,0E0,0E0,0E0],"parents":[2147483647,0,0,1,1,3,3,4,4],"right_children":[2,4,-1,6,8,-1,-1,-1,-1],"split_conditions":[1.3799675E-1,1.3254307E-2,-9.6716324E-4,-2.8184508E-3,-6.494723E-2,1.2233776E-4,-1.0429178E-3,-6.572801E-4,5.9252133E-4],"split_indices":[0,0,0,0,1,0,0,0,0],"split_type":[0,0,0,0,0,0,0,0,0],"sum_hessian":[4E1,3.9E1,1E0,2.1E1,1.8E1,1.7E1,4E0,3E0,1.5E1],"tree_param":{"num_deleted":"0","num_feature":"5","num_nodes":"9","size_leaf_vector":"1"}},{"base_weights":[-8.90999E-5,-7.546201E-4,7.4194185E-4,-4.255747E-3,2.5654584E-3,4.6403442E-5,-1.1451428E-3,6.847632E-4,4.020366E-5],"categories":[],"categories_nodes":[],"categories_segments":[],"categories_sizes":[],"default_left":[0,0,0,0,0,0,0,0,0],"id":68,"left_children":[1,-1,3,5,7,-1,-1,-1,-1],"loss_changes":[2.4728818E-4,0E0,3.389992E-4,3.4493423E-4,2.4737898E-4,0E0,0E0,0E0,0E0],"parents":[2147483647,0,0,2,2,3,3,4,4],"right_children":[2,-1,4,6,8,-1,-1,-1,-1],"split_conditions":[-6.494723E-2,-7.546201E-4,-4.2005636E-2,-5.668029E-2,-5.5503566E-3,4.6403442E-5,-1.1451428E-3,6.847632E-4,4.020366E-5],"split_indices":[2,0,1,1,2,0,0,0,0],"split_type":[0,0,0,0,0,0,0,0,0],"sum_hessian":[3.8E1,3E0,3.5E1,9E0,2.6E1,6E0,3E0,8E0,1.8E1],"tree_param":{"num_deleted":"0","num_feature":"5","num_nodes":"9","size_leaf_vector":"1"}},{"base_weights":[-5.2880676E-4,-1.5456876E-3,4.195335E-3,-5.504505E-3,2.427412E-4,1.0605588E-3,-4.8988423E-4,-7.2212395E-4,-1.1240929E-4,1.1725917E-3,-1.4092715E-4,2.1496938E-4,-1.6872022E-4],"categories":[],"categories_nodes":[],"categories_segments":[],"categories_sizes":[],"default_left":[0,0,0,0,0,0,0,0,0,0,0,0,0],"id":69,"left_children":[1,3,5,7,9,-1,11,-1,-1,-1,-1,-1,-1],"loss_changes":[1.8903246E-4,2.2789818E-4,2.154296E-4,6.708276E-5,4.528431E-4,0E0,1.9429037E-5,0E0,0E0,0E0,0E0,0E0,0E0],"parents":[2147483647,0,0,1,1,2,2,3,3,4,4,6,6],"right_children":[2,4,6,8,10,-1,12,-1,-1,-1,-1,-1,-1],"split_conditions":[9.602357E-2,-8.426538E-3,1.15913875E-1,2.1533906E-2,-5.5503566E-3,1.0605588E-3,-5.668029E-2,-7.2212395E-4,-1.1240929E-4,1.1725917E-3,-1.4092715E-4,2.1496938E-4,-1.6872022E-4],"split_indices":[1,4,1,0,4,0,0,0,0,0,0,0,0],"split_type":[0,0,0,0,0,0,0,0,0,0,0,0,0],"sum_hessian":[3.7E1,3.1E1,6E0,9E0,2.2E1,2E0,4E0,6E0,3E0,2E0,2E1,1E0,3E0],"tree_param":{"num_deleted":"0","num_feature":"5","num_nodes":"13","size_leaf_vector":"1"}},{"base_weights":[4.86643E-4,5.235501E-3,-7.959406E-4,1.1894105E-3,1.0336158E-3,-6.999463E-3,1.5257901E-4,-3.4529317E-4,4.1401223E-4,-8.1645435E-4,-1.7521103E-4,4.628052E-4,-1.3465111E-4],"categories":[],"categories_nodes":[],"categories_segments":[],"categories_sizes":[],"default_left":[0,0,0,0,0,0,0,0,0,0,0,0,0],"id":70,"left_children":[1,3,5,-1,7,9,11,-1,-1,-1,-1,-1,-1],"loss_changes":[2.2952702E-4,2.1153557E-4,1.7759282E-4,0E0,9.792049E-5,1.014919E-5,1.8737842E-4,0E0,0E0,0E0,0E0,0E0,0E0],"parents":[2147483647,0,0,1,1,2,2,4,4,5,5,6,6],"right_children":[2,4,6,-1,8,10,12,-1,-1,-1,-1,-1,-1],"split_conditions":[-4.2005636E-2,2.9292548E-2,-2.5765987E-2,1.1894105E-3,5.2497752E-2,-2.8184508E-3,1.2702171E-2,-3.4529317E-4,4.1401223E-4,-8.1645435E-4,-1.7521103E-4,4.628052E-4,-1.3465111E-4],"split_indices":[3,1,3,0,4,2,3,0,0,0,0,0,0],"split_type":[0,0,0,0,0,0,0,0,0,0,0,0,0],"sum_hessian":[3.6E1,7E0,2.9E1,2E0,5E0,3E0,2.6E1,2E0,3E0,2E0,1E0,6E0,2E1],"tree_param":{"num_deleted":"0","num_feature":"5","num_nodes":"13","size_leaf_vector":"1"}},{"base_weights":[-5.216599E-5,1.6463877E-3,-5.519487E-3,7.4599143E-3,-5.4245786E-4,-1.1592787E-3,-1.0679929E-2,-4.8096175E-4,9.899794E-4,7.066045E-4,-1.2412459E-4,-3.2257786E-4,6.804159E-5,-1.2711585E-3,-2.2924795E-4],"categories":[],"categories_nodes":[],"categories_segments":[],"categories_sizes":[],"default_left":[0,0,0,0,0,0,0,0,0,0,0,0,0,0,0],"id":71,"left_children":[1,3,5,7,9,11,13,-1,-1,-1,-1,-1,-1,-1,-1],"loss_changes":[3.5268912E-4,3.7306917E-4,1.9012438E-4,2.871035E-4,1.2573878E-4,2.5005244E-5,3.902061E-5,0E0,0E0,0E0,0E0,0E0,0E0,0E0,0E0],"parents":[2147483647,0,0,1,1,2,2,3,3,4,4,5,5,6,6],"right_children":[2,4,6,8,10,12,14,-1,-1,-1,-1,-1,-1,-1,-1],"split_conditions":[5.395062E-2,-8.426538E-3,1.31782675E-2,-9.754895E-2,-1.0060166E-1,-5.5503566E-3,9.554248E-2,-4.8096175E-4,9.899794E-4,7.066045E-4,-1.2412459E-4,-3.2257786E-4,6.804159E-5,-1.2711585E-3,-2.2924795E-4],"split_indices":[4,2,3,1,3,1,4,0,0,0,0,0,0,0,0],"split_type":[0,0,0,0,0,0,0,0,0,0,0,0,0,0,0],"sum_hessian":[3.6E1,2.8E1,8E0,7E0,2.1E1,5E0,3E0,1E0,6E0,1E0,2E1,2E0,3E0,2E0,1E0],"tree_param":{"num_deleted":"0","num_feature":"5","num_nodes":"15","size_leaf_vector":"1"}},{"base_weights":[-7.7103655E-4,7.236308E-4,-3.7010605E-3,2.1428813E-3,-5.665798E-4,-5.0328355E-3,6.1401207E-4,-5.731534E-4,3.6878698E-4,-7.508557E-4,-2.1918128E-4],"categories":[],"categories_nodes":[],"categories_segments":[],"categories_sizes":[],"default_left":[0,0,0,0,0,0,0,0,0,0,0],"id":72,"left_children":[1,3,5,7,-1,9,-1,-1,-1,-1,-1],"loss_changes":[1.6909583E-4,2.4791431E-4,2.0128331E-4,2.887865E-4,0E0,6.794563E-5,0E0,0E0,0E0,0E0,0E0],"parents":[2147483647,0,0,1,1,2,2,3,3,5,5],"right_children":[2,4,6,8,-1,10,-1,-1,-1,-1,-1],"split_conditions":[4.5449E-2,8.8781975E-2,1.15913875E-1,-6.494723E-2,-5.665798E-4,1.3176757E-2,6.1401207E-4,-5.731534E-4,3.6878698E-4,-7.508557E-4,-2.1918128E-4],"split_indices":[0,3,3,0,0,4,0,0,0,0,0],"split_type":[0,0,0,0,0,0,0,0,0,0,0],"sum_hessian":[3.7E1,2.5E1,1.2E1,2.1E1,4E0,1.1E1,1E0,3E0,1.8E1,5E0,6E0],"tree_param":{"num_deleted":"0","num_feature":"5","num_nodes":"11","size_leaf_vector":"1"}},{"base_weights":[-8.232765E-6,8.109142E-3,-1.3172212E-3,5.476661E-5,9.862594E-4,-9.211792E-4,1.9352234E-4,4.1332972E-4,-1.6828722E-4],"categories":[],"categories_nodes":[],"categories_segments":[],"categories_sizes":[],"default_left":[0,0,0,0,0,0,0,0,0],"id":73,"left_children":[1,3,5,-1,-1,-1,7,-1,-1],"loss_changes":[3.8257576E-4,6.0892024E-5,3.7150952E-4,0E0,0E0,0E0,2.0655525E-4,0E0,0E0],"parents":[2147483647,0,0,1,1,2,2,6,6],"right_children":[2,4,6,-1,-1,-1,8,-1,-1],"split_conditions":[-5.618367E-2,-5.618367E-2,-3.19373E-2,5.476661E-5,9.862594E-4,-9.211792E-4,1.31782675E-2,4.1332972E-4,-1.6828722E-4],"split_indices":[1,0,1,0,0,0,1,0,0],"split_type":[0,0,0,0,0,0,0,0,0],"sum_hessian":[3.4E1,4E0,3E1,1E0,3E0,4E0,2.6E1,8E0,1.8E1],"tree_param":{"num_deleted":"0","num_feature":"5","num_nodes":"9","size_leaf_vector":"1"}},{"base_weights":[-1.1708309E-5,2.404904E-3,-3.1179448E-3,-3.6242965E-3,5.0026192E-3,-6.423126E-3,2.3594843E-3,-6.747633E-4,-3.7572023E-5,8.043147E-4,-3.849354E-4,-1.4122638E-4,-1.0149364E-3,-3.1751097E-4,4.101425E-4],"categories":[],"categories_nodes":[],"categories_segments":[],"categories_sizes":[],"default_left":[0,0,0,0,0,0,0,0,0,0,0,0,0,0,0],"id":74,"left_children":[1,3,5,7,9,11,13,-1,-1,-1,-1,-1,-1,-1,-1],"loss_changes":[2.4020202E-4,3.000496E-4,2.686098E-4,5.8343147E-5,3.8085162E-4,1.537113E-4,7.086808E-5,0E0,0E0,0E0,0E0,0E0,0E0,0E0,0E0],"parents":[2147483647,0,0,1,1,2,2,3,3,4,4,5,5,6,6],"right_children":[2,4,6,8,10,12,14,-1,-1,-1,-1,-1,-1,-1,-1],"split_conditions":[1.31782675E-2,-2.6884908E-2,2.1533906E-2,-1.1883655E-2,6.574508E-2,-5.1341143E-2,-1.0060166E-1,-6.747633E-4,-3.7572023E-5,8.043147E-4,-3.849354E-4,-1.4122638E-4,-1.0149364E-3,-3.1751097E-4,4.101425E-4],"split_indices":[1,0,4,2,0,4,2,0,0,0,0,0,0,0,0],"split_type":[0,0,0,0,0,0,0,0,0,0,0,0,0,0,0],"sum_hessian":[3E1,1.7E1,1.3E1,5E0,1.2E1,8E0,5E0,2E0,3E0,9E0,3E0,4E0,4E0,1E0,4E0],"tree_param":{"num_deleted":"0","num_feature":"5","num_nodes":"15","size_leaf_vector":"1"}},{"base_weights":[5.861431E-5,1.1539777E-3,-3.8425238E-3,2.1372498E-4,1.0171846E-3,-6.252908E-3,7.336838E-4,7.3346816E-4,-5.568677E-5,-1.7619967E-4,-1.0156487E-3,2.229174E-4,-1.8763934E-4],"categories":[],"categories_nodes":[],"categories_segments":[],"categories_sizes":[],"default_left":[0,0,0,0,0,0,0,0,0,0,0,0,0],"id":75,"left_children":[1,3,5,7,-1,9,11,-1,-1,-1,-1,-1,-1],"loss_changes":[1.7536072E-4,2.691564E-4,1.0386144E-4,1.6870516E-4,0E0,8.728808E-5,1.9796185E-5,0E0,0E0,0E0,0E0,0E0,0E0],"parents":[2147483647,0,0,1,1,2,2,3,3,5,5,6,6],"right_children":[2,4,6,8,-1,10,12,-1,-1,-1,-1,-1,-1],"split_conditions":[6.632193E-2,5.395062E-2,1.1776787E-1,-5.668029E-2,1.0171846E-3,1.3552408E-2,2.8110243E-2,7.3346816E-4,-5.568677E-5,-1.7619967E-4,-1.0156487E-3,2.229174E-4,-1.8763934E-4],"split_indices":[2,2,2,4,0,3,0,0,0,0,0,0,0],"split_type":[0,0,0,0,0,0,0,0,0,0,0,0,0],"sum_hessian":[3.9E1,3.1E1,8E0,2.9E1,2E0,5E0,3E0,2E0,2.7E1,3E0,2E0,2E0,1E0],"tree_param":{"num_deleted":"0","num_feature":"5","num_nodes":"13","size_leaf_vector":"1"}},{"base_weights":[-4.158426E-4,-4.9477727E-3,1.1688963E-3,6.315859E-4,-7.1452092E-3,-6.27523E-3,2.4127054E-3,-2.66201E-4,-9.302726E-4,-7.3395856E-4,-1.5410819E-4,5.246384E-4,2.1631353E-5],"categories":[],"categories_nodes":[],"categories_segments":[],"categories_sizes":[],"default_left":[0,0,0,0,0,0,0,0,0,0,0,0,0],"id":76,"left_children":[1,3,5,-1,7,9,11,-1,-1,-1,-1,-1,-1],"loss_changes":[2.4996893E-4,2.6788816E-4,2.5587616E-4,0E0,5.261667E-5,8.844363E-6,1.420141E-4,0E0,0E0,0E0,0E0,0E0,0E0],"parents":[2147483647,0,0,1,1,2,2,4,4,5,5,6,6],"right_children":[2,4,6,-1,8,10,12,-1,-1,-1,-1,-1,-1],"split_conditions":[-4.2005636E-2,-7.7471785E-2,-6.494723E-2,6.315859E-4,-7.7471785E-2,6.632193E-2,-5.5503566E-3,-2.66201E-4,-9.302726E-4,-7.3395856E-4,-1.5410819E-4,5.246384E-4,2.1631353E-5],"split_indices":[1,2,2,0,1,1,2,0,0,0,0,0,0],"split_type":[0,0,0,0,0,0,0,0,0,0,0,0,0],"sum_hessian":[3.3E1,8E0,2.5E1,1E0,7E0,3E0,2.2E1,3E0,4E0,2E0,1E0,9E0,1.3E1],"tree_param":{"num_deleted":"0","num_feature":"5","num_nodes":"13","size_leaf_vector":"1"}},{"base_weights":[-4.297179E-6,-1.0292204E-3,4.5352625E-3,-5.532686E-4,-7.6538883E-4,8.446897E-4,-5.101878E-4,-1.5710459E-4,9.130408E-4,1.5128888E-4,-1.688843E-4],"categories":[],"categories_nodes":[],"categories_segments":[],"categories_sizes":[],"default_left":[0,0,0,0,0,0,0,0,0,0,0],"id":77,"left_children":[1,3,5,7,-1,-1,9,-1,-1,-1,-1],"loss_changes":[1.7681769E-4,9.350906E-5,1.4246123E-4,3.1001907E-4,0E0,0E0,1.209307E-5,0E0,0E0,0E0,0E0],"parents":[2147483647,0,0,1,1,2,2,3,3,6,6],"right_children":[2,4,6,8,-1,-1,10,-1,-1,-1,-1],"split_conditions":[7.9768606E-2,1.1776787E-1,1.15913875E-1,9.602357E-2,-7.6538883E-4,8.446897E-4,-5.668029E-2,-1.5710459E-4,9.130408E-4,1.5128888E-4,-1.688843E-4],"split_indices":[1,0,1,0,0,0,0,0,0,0,0],"split_type":[0,0,0,0,0,0,0,0,0,0,0],"sum_hessian":[3.6E1,3E1,6E0,2.9E1,1E0,3E0,3E0,2.7E1,2E0,1E0,2E0],"tree_param":{"num_deleted":"0","num_feature":"5","num_nodes":"11","size_leaf_vector":"1"}},{"base_weights":[9.6105994E-4,-2.0366623E-3,3.73885E-3,5.5152914E-3,-5.6429175E-3,-6.596155E-4,6.5978384E-3,-1.2570647E-4,7.121176E-4,-2.3276285E-4,-8.570268E-4,6.703854E-4,-2.669233E-4,7.9814205E-4,3.3412562E-4],"categories":[],"categories_nodes":[],"categories_segments":[],"categories_sizes":[],"default_left":[0,0,0,0,0,0,0,0,0,0,0,0,0,0,0],"id":78,"left_children":[1,3,5,7,9,11,13,-1,-1,-1,-1,-1,-1,-1,-1],"loss_changes":[2.9073426E-4,4.941049E-4,2.3070493E-4,7.420547E-5,9.6511736E-5,1.362762E-4,2.2895285E-5,0E0,0E0,0E0,0E0,0E0,0E0,0E0,0E0],"parents":[2147483647,0,0,1,1,2,2,3,3,4,4,5,5,6,6],"right_children":[2,4,6,8,10,12,14,-1,-1,-1,-1,-1,-1,-1,-1],"split_conditions":[1.3254307E-2,-5.5503566E-3,-7.883703E-3,-6.494723E-2,-8.426538E-3,-1.0060166E-1,1.3254307E-2,-1.2570647E-4,7.121176E-4,-2.3276285E-4,-8.570268E-4,6.703854E-4,-2.669233E-4,7.9814205E-4,3.3412562E-4],"split_indices":[0,3,3,0,0,3,4,0,0,0,0,0,0,0,0],"split_type":[0,0,0,0,0,0,0,0,0,0,0,0,0,0,0],"sum_hessian":[3.3E1,1.6E1,1.7E1,5E0,1.1E1,7E0,1E1,1E0,4E0,6E0,5E0,1E0,6E0,6E0,4E0],"tree_param":{"num_deleted":"0","num_feature":"5","num_nodes":"15","size_leaf_vector":"1"}},{"base_weights":[-1.0148383E-3,-2.061761E-3,2.936638E-3,2.656102E-3,-3.2085492E-3,1.874324E-4,6.326287E-3,5.6823884E-4,-1.0342098E-4,-5.612386E-4,-5.7553047E-5,2.7450745E-4,-1.7776573E-4,1.0303076E-3,1.5663315E-4],"categories":[],"categories_nodes":[],"categories_segments":[],"categories_sizes":[],"default_left":[0,0,0,0,0,0,0,0,0,0,0,0,0,0,0],"id":79,"left_children":[1,3,5,7,9,11,13,-1,-1,-1,-1,-1,-1,-1,-1],"loss_changes":[1.7566716E-4,1.8706506E-4,8.2683815E-5,8.405237E-5,1.6766228E-4,3.503578E-5,5.957934E-5,0E0,0E0,0E0,0E0,0E0,0E0,0E0,0E0],"parents":[2147483647,0,0,1,1,2,2,3,3,4,4,5,5,6,6],"right_children":[2,4,6,8,10,12,14,-1,-1,-1,-1,-1,-1,-1,-1],"split_conditions":[7.9768606E-2,-4.2005636E-2,1.3552408E-2,2.9292548E-2,2.9292548E-2,-5.960469E-2,-3.19373E-2,5.6823884E-4,-1.0342098E-4,-5.612386E-4,-5.7553047E-5,2.7450745E-4,-1.7776573E-4,1.0303076E-3,1.5663315E-4],"split_indices":[1,3,3,1,3,3,2,0,0,0,0,0,0,0,0],"split_type":[0,0,0,0,0,0,0,0,0,0,0,0,0,0,0],"sum_hessian":[4E1,3.2E1,8E0,6E0,2.6E1,5E0,3E0,3E0,3E0,1.3E1,1.3E1,2E0,3E0,1E0,2E0],"tree_param":{"num_deleted":"0","num_feature":"5","num_nodes":"15","size_leaf_vector":"1"}},{"base_weights":[-1.7482482E-4,3.2346498E-3,-2.49152E-3,-4.243409E-4,4.711536E-3,-7.677013E-4,-9.126875E-4,-1.7682045E-5,6.195725E-4,1.2537242E-4,-5.4544647E-4],"categories":[],"categories_nodes":[],"categories_segments":[],"categories_sizes":[],"default_left":[0,0,0,0,0,0,0,0,0,0,0],"id":80,"left_children":[1,3,5,-1,7,-1,9,-1,-1,-1,-1],"loss_changes":[2.9241288E-4,1.8565665E-4,1.7310785E-4,0E0,9.5413736E-5,0E0,1.8394689E-4,0E0,0E0,0E0,0E0],"parents":[2147483647,0,0,1,1,2,2,4,4,6,6],"right_children":[2,4,6,-1,8,-1,10,-1,-1,-1,-1],"split_conditions":[-5.5503566E-3,-7.7471785E-2,1.3176757E-2,-4.243409E-4,-4.4608336E-2,-7.677013E-4,5.395062E-2,-1.7682045E-5,6.195725E-4,1.2537242E-4,-5.4544647E-4],"split_indices":[4,4,4,0,0,0,3,0,0,0,0],"split_type":[0,0,0,0,0,0,0,0,0,0,0],"sum_hessian":[3.5E1,1.4E1,2.1E1,2E0,1.2E1,4E0,1.7E1,3E0,9E0,1.2E1,5E0],"tree_param":{"num_deleted":"0","num_feature":"5","num_nodes":"11","size_leaf_vector":"1"}},{"base_weights":[-7.6302694E-4,-1.4785181E-3,4.541115E-3,-3.4270382E-3,6.603931E-4,7.2444935E-4,-3.1361994E-4,-6.0090685E-4,-5.0230436E-5,2.2370557E-4,-5.4171897E-4],"categories":[],"categories_nodes":[],"categories_segments":[],"categories_sizes":[],"default_left":[0,0,0,0,0,0,0,0,0,0,0],"id":81,"left_children":[1,3,5,7,9,-1,-1,-1,-1,-1,-1],"loss_changes":[1.5851679E-4,1.5230082E-4,1.264936E-4,1.404649E-4,1.8459989E-4,0E0,0E0,0E0,0E0,0E0,0E0],"parents":[2147483647,0,0,1,1,2,2,3,3,4,4],"right_children":[2,4,6,8,10,-1,-1,-1,-1,-1,-1],"split_conditions":[9.602357E-2,1.3176757E-2,8.8781975E-2,2.1582266E-2,8.8781975E-2,7.2444935E-4,-3.1361994E-4,-6.0090685E-4,-5.0230436E-5,2.2370557E-4,-5.4171897E-4],"split_indices":[0,4,4,2,2,0,0,0,0,0,0],"split_type":[0,0,0,0,0,0,0,0,0,0,0],"sum_hessian":[3.9E1,3.5E1,4E0,1.8E1,1.7E1,3E0,1E0,9E0,9E0,1.4E1,3E0],"tree_param":{"num_deleted":"0","num_feature":"5","num_nodes":"11","size_leaf_vector":"1"}},{"base_weights":[1.0048891E-3,1.7273984E-3,-6.796003E-4,-1.0100426E-3,4.7146715E-3,-4.6928535E-4,1.4253863E-4,6.326781E-4,-3.8426928E-4],"categories":[],"categories_nodes":[],"categories_segments":[],"categories_sizes":[],"default_left":[0,0,0,0,0,0,0,0,0],"id":82,"left_children":[1,3,-1,5,7,-1,-1,-1,-1],"loss_changes":[1.9773454E-4,2.5826404E-4,0E0,1.5916594E-4,2.3124297E-4,0E0,0E0,0E0,0E0],"parents":[2147483647,0,0,1,1,3,3,4,4],"right_children":[2,4,-1,6,8,-1,-1,-1,-1],"split_conditions":[1.1776787E-1,1.2702171E-2,-6.796003E-4,1.3176757E-2,5.395062E-2,-4.6928535E-4,1.4253863E-4,6.326781E-4,-3.8426928E-4],"split_indices":[0,1,0,0,3,0,0,0,0],"split_type":[0,0,0,0,0,0,0,0,0],"sum_hessian":[3.2E1,3E1,2E0,1.6E1,1.4E1,6E0,1E1,1.2E1,2E0],"tree_param":{"num_deleted":"0","num_feature":"5","num_nodes":"9","size_leaf_vector":"1"}},{"base_weights":[3.1005172E-4,4.0290128E-3,-7.4559514E-4,-4.9612114E-5,7.301835E-3,-6.30928E-3,4.751985E-5,-1.4248835E-4,6.504266E-5,9.3919114E-4,-5.2923522E-5,-8.965213E-4,-2.435565E-4,8.497815E-4,-8.931618E-5],"categories":[],"categories_nodes":[],"categories_segments":[],"categories_sizes":[],"default_left":[0,0,0,0,0,0,0,0,0,0,0,0,0,0,0],"id":83,"left_children":[1,3,5,7,9,11,13,-1,-1,-1,-1,-1,-1,-1,-1],"loss_changes":[1.600404E-4,1.2049977E-4,1.4150435E-4,5.740498E-6,8.680823E-5,1.9317959E-5,2.38112E-4,0E0,0E0,0E0,0E0,0E0,0E0,0E0,0E0],"parents":[2147483647,0,0,1,1,2,2,3,3,4,4,5,5,6,6],"right_children":[2,4,6,8,10,12,14,-1,-1,-1,-1,-1,-1,-1,-1],"split_conditions":[-4.2005636E-2,-4.2005636E-2,-2.5765987E-2,-6.494723E-2,1.15913875E-1,1.3254307E-2,-5.5503566E-3,-1.4248835E-4,6.504266E-5,9.3919114E-4,-5.2923522E-5,-8.965213E-4,-2.435565E-4,8.497815E-4,-8.931618E-5],"split_indices":[4,0,4,0,1,0,4,0,0,0,0,0,0,0,0],"split_type":[0,0,0,0,0,0,0,0,0,0,0,0,0,0,0],"sum_hessian":[3.9E1,8E0,3.1E1,4E0,4E0,3E0,2.8E1,1E0,3E0,3E0,1E0,1E0,2E0,2E0,2.6E1],"tree_param":{"num_deleted":"0","num_feature":"5","num_nodes":"15","size_leaf_vector":"1"}},{"base_weights":[-1.5332004E-4,1.7262138E-4,-6.5954885E-4,-3.5085707E-4,3.907142E-3,1.8398974E-4,-1.14925286E-4,-3.0060016E-4,6.386928E-4],"categories":[],"categories_nodes":[],"categories_segments":[],"categories_sizes":[],"default_left":[0,0,0,0,0,0,0,0,0],"id":84,"left_children":[1,3,-1,5,7,-1,-1,-1,-1],"loss_changes":[8.722908E-5,7.95685E-5,0E0,6.5081724E-5,1.04914696E-4,0E0,0E0,0E0,0E0],"parents":[2147483647,0,0,1,1,3,3,4,4],"right_children":[2,4,-1,6,8,-1,-1,-1,-1],"split_conditions":[1.3799675E-1,9.602357E-2,-6.5954885E-4,-4.2005636E-2,-3.19373E-2,1.8398974E-4,-1.14925286E-4,-3.0060016E-4,6.386928E-4],"split_indices":[0,0,0,4,1,0,0,0,0],"split_type":[0,0,0,0,0,0,0,0,0],"sum_hessian":[4E1,3.9E1,1E0,3.5E1,4E0,9E0,2.6E1,1E0,3E0],"tree_param":{"num_deleted":"0","num_feature":"5","num_nodes":"9","size_leaf_vector":"1"}},{"base_weights":[-5.1764806E-4,1.9698804E-3,-1.9471376E-3,-9.5078227E-4,7.4172295E-3,-6.4501837E-3,-8.777881E-5,-5.2349706E-4,1.6331514E-4,-9.572543E-5,9.7501645E-4,-9.4441924E-4,6.898909E-5,-1.723095E-4,4.508662E-4],"categories":[],"categories_nodes":[],"categories_segments":[],"categories_sizes":[],"default_left":[0,0,0,0,0,0,0,0,0,0,0,0,0,0,0],"id":85,"left_children":[1,3,5,7,9,11,13,-1,-1,-1,-1,-1,-1,-1,-1],"loss_changes":[1.3540378E-4,2.2979037E-4,2.0038048E-4,1.1925008E-4,1.07018976E-4,1.561575E-4,1.4306828E-4,0E0,0E0,0E0,0E0,0E0,0E0,0E0,0E0],"parents":[2147483647,0,0,1,1,2,2,3,3,4,4,5,5,6,6],"right_children":[2,4,6,8,10,12,14,-1,-1,-1,-1,-1,-1,-1,-1],"split_conditions":[-2.8184508E-3,-2.6884908E-2,2.1533906E-2,-1.1883655E-2,-4.4608336E-2,5.395062E-2,5.395062E-2,-5.2349706E-4,1.6331514E-4,-9.572543E-5,9.7501645E-4,-9.4441924E-4,6.898909E-5,-1.723095E-4,4.508662E-4],"split_indices":[0,0,0,2,1,1,2,0,0,0,0,0,0,0,0],"split_type":[0,0,0,0,0,0,0,0,0,0,0,0,0,0,0],"sum_hessian":[3.6E1,1.3E1,2.3E1,9E0,4E0,6E0,1.7E1,3E0,6E0,1E0,3E0,4E0,2E0,1.3E1,4E0],"tree_param":{"num_deleted":"0","num_feature":"5","num_nodes":"15","size_leaf_vector":"1"}},{"base_weights":[-8.348208E-4,1.9373323E-3,-1.4446038E-3,-3.1094668E-3,7.761498E-3,-6.520405E-3,-5.7932606E-4,1.2561334E-4,-4.5149002E-4,8.937406E-4,2.1168869E-4,-7.69581E-4,-9.093918E-5,4.669897E-5,-4.2334068E-4],"categories":[],"categories_nodes":[],"categories_segments":[],"categories_sizes":[],"default_left":[0,0,0,0,0,0,0,0,0,0,0,0,0,0,0],"id":86,"left_children":[1,3,5,7,9,11,13,-1,-1,-1,-1,-1,-1,-1,-1],"loss_changes":[7.379597E-5,2.5928128E-4,1.499418E-4,3.6349116E-5,7.63069E-6,2.5977555E-5,1.20499964E-4,0E0,0E0,0E0,0E0,0E0,0E0,0E0,0E0],"parents":[2147483647,0,0,1,1,2,2,3,3,4,4,5,5,6,6],"right_children":[2,4,6,8,10,12,14,-1,-1,-1,-1,-1,-1,-1,-1],"split_conditions":[-5.618367E-2,-6.494723E-2,-3.19373E-2,-5.618367E-2,5.3527135E-2,2.9292548E-2,5.395062E-2,1.2561334E-4,-4.5149002E-4,8.937406E-4,2.1168869E-4,-7.69581E-4,-9.093918E-5,4.669897E-5,-4.2334068E-4],"split_indices":[1,1,1,0,2,3,3,0,0,0,0,0,0,0,0],"split_type":[0,0,0,0,0,0,0,0,0,0,0,0,0,0,0],"sum_hessian":[4.1E1,7E0,3.4E1,4E0,3E0,4E0,3E1,1E0,3E0,2E0,1E0,3E0,1E0,2.4E1,6E0],"tree_param":{"num_deleted":"0","num_feature":"5","num_nodes":"15","size_leaf_vector":"1"}},{"base_weights":[-2.3053162E-4,9.0095686E-4,-2.251842E-3,2.5216057E-3,-2.6205194E-3,-3.1869204E-3,5.419627E-4,-9.3866794E-5,5.123502E-4,-7.392364E-4,-2.0108306E-5,-6.111924E-4,6.112149E-5],"categories":[],"categories_nodes":[],"categories_segments":[],"categories_sizes":[],"default_left":[0,0,0,0,0,0,0,0,0,0,0,0,0],"id":87,"left_children":[1,3,5,7,9,11,-1,-1,-1,-1,-1,-1,-1],"loss_changes":[9.5799485E-5,1.6069898E-4,1.2487327E-4,1.7587146E-4,1.02420076E-4,1.5926952E-4,0E0,0E0,0E0,0E0,0E0,0E0,0E0],"parents":[2147483647,0,0,1,1,2,2,3,3,4,4,5,5],"right_children":[2,4,6,8,10,12,-1,-1,-1,-1,-1,-1,-1],"split_conditions":[5.0386142E-2,6.574508E-2,1.15913875E-1,-2.6884908E-2,-4.2005636E-2,2.1582266E-2,5.419627E-4,-9.3866794E-5,5.123502E-4,-7.392364E-4,-2.0108306E-5,-6.111924E-4,6.112149E-5],"split_indices":[0,2,3,0,1,1,0,0,0,0,0,0,0],"split_type":[0,0,0,0,0,0,0,0,0,0,0,0,0],"sum_hessian":[4E1,2.6E1,1.4E1,1.8E1,8E0,1.3E1,1E0,8E0,1E1,2E0,6E0,7E0,6E0],"tree_param":{"num_deleted":"0","num_feature":"5","num_nodes":"13","size_leaf_vector":"1"}},{"base_weights":[-8.036034E-4,3.4988238E-3,-1.8144097E-3,-1.0673967E-3,7.190338E-4,-3.0767855E-3,1.3327342E-3,1.24026E-4,-2.2500356E-4,-3.908657E-5,-7.392547E-4,-1.4848408E-4,5.2259135E-4],"categories":[],"categories_nodes":[],"categories_segments":[],"categories_sizes":[],"default_left":[0,0,0,0,0,0,0,0,0,0,0,0,0],"id":88,"left_children":[1,3,5,7,-1,9,11,-1,-1,-1,-1,-1,-1],"loss_changes":[1.5856055E-4,1.2566883E-4,1.1931398E-4,1.3707126E-5,0E0,2.4053808E-4,1.0648357E-4,0E0,0E0,0E0,0E0,0E0,0E0],"parents":[2147483647,0,0,1,1,2,2,3,3,5,5,6,6],"right_children":[2,4,6,8,-1,10,12,-1,-1,-1,-1,-1,-1],"split_conditions":[-5.618367E-2,-7.7471785E-2,5.395062E-2,-5.618367E-2,7.190338E-4,1.31782675E-2,1.3552408E-2,1.24026E-4,-2.2500356E-4,-3.908657E-5,-7.392547E-4,-1.4848408E-4,5.2259135E-4],"split_indices":[1,1,1,0,0,1,3,0,0,0,0,0,0],"split_type":[0,0,0,0,0,0,0,0,0,0,0,0,0],"sum_hessian":[3.4E1,6E0,2.8E1,3E0,3E0,2E1,8E0,1E0,2E0,1.3E1,7E0,5E0,3E0],"tree_param":{"num_deleted":"0","num_feature":"5","num_nodes":"13","size_leaf_vector":"1"}},{"base_weights":[-4.1222648E-4,1.7933077E-3,-1.8972623E-3,5.214805E-5,6.56846E-3,2.9274807E-3,-2.8131418E-3,-2.0617762E-4,2.5097016E-4,-1.1005551E-4,9.4916497E-4,4.4062475E-4,-7.544095E-5,-4.5194002E-4,7.5750104E-5],"categories":[],"categories_nodes":[],"categories_segments":[],"categories_sizes":[],"default_left":[0,0,0,0,0,0,0,0,0,0,0,0,0,0,0],"id":89,"left_children":[1,3,5,7,9,11,13,-1,-1,-1,-1,-1,-1,-1,-1],"loss_changes":[1.2131308E-4,1.24372E-4,1.0545083E-4,6.751542E-5,1.00118064E-4,2.5102741E-5,1.1917979E-4,0E0,0E0,0E0,0E0,0E0,0E0,0E0,0E0],"parents":[2147483647,0,0,1,1,2,2,3,3,4,4,5,5,6,6],"right_children":[2,4,6,8,10,12,14,-1,-1,-1,-1,-1,-1,-1,-1],"split_conditions":[-7.883703E-3,-3.19373E-2,-5.618367E-2,2.1533906E-2,-4.4608336E-2,4.5449E-2,7.9768606E-2,-2.0617762E-4,2.5097016E-4,-1.1005551E-4,9.4916497E-4,4.4062475E-4,-7.544095E-5,-4.5194002E-4,7.5750104E-5],"split_indices":[0,0,1,4,1,0,0,0,0,0,0,0,0,0,0],"split_type":[0,0,0,0,0,0,0,0,0,0,0,0,0,0,0],"sum_hessian":[3.5E1,1.4E1,2.1E1,1.1E1,3E0,3E0,1.8E1,6E0,5E0,1E0,2E0,2E0,1E0,1.2E1,6E0],"tree_param":{"num_deleted":"0","num_feature":"5","num_nodes":"15","size_leaf_vector":"1"}},{"base_weights":[9.355412E-4,-6.787256E-4,2.587515E-3,1.0169054E-3,-5.629874E-4,3.5212596E-3,-3.2549613E-4,-5.0000126E-5,7.2511996E-4,4.2667644E-4,-1.1315173E-4],"categories":[],"categories_nodes":[],"categories_segments":[],"categories_sizes":[],"default_left":[0,0,0,0,0,0,0,0,0,0,0],"id":90,"left_children":[1,3,5,7,-1,9,-1,-1,-1,-1,-1],"loss_changes":[9.7758355E-5,1.6523614E-4,1.0965842E-4,1.4547823E-4,0E0,6.0326653E-5,0E0,0E0,0E0,0E0,0E0],"parents":[2147483647,0,0,1,1,2,2,3,3,5,5],"right_children":[2,4,6,8,-1,10,-1,-1,-1,-1,-1],"split_conditions":[1.3176757E-2,-5.5503566E-3,1.07051514E-1,-8.426538E-3,-5.629874E-4,8.8781975E-2,-3.2549613E-4,-5.0000126E-5,7.2511996E-4,4.2667644E-4,-1.1315173E-4],"split_indices":[4,4,0,4,0,2,0,0,0,0,0],"split_type":[0,0,0,0,0,0,0,0,0,0,0],"sum_hessian":[3.5E1,1.8E1,1.7E1,1.4E1,4E0,1.5E1,2E0,1.2E1,2E0,1.3E1,2E0],"tree_param":{"num_deleted":"0","num_feature":"5","num_nodes":"11","size_leaf_vector":"1"}},{"base_weights":[-8.1399764E-4,-2.161556E-3,9.777835E-4,8.077471E-4,-3.6010803E-3,2.0551598E-3,-4.7350256E-4,2.7843527E-4,-1.8649465E-4,-4.3783858E-4,9.676044E-5,1.2718112E-5,4.2403952E-4],"categories":[],"categories_nodes":[],"categories_segments":[],"categories_sizes":[],"default_left":[0,0,0,0,0,0,0,0,0,0,0,0,0],"id":91,"left_children":[1,3,5,7,9,11,-1,-1,-1,-1,-1,-1,-1],"loss_changes":[9.3865645E-5,9.694522E-5,1.143636E-4,4.745555E-5,5.7505502E-5,6.2657E-5,0E0,0E0,0E0,0E0,0E0,0E0,0E0],"parents":[2147483647,0,0,1,1,2,2,3,3,4,4,5,5],"right_children":[2,4,6,8,10,12,-1,-1,-1,-1,-1,-1,-1],"split_conditions":[2.9292548E-2,-5.5503566E-3,8.8781975E-2,6.574508E-2,2.1533906E-2,2.1582266E-2,-4.7350256E-4,2.7843527E-4,-1.8649465E-4,-4.3783858E-4,9.676044E-5,1.2718112E-5,4.2403952E-4],"split_indices":[0,3,4,1,0,3,0,0,0,0,0,0,0],"split_type":[0,0,0,0,0,0,0,0,0,0,0,0,0],"sum_hessian":[3.7E1,2.1E1,1.6E1,7E0,1.4E1,1.4E1,2E0,4E0,3E0,1.2E1,2E0,8E0,6E0],"tree_param":{"num_deleted":"0","num_feature":"5","num_nodes":"13","size_leaf_vector":"1"}},{"base_weights":[-4.318139E-4,4.9850415E-4,-2.9935231E-3,-1.96175E-3,2.4663042E-3,1.998535E-3,-5.418482E-4,2.8330234E-5,-5.610494E-4,6.909492E-4,1.338028E-4,3.2576176E-5,2.4475387E-4],"categories":[],"categories_nodes":[],"categories_segments":[],"categories_sizes":[],"default_left":[0,0,0,0,0,0,0,0,0,0,0,0,0],"id":92,"left_children":[1,3,5,7,9,11,-1,-1,-1,-1,-1,-1,-1],"loss_changes":[8.9670844E-5,1.4039435E-4,1.3188436E-4,1.08080545E-4,7.096522E-5,2.2070108E-6,0E0,0E0,0E0,0E0,0E0,0E0,0E0],"parents":[2147483647,0,0,1,1,2,2,3,3,4,4,5,5],"right_children":[2,4,6,8,10,12,-1,-1,-1,-1,-1,-1,-1],"split_conditions":[5.2227695E-2,-8.426538E-3,-2.8184508E-3,-4.2005636E-2,-5.5503566E-3,-5.668029E-2,-5.418482E-4,2.8330234E-5,-5.610494E-4,6.909492E-4,1.338028E-4,3.2576176E-5,2.4475387E-4],"split_indices":[4,4,0,4,4,0,0,0,0,0,0,0,0],"split_type":[0,0,0,0,0,0,0,0,0,0,0,0,0],"sum_hessian":[3.6E1,2.7E1,9E0,1.2E1,1.5E1,3E0,6E0,8E0,4E0,2E0,1.3E1,1E0,2E0],"tree_param":{"num_deleted":"0","num_feature":"5","num_nodes":"13","size_leaf_vector":"1"}},{"base_weights":[-5.572773E-4,1.6214759E-3,-1.9832423E-3,-4.4311926E-4,5.426371E-3,-3.6091343E-3,1.1099738E-3,-4.0968249E-4,1.7080152E-4,7.7945966E-4,-2.0232648E-4,-4.3537287E-4,3.0352958E-4,6.2305824E-4,-1.635326E-4],"categories":[],"categories_nodes":[],"categories_segments":[],"categories_sizes":[],"default_left":[0,0,0,0,0,0,0,0,0,0,0,0,0,0,0],"id":93,"left_children":[1,3,5,7,9,11,13,-1,-1,-1,-1,-1,-1,-1,-1],"loss_changes":[1.08847875E-4,1.1238249E-4,1.0961998E-4,8.559356E-5,1.039826E-4,8.2478524E-5,1.2264987E-4,0E0,0E0,0E0,0E0,0E0,0E0,0E0,0E0],"parents":[2147483647,0,0,1,1,2,2,3,3,4,4,5,5,6,6],"right_children":[2,4,6,8,10,12,14,-1,-1,-1,-1,-1,-1,-1,-1],"split_conditions":[-2.8184508E-3,-2.6884908E-2,2.9292548E-2,-1.1883655E-2,1.2702171E-2,1.2434892E-1,5.3527135E-2,-4.0968249E-4,1.7080152E-4,7.7945966E-4,-2.0232648E-4,-4.3537287E-4,3.0352958E-4,6.2305824E-4,-1.635326E-4],"split_indices":[0,0,3,2,2,0,3,0,0,0,0,0,0,0,0],"split_type":[0,0,0,0,0,0,0,0,0,0,0,0,0,0,0],"sum_hessian":[3.3E1,1.3E1,2E1,9E0,4E0,1.3E1,7E0,3E0,6E0,3E0,1E0,1.2E1,1E0,2E0,5E0],"tree_param":{"num_deleted":"0","num_feature":"5","num_nodes":"15","size_leaf_vector":"1"}},{"base_weights":[2.1128102E-4,-2.1845705E-3,1.0028555E-3,-4.664846E-3,1.2286747E-3,3.677162E-3,-1.3676334E-4,8.505658E-5,-5.9380423E-4,3.696736E-4,-1.6489449E-4,5.3200085E-4,-1.3818666E-4,2.425321E-4,-1.7740487E-4],"categories":[],"categories_nodes":[],"categories_segments":[],"categories_sizes":[],"default_left":[0,0,0,0,0,0,0,0,0,0,0,0,0,0,0],"id":94,"left_children":[1,3,5,7,9,11,13,-1,-1,-1,-1,-1,-1,-1,-1],"loss_changes":[7.615411E-5,9.038947E-5,9.19336E-5,4.71839E-5,4.1606425E-5,8.2152415E-5,9.6589625E-5,0E0,0E0,0E0,0E0,0E0,0E0,0E0,0E0],"parents":[2147483647,0,0,1,1,2,2,3,3,4,4,5,5,6,6],"right_children":[2,4,6,8,10,12,14,-1,-1,-1,-1,-1,-1,-1,-1],"split_conditions":[-4.2005636E-2,2.1533906E-2,1.31782675E-2,-7.7471785E-2,4.5449E-2,6.574508E-2,-7.883703E-3,8.505658E-5,-5.9380423E-4,3.696736E-4,-1.6489449E-4,5.3200085E-4,-1.3818666E-4,2.425321E-4,-1.7740487E-4],"split_indices":[1,0,1,1,0,2,0,0,0,0,0,0,0,0,0],"split_type":[0,0,0,0,0,0,0,0,0,0,0,0,0,0,0],"sum_hessian":[3.8E1,9E0,2.9E1,5E0,4E0,8E0,2.1E1,1E0,4E0,2E0,2E0,6E0,2E0,8E0,1.3E1],"tree_param":{"num_deleted":"0","num_feature":"5","num_nodes":"15","size_leaf_vector":"1"}},{"base_weights":[4.967007E-4,-5.1025683E-5,3.5177E-3,-2.736373E-3,1.0251543E-3,6.7258277E-4,2.3217895E-5,-3.9927708E-4,1.5261448E-4,6.905565E-4,2.1357235E-5],"categories":[],"categories_nodes":[],"categories_segments":[],"categories_sizes":[],"default_left":[0,0,0,0,0,0,0,0,0,0,0],"id":95,"left_children":[1,3,5,7,9,-1,-1,-1,-1,-1,-1],"loss_changes":[6.4712054E-5,1.0106238E-4,6.168063E-5,5.9647704E-5,1.1783603E-4,0E0,0E0,0E0,0E0,0E0,0E0],"parents":[2147483647,0,0,1,1,2,2,3,3,4,4],"right_children":[2,4,6,8,10,-1,-1,-1,-1,-1,-1],"split_conditions":[9.602357E-2,-8.426538E-3,1.15913875E-1,7.9768606E-2,-5.5503566E-3,6.7258277E-4,2.3217895E-5,-3.9927708E-4,1.5261448E-4,6.905565E-4,2.1357235E-5],"split_indices":[1,4,1,2,4,0,0,0,0,0,0],"split_type":[0,0,0,0,0,0,0,0,0,0,0],"sum_hessian":[3.8E1,3.3E1,5E0,9E0,2.4E1,2E0,3E0,7E0,2E0,2E0,2.2E1],"tree_param":{"num_deleted":"0","num_feature":"5","num_nodes":"11","size_leaf_vector":"1"}},{"base_weights":[3.903521E-4,-2.1898581E-3,1.1038377E-3,4.977442E-4,-3.6166166E-3,7.658135E-4,4.116134E-4,-2.8274814E-4,5.2367104E-4,-4.0708162E-4,-6.728098E-5,-7.904495E-5,2.559763E-4],"categories":[],"categories_nodes":[],