{"learner":{"attributes":{"scikit_learn":"{\"_estimator_type\": \"regressor\"}"},"feature_names":["lag_5","lag_4","lag_3","lag_2","lag_1"],"feature_types":["float","float","float","float","float"],"gradient_booster":{"model":{"gbtree_model_param":{"num_parallel_tree":"1","num_trees":"150"},"iteration_indptr":[0,1,2,3,4,5,6,7,8,9,10,11,12,13,14,15,16,17,18,19,20,21,22,23,24,25,26,27,28,29,30,31,32,33,34,35,36,37,38,39,40,41,42,43,44,45,46,47,48,49,50,51,52,53,54,55,56,57,58,59,60,61,62,63,64,65,66,67,68,69,70,71,72,73,74,75,76,77,78,79,80,81,82,83,84,85,86,87,88,89,90,91,92,93,94,95,96,97,98,99,100,101,102,103,104,105,106,107,108,109,110,111,112,113,114,115,116,117,118,119,120,121,122,123,124,125,126,127,128,129,130,131,132,133,134,135,136,137,138,139,140,141,142,143,144,145,146,147,148,149,150],"tree_info":[0,0,0,0,0,0,0,0,0,0,0,0,0,0,0,0,0,0,0,0,0,0,0,0,0,0,0,0,0,0,0,0,0,0,0,0,0,0,0,0,0,0,0,0,0,0,0,0,0,0,0,0,0,0,0,0,0,0,0,0,0,0,0,0,0,0,0,0,0,0,0,0,0,0,0,0,0,0,0,0,0,0,0,0,0,0,0,0,0,0,0,0,0,0,0,0,0,0,0,0,0,0,0,0,0,0,0,0,0,0,0,0,0,0,0,0,0,0,0,0,0,0,0,0,0,0,0,0,0,0,0,0,0,0,0,0,0,0,0,0,0,0,0,0,0,0,0,0,0,0],"trees":[{"base_weights":[7.846825E-4,-1.1358223E-2,4.470463E-2,1.8462205E-2,-1.8340072E-2,3.6880551E-4,5.0037276E-2,-6.087543E-5,5.6908503E-3,-2.7147268E-3,2.0556734E-3,5.7143196E-3,2.1514983E-3],"categories":[],"categories_nodes":[],"categories_segments":[],"categories_sizes":[],"default_left":[0,0,0,0,0,0,0,0,0,0,0,0,0],"id":0,"left_children":[1,3,5,7,9,-1,11,-1,-1,-1,-1,-1,-1],"loss_changes":[1.9707134E-2,6.3764476E-3,1.5652757E-3,4.43389E-3,8.779782E-3,0E0,1.8930621E-4,0E0,0E0,0E0,0E0,0E0,0E0],"parents":[2147483647,0,0,1,1,2,2,3,3,4,4,6,6],"right_children":[2,4,6,8,10,-1,12,-1,-1,-1,-1,-1,-1],"split_conditions":[3.3426292E-2,-5.0096236E-2,-5.2601766E-2,-5.224289E-2,6.471444E-2,3.6880551E-4,-8.765523E-4,-6.087543E-5,5.6908503E-3,-2.7147268E-3,2.0556734E-3,5.7143196E-3,2.1514983E-3],"split_indices":[1,3,2,3,3,0,0,0,0,0,0,0,0],"split_type":[0,0,0,0,0,0,0,0,0,0,0,0,0],"sum_hessian":[3.5E1,2.8E1,7E0,5E0,2.3E1,1E0,6E0,4E0,1E0,1.9E1,4E0,4E0,2E0],"tree_param":{"num_deleted":"0","num_feature":"5","num_nodes":"13","size_leaf_vector":"1"}},{"base_weights":[8.739751E-4,2.8368695E-2,-1.4055413E-2,5.5176686E-3,4.1960876E-2,-1.9261908E-3,-3.8073085E-2,1.8696992E-3,-5.7462417E-4,6.2602395E-3,1.7055487E-3,-1.4392614E-3,1.7939073E-3,-4.4424483E-3,3.193343E-4],"categories":[],"categories_nodes":[],"categories_segments":[],"categories_sizes":[],"default_left":[0,0,0,0,0,0,0,0,0,0,0,0,0,0,0],"id":1,"left_children":[1,3,5,7,9,11,13,-1,-1,-1,-1,-1,-1,-1,-1],"loss_changes":[1.5175989E-2,3.806213E-3,6.918241E-3,9.981417E-4,3.0449666E-3,4.4682194E-3,2.2386573E-3,0E0,0E0,0E0,0E0,0E0,0E0,0E0,0E0],"parents":[2147483647,0,0,1,1,2,2,3,3,4,4,5,5,6,6],"right_children":[2,4,6,8,10,12,14,-1,-1,-1,-1,-1,-1,-1,-1],"split_conditions":[-3.3535726E-2,-5.224289E-2,1.8779894E-2,-5.0096236E-2,3.428295E-2,-3.7397332E-2,5.406722E-2,1.8696992E-3,-5.7462417E-4,6.2602395E-3,1.7055487E-3,-1.4392614E-3,1.7939073E-3,-4.4424483E-3,3.193343E-4],"split_indices":[3,3,0,2,0,0,3,0,0,0,0,0,0,0,0],"split_type":[0,0,0,0,0,0,0,0,0,0,0,0,0,0,0],"sum_hessian":[3.5E1,1.2E1,2.3E1,5E0,7E0,1.6E1,7E0,2E0,3E0,3E0,4E0,1E1,6E0,6E0,1E0],"tree_param":{"num_deleted":"0","num_feature":"5","num_nodes":"15","size_leaf_vector":"1"}},{"base_weights":[-5.6613698E-3,2.7076805E-3,-2.5180953E-2,-1.3881827E-2,2.7321173E-2,-3.6009832E-3,-3.0125824E-3,7.888497E-4,-3.988913E-3,6.961257E-3,8.046752E-4,-6.490503E-4,1.0890281E-4],"categories":[],"categories_nodes":[],"categories_segments":[],"categories_sizes":[],"default_left":[0,0,0,0,0,0,0,0,0,0,0,0,0],"id":2,"left_children":[1,3,5,7,9,11,-1,-1,-1,-1,-1,-1,-1],"loss_changes":[5.459074E-3,1.0179086E-2,9.586187E-4,8.807476E-3,7.591266E-3,4.772398E-5,0E0,0E0,0E0,0E0,0E0,0E0,0E0],"parents":[2147483647,0,0,1,1,2,2,3,3,4,4,5,5],"right_children":[2,4,6,8,10,12,-1,-1,-1,-1,-1,-1,-1],"split_conditions":[3.1096192E-2,-8.239541E-3,-2.1905813E-3,-3.979969E-2,4.957001E-3,-6.0177397E-2,-3.0125824E-3,7.888497E-4,-3.988913E-3,6.961257E-3,8.046752E-4,-6.490503E-4,1.0890281E-4],"split_indices":[2,2,3,2,2,0,0,0,0,0,0,0,0],"split_type":[0,0,0,0,0,0,0,0,0,0,0,0,0],"sum_hessian":[3.2E1,2.3E1,9E0,1.4E1,9E0,2E0,7E0,8E0,6E0,2E0,7E0,1E0,1E0],"tree_param":{"num_deleted":"0","num_feature":"5","num_nodes":"13","size_leaf_vector":"1"}},{"base_weights":[-2.5023073E-3,2.729962E-2,-1.1737213E-2,1.07184E-2,6.241634E-3,-1.882588E-2,1.6268868E-2,1.8130982E-3,-7.6795666E-4,-2.9924393E-3,9.886321E-4,3.2959094E-3,-4.1936245E-3],"categories":[],"categories_nodes":[],"categories_segments":[],"categories_sizes":[],"default_left":[0,0,0,0,0,0,0,0,0,0,0,0,0],"id":3,"left_children":[1,3,5,7,-1,9,11,-1,-1,-1,-1,-1,-1],"loss_changes":[1.1604359E-2,5.153778E-3,6.6591008E-3,1.2302498E-3,0E0,8.581071E-3,8.182377E-3,0E0,0E0,0E0,0E0,0E0,0E0],"parents":[2147483647,0,0,1,1,2,2,3,3,5,5,6,6],"right_children":[2,4,6,8,-1,10,12,-1,-1,-1,-1,-1,-1],"split_conditions":[-4.619511E-2,-5.0563212E-2,1.8779894E-2,6.0232505E-3,6.241634E-3,3.971325E-2,1.7704714E-2,1.8130982E-3,-7.6795666E-4,-2.9924393E-3,9.886321E-4,3.2959094E-3,-4.1936245E-3],"split_indices":[3,3,1,2,0,3,3,0,0,0,0,0,0],"split_type":[0,0,0,0,0,0,0,0,0,0,0,0,0],"sum_hessian":[4E1,9E0,3.1E1,7E0,2E0,2.5E1,6E0,5E0,2E0,1.8E1,7E0,5E0,1E0],"tree_param":{"num_deleted":"0","num_feature":"5","num_nodes":"13","size_leaf_vector":"1"}},{"base_weights":[4.4448543E-3,-5.7648774E-3,3.6671508E-2,-2.0578142E-2,5.453574E-3,4.250681E-2,-7.9230935E-4,2.9159975E-5,-3.6266898E-3,1.435473E-3,-1.622472E-3,1.2257072E-3,4.9398583E-3],"categories":[],"categories_nodes":[],"categories_segments":[],"categories_sizes":[],"default_left":[0,0,0,0,0,0,0,0,0,0,0,0,0],"id":4,"left_children":[1,3,5,7,9,11,-1,-1,-1,-1,-1,-1,-1],"loss_changes":[1.3701451E-2,5.4300446E-3,2.9390166E-3,4.5944597E-3,3.899177E-3,1.2707859E-3,0E0,0E0,0E0,0E0,0E0,0E0,0E0],"parents":[2147483647,0,0,1,1,2,2,3,3,4,4,5,5],"right_children":[2,4,6,8,10,12,-1,-1,-1,-1,-1,-1,-1],"split_conditions":[3.3426292E-2,-3.3535726E-2,1.1754464E-1,1.0593319E-2,2.686689E-2,-2.7357787E-2,-7.9230935E-4,2.9159975E-5,-3.6266898E-3,1.435473E-3,-1.622472E-3,1.2257072E-3,4.9398583E-3],"split_indices":[1,1,1,0,2,2,0,0,0,0,0,0,0],"split_type":[0,0,0,0,0,0,0,0,0,0,0,0,0],"sum_hessian":[4E1,3.1E1,9E0,1.3E1,1.8E1,8E0,1E0,6E0,7E0,1.3E1,5E0,2E0,6E0],"tree_param":{"num_deleted":"0","num_feature":"5","num_nodes":"13","size_leaf_vector":"1"}},{"base_weights":[-1.2403316E-3,2.4025068E-2,-8.634851E-3,6.880871E-3,4.8021145E-2,1.9653726E-2,-1.4189906E-2,-8.057E-4,1.446742E-3,5.6130136E-3,1.1847084E-3,3.7209035E-3,-1.0304595E-3,-1.9706148E-3,5.962013E-4],"categories":[],"categories_nodes":[],"categories_segments":[],"categories_sizes":[],"default_left":[0,0,0,0,0,0,0,0,0,0,0,0,0,0,0],"id":5,"left_children":[1,3,5,7,9,11,13,-1,-1,-1,-1,-1,-1,-1,-1],"loss_changes":[8.240949E-3,3.7835077E-3,5.621802E-3,9.0985216E-4,5.0836336E-4,3.5389897E-3,3.341211E-3,0E0,0E0,0E0,0E0,0E0,0E0,0E0,0E0],"parents":[2147483647,0,0,1,1,2,2,3,3,4,4,5,5,6,6],"right_children":[2,4,6,8,10,12,14,-1,-1,-1,-1,-1,-1,-1,-1],"split_conditions":[-4.619511E-2,-5.0563212E-2,-5.224289E-2,-2.9675769E-2,-1.3656659E-2,1.8779894E-2,3.971325E-2,-8.057E-4,1.446742E-3,5.6130136E-3,1.1847084E-3,3.7209035E-3,-1.0304595E-3,-1.9706148E-3,5.962013E-4],"split_indices":[3,3,0,4,0,2,3,0,0,0,0,0,0,0,0],"split_type":[0,0,0,0,0,0,0,0,0,0,0,0,0,0,0],"sum_hessian":[4.2E1,9E0,3.3E1,6E0,3E0,5E0,2.8E1,2E0,4E0,2E0,1E0,3E0,2E0,2.2E1,6E0],"tree_param":{"num_deleted":"0","num_feature":"5","num_nodes":"15","size_leaf_vector":"1"}},{"base_weights":[8.384969E-4,-2.5040267E-2,7.0561813E-3,1.0239504E-3,-3.2626812E-3,-4.495781E-3,1.8137733E-2,-4.0366757E-3,7.8358577E-4,3.8737443E-3,-4.729196E-4],"categories":[],"categories_nodes":[],"categories_segments":[],"categories_sizes":[],"default_left":[0,0,0,0,0,0,0,0,0,0,0],"id":6,"left_children":[1,3,5,-1,-1,7,9,-1,-1,-1,-1],"loss_changes":[5.808398E-3,2.2076434E-3,3.7939395E-3,0E0,0E0,6.951526E-3,7.2489777E-3,0E0,0E0,0E0,0E0],"parents":[2147483647,0,0,1,1,2,2,5,5,6,6],"right_children":[2,4,6,-1,-1,8,10,-1,-1,-1,-1],"split_conditions":[-5.224289E-2,-8.591668E-2,-1.1109557E-2,1.0239504E-3,-3.2626812E-3,-2.1196445E-2,2.686689E-2,-4.0366757E-3,7.8358577E-4,3.8737443E-3,-4.729196E-4],"split_indices":[1,1,2,0,0,4,2,0,0,0,0],"split_type":[0,0,0,0,0,0,0,0,0,0,0],"sum_hessian":[3.4E1,6E0,2.8E1,1E0,5E0,1.4E1,1.4E1,3E0,1.1E1,7E0,7E0],"tree_param":{"num_deleted":"0","num_feature":"5","num_nodes":"11","size_leaf_vector":"1"}},{"base_weights":[6.489556E-4,3.1045582E-2,-6.0205865E-3,4.5810286E-2,8.519482E-3,1.6775513E-3,-1.0863402E-2,3.2233723E-4,5.8931466E-3,1.3430532E-3,-3.1068324E-4,-1.8444071E-3,9.446195E-4],"categories":[],"categories_nodes":[],"categories_segments":[],"categories_sizes":[],"default_left":[0,0,0,0,0,0,0,0,0,0,0,0,0],"id":7,"left_children":[1,3,5,7,9,-1,11,-1,-1,-1,-1,-1,-1],"loss_changes":[7.8907125E-3,1.9378583E-3,3.7149529E-3,2.0452049E-3,2.7011603E-4,0E0,4.3311547E-3,0E0,0E0,0E0,0E0,0E0,0E0],"parents":[2147483647,0,0,1,1,2,2,3,3,4,4,6,6],"right_children":[2,4,6,8,10,-1,12,-1,-1,-1,-1,-1,-1],"split_conditions":[-5.224289E-2,-5.0563212E-2,-4.6861522E-2,-8.2772285E-2,1.8779894E-2,1.6775513E-3,3.971325E-2,3.2233723E-4,5.8931466E-3,1.3430532E-3,-3.1068324E-4,-1.8444071E-3,9.446195E-4],"split_indices":[0,4,3,0,2,0,3,0,0,0,0,0,0],"split_type":[0,0,0,0,0,0,0,0,0,0,0,0,0],"sum_hessian":[3.7E1,6E0,3.1E1,3E0,3E0,5E0,2.6E1,1E0,2E0,2E0,1E0,1.9E1,7E0],"tree_param":{"num_deleted":"0","num_feature":"5","num_nodes":"13","size_leaf_vector":"1"}},{"base_weights":[2.6930505E-3,-8.334654E-3,2.0299878E-2,-2.1333579E-2,3.1923375E-3,3.315522E-2,-1.6913453E-2,-3.5673266E-4,-3.8386367E-3,1.2145903E-3,-2.7716996E-3,1.7373692E-3,5.2484097E-3,3.0377394E-4,-3.8383515E-3],"categories":[],"categories_nodes":[],"categories_segments":[],"categories_sizes":[],"default_left":[0,0,0,0,0,0,0,0,0,0,0,0,0,0,0],"id":8,"left_children":[1,3,5,7,9,11,13,-1,-1,-1,-1,-1,-1,-1,-1],"loss_changes":[6.5765684E-3,3.2147127E-3,6.7798416E-3,2.8927051E-3,3.6576327E-3,2.1385485E-3,1.8300123E-3,0E0,0E0,0E0,0E0,0E0,0E0,0E0,0E0],"parents":[2147483647,0,0,1,1,2,2,3,3,4,4,5,5,6,6],"right_children":[2,4,6,8,10,12,14,-1,-1,-1,-1,-1,-1,-1,-1],"split_conditions":[1.8779894E-2,1.2994037E-2,1.0270447E-1,-4.619511E-2,1.695249E-2,4.022589E-2,-5.0563212E-2,-3.5673266E-4,-3.8386367E-3,1.2145903E-3,-2.7716996E-3,1.7373692E-3,5.2484097E-3,3.0377394E-4,-3.8383515E-3],"split_indices":[1,4,1,4,1,1,0,0,0,0,0,0,0,0,0],"split_type":[0,0,0,0,0,0,0,0,0,0,0,0,0,0,0],"sum_hessian":[3.2E1,2E1,1.2E1,9E0,1.1E1,9E0,3E0,5E0,4E0,9E0,2E0,6E0,3E0,2E0,1E0],"tree_param":{"num_deleted":"0","num_feature":"5","num_nodes":"15","size_leaf_vector":"1"}},{"base_weights":[-3.729439E-3,2.1817647E-2,-1.0201931E-2,3.3780783E-2,-9.381172E-3,3.268573E-3,-1.6772103E-2,7.6642947E-4,4.4922954E-3,-1.1298634E-3,-2.7731244E-4,-1.0966853E-3,1.2969796E-3,-3.448806E-3,-6.111291E-5],"categories":[],"categories_nodes":[],"categories_segments":[],"categories_sizes":[],"default_left":[0,0,0,0,0,0,0,0,0,0,0,0,0,0,0],"id":9,"left_children":[1,3,5,7,9,11,13,-1,-1,-1,-1,-1,-1,-1,-1],"loss_changes":[6.5060076E-3,3.302789E-3,2.7984304E-3,1.4016633E-3,6.679533E-6,1.6613491E-3,5.9913727E-3,0E0,0E0,0E0,0E0,0E0,0E0,0E0,0E0],"parents":[2147483647,0,0,1,1,2,2,3,3,4,4,5,5,6,6],"right_children":[2,4,6,8,10,12,14,-1,-1,-1,-1,-1,-1,-1,-1],"split_conditions":[-5.224289E-2,2.686689E-2,-3.7397332E-2,-8.2772285E-2,-8.4906116E-2,-6.0177397E-2,1.2994037E-2,7.6642947E-4,4.4922954E-3,-1.1298634E-3,-2.7731244E-4,-1.0966853E-3,1.2969796E-3,-3.448806E-3,-6.111291E-5],"split_indices":[0,2,2,0,0,2,2,0,0,0,0,0,0,0,0],"split_type":[0,0,0,0,0,0,0,0,0,0,0,0,0,0,0],"sum_hessian":[3.7E1,7E0,3E1,5E0,2E0,1E1,2E1,2E0,3E0,1E0,1E0,4E0,6E0,9E0,1.1E1],"tree_param":{"num_deleted":"0","num_feature":"5","num_nodes":"15","size_leaf_vector":"1"}},{"base_weights":[8.793385E-4,1.912899E-2,-5.4214583E-3,6.1532645E-3,4.029819E-2,-1.1130044E-2,1.0403822E-2,1.3172091E-3,-9.935477E-4,1.087988E-3,4.6477667E-3,-1.735106E-3,6.456859E-4,2.8142666E-3,-1.8805398E-3],"categories":[],"categories_nodes":[],"categories_segments":[],"categories_sizes":[],"default_left":[0,0,0,0,0,0,0,0,0,0,0,0,0,0,0],"id":10,"left_children":[1,3,5,7,9,11,13,-1,-1,-1,-1,-1,-1,-1,-1],"loss_changes":[4.9331747E-3,2.7735773E-3,3.0066743E-3,1.0342636E-3,2.214876E-4,2.7378344E-3,5.1924735E-3,0E0,0E0,0E0,0E0,0E0,0E0,0E0,0E0],"parents":[2147483647,0,0,1,1,2,2,3,3,4,4,5,5,6,6],"right_children":[2,4,6,8,10,12,14,-1,-1,-1,-1,-1,-1,-1,-1],"split_conditions":[-4.619511E-2,-5.0563212E-2,1.8779894E-2,6.0232505E-3,-2.7357787E-2,3.971325E-2,1.7704714E-2,1.3172091E-3,-9.935477E-4,1.087988E-3,4.6477667E-3,-1.735106E-3,6.456859E-4,2.8142666E-3,-1.8805398E-3],"split_indices":[3,3,1,2,2,3,3,0,0,0,0,0,0,0,0],"split_type":[0,0,0,0,0,0,0,0,0,0,0,0,0,0,0],"sum_hessian":[4.1E1,1E1,3.1E1,7E0,3E0,2.3E1,8E0,5E0,2E0,1E0,2E0,1.7E1,6E0,5E0,3E0],"tree_param":{"num_deleted":"0","num_feature":"5","num_nodes":"15","size_leaf_vector":"1"}},{"base_weights":[-3.8783038E-3,-9.439744E-3,1.8852245E-2,3.176041E-3,-1.5318558E-2,-2.0150635E-2,3.5211645E-2,-1.90672E-3,1.3900656E-3,-1.7808814E-3,6.3893426E-4,3.5737088E-4,-3.3799664E-3,3.9800215E-3,6.1344093E-4],"categories":[],"categories_nodes":[],"categories_segments":[],"categories_sizes":[],"default_left":[0,0,0,0,0,0,0,0,0,0,0,0,0,0,0],"id":11,"left_children":[1,3,5,7,9,11,13,-1,-1,-1,-1,-1,-1,-1,-1],"loss_changes":[5.1081292E-3,2.4219593E-3,5.8140466E-3,2.8890988E-3,1.3030679E-3,1.0922326E-3,5.5638654E-4,0E0,0E0,0E0,0E0,0E0,0E0,0E0,0E0],"parents":[2147483647,0,0,1,1,2,2,3,3,4,4,5,5,6,6],"right_children":[2,4,6,8,10,12,14,-1,-1,-1,-1,-1,-1,-1,-1],"split_conditions":[3.3426292E-2,-3.7397332E-2,-1.1109557E-2,-6.0177397E-2,4.022589E-2,-3.979969E-2,1.0270447E-1,-1.90672E-3,1.3900656E-3,-1.7808814E-3,6.3893426E-4,3.5737088E-4,-3.3799664E-3,3.9800215E-3,6.1344093E-4],"split_indices":[1,2,2,2,4,0,1,0,0,0,0,0,0,0,0],"split_type":[0,0,0,0,0,0,0,0,0,0,0,0,0,0,0],"sum_hessian":[3.8E1,3.1E1,7E0,1E1,2.1E1,2E0,5E0,3E0,7E0,1.9E1,2E0,1E0,1E0,4E0,1E0],"tree_param":{"num_deleted":"0","num_feature":"5","num_nodes":"15","size_leaf_vector":"1"}},{"base_weights":[1.9006783E-4,1.8458243E-2,-8.951331E-3,2.6241967E-3,2.8026497E-2,2.905213E-3,-2.1031352E-2,8.356056E-4,-1.3017551E-3,4.129713E-3,1.1804694E-3,9.5528207E-4,-2.4653622E-3,-3.0452402E-3,1.3280874E-5],"categories":[],"categories_nodes":[],"categories_segments":[],"categories_sizes":[],"default_left":[0,0,0,0,0,0,0,0,0,0,0,0,0,0,0],"id":12,"left_children":[1,3,5,7,9,11,13,-1,-1,-1,-1,-1,-1,-1,-1],"loss_changes":[6.5110987E-3,1.8960075E-3,3.7850102E-3,6.4671313E-4,1.2346883E-3,2.8003159E-3,2.5960966E-3,0E0,0E0,0E0,0E0,0E0,0E0,0E0,0E0],"parents":[2147483647,0,0,1,1,2,2,3,3,4,4,5,5,6,6],"right_children":[2,4,6,8,10,12,14,-1,-1,-1,-1,-1,-1,-1,-1],"split_conditions":[-3.3535726E-2,-5.224289E-2,4.957001E-3,2.686689E-2,3.428295E-2,4.1038558E-2,3.971325E-2,8.356056E-4,-1.3017551E-3,4.129713E-3,1.1804694E-3,9.5528207E-4,-2.4653622E-3,-3.0452402E-3,1.3280874E-5],"split_indices":[3,3,0,1,0,1,3,0,0,0,0,0,0,0,0],"split_type":[0,0,0,0,0,0,0,0,0,0,0,0,0,0,0],"sum_hessian":[3.7E1,1.2E1,2.5E1,5E0,7E0,1.3E1,1.2E1,4E0,1E0,3E0,4E0,1.1E1,2E0,8E0,4E0],"tree_param":{"num_deleted":"0","num_feature":"5","num_nodes":"15","size_leaf_vector":"1"}},{"base_weights":[6.5987516E-4,1.9774219E-2,-3.5420088E-3,3.543211E-2,-8.272282E-4,-1.6925298E-2,3.310636E-3,2.671389E-4,4.546189E-3,9.15301E-4,-7.2049774E-4,-2.2603772E-3,1.992972E-3,-1.4730486E-3,5.851273E-4],"categories":[],"categories_nodes":[],"categories_segments":[],"categories_sizes":[],"default_left":[0,0,0,0,0,0,0,0,0,0,0,0,0,0,0],"id":13,"left_children":[1,3,5,7,9,11,13,-1,-1,-1,-1,-1,-1,-1,-1],"loss_changes":[3.1220582E-3,2.287337E-3,2.990783E-3,1.1928845E-3,3.2055302E-4,2.7525695E-3,1.0945826E-3,0E0,0E0,0E0,0E0,0E0,0E0,0E0,0E0],"parents":[2147483647,0,0,1,1,2,2,3,3,4,4,5,5,6,6],"right_children":[2,4,6,8,10,12,14,-1,-1,-1,-1,-1,-1,-1,-1],"split_conditions":[-5.2601766E-2,-5.0563212E-2,-2.1196445E-2,-8.2772285E-2,-8.591668E-2,3.971325E-2,-4.619511E-2,2.671389E-4,4.546189E-3,9.15301E-4,-7.2049774E-4,-2.2603772E-3,1.992972E-3,-1.4730486E-3,5.851273E-4],"split_indices":[0,4,4,0,0,3,0,0,0,0,0,0,0,0,0],"split_type":[0,0,0,0,0,0,0,0,0,0,0,0,0,0,0],"sum_hessian":[3.7E1,6E0,3.1E1,3E0,3E0,1E1,2.1E1,1E0,2E0,1E0,2E0,9E0,1E0,2E0,1.9E1],"tree_param":{"num_deleted":"0","num_feature":"5","num_nodes":"15","size_leaf_vector":"1"}},{"base_weights":[5.760019E-4,-6.4279283E-3,2.3858435E-2,1.1094241E-2,-1.4465727E-2,3.301849E-2,4.153748E-3,1.4823931E-3,-1.1236484E-3,-2.0591237E-3,7.268985E-5,1.0869696E-3,4.1375463E-3,7.2102516E-4,-2.5078803E-4],"categories":[],"categories_nodes":[],"categories_segments":[],"categories_sizes":[],"default_left":[0,0,0,0,0,0,0,0,0,0,0,0,0,0,0],"id":14,"left_children":[1,3,5,7,9,11,13,-1,-1,-1,-1,-1,-1,-1,-1],"loss_changes":[6.349965E-3,4.3856762E-3,1.4873133E-3,9.994357E-4,1.969282E-3,6.6084275E-4,9.9527584E-5,0E0,0E0,0E0,0E0,0E0,0E0,0E0,0E0],"parents":[2147483647,0,0,1,1,2,2,3,3,4,4,5,5,6,6],"right_children":[2,4,6,8,10,12,14,-1,-1,-1,-1,-1,-1,-1,-1],"split_conditions":[3.3426292E-2,-4.085774E-2,6.0232505E-3,3.1096192E-2,2.8610535E-2,3.971325E-2,1.1754464E-1,1.4823931E-3,-1.1236484E-3,-2.0591237E-3,7.268985E-5,1.0869696E-3,4.1375463E-3,7.2102516E-4,-2.5078803E-4],"split_indices":[1,3,3,1,4,1,1,0,0,0,0,0,0,0,0],"split_type":[0,0,0,0,0,0,0,0,0,0,0,0,0,0,0],"sum_hessian":[3.7E1,2.9E1,8E0,9E0,2E1,5E0,3E0,8E0,1E0,1.4E1,6E0,2E0,3E0,2E0,1E0],"tree_param":{"num_deleted":"0","num_feature":"5","num_nodes":"15","size_leaf_vector":"1"}},{"base_weights":[2.2494586E-3,2.0472609E-2,-2.946098E-3,-4.3041334E-3,4.1154833E-3,-8.30195E-3,9.66697E-3,2.5138335E-4,-9.687389E-4,-1.0879756E-3,1.2510011E-3,1.3928612E-3,-4.919732E-4],"categories":[],"categories_nodes":[],"categories_segments":[],"categories_sizes":[],"default_left":[0,0,0,0,0,0,0,0,0,0,0,0,0],"id":15,"left_children":[1,3,5,7,-1,9,11,-1,-1,-1,-1,-1,-1],"loss_changes":[3.847491E-3,4.7890777E-3,2.2419738E-3,2.0786679E-4,0E0,1.3700376E-3,6.901581E-4,0E0,0E0,0E0,0E0,0E0,0E0],"parents":[2147483647,0,0,1,1,2,2,3,3,5,5,6,6],"right_children":[2,4,6,8,-1,10,12,-1,-1,-1,-1,-1,-1],"split_conditions":[-4.6861522E-2,-1.1109557E-2,2.8610535E-2,-4.085774E-2,4.1154833E-3,5.406722E-2,-8.765523E-4,2.5138335E-4,-9.687389E-4,-1.0879756E-3,1.2510011E-3,1.3928612E-3,-4.919732E-4],"split_indices":[4,1,4,3,0,3,3,0,0,0,0,0,0],"split_type":[0,0,0,0,0,0,0,0,0,0,0,0,0],"sum_hessian":[3.9E1,8E0,3.1E1,4E0,4E0,2.2E1,9E0,2E0,2E0,2E1,2E0,7E0,2E0],"tree_param":{"num_deleted":"0","num_feature":"5","num_nodes":"13","size_leaf_vector":"1"}},{"base_weights":[-2.6835592E-3,-6.3814837E-3,1.1981342E-2,1.1923198E-2,-1.1251535E-2,-5.570178E-3,1.8760212E-2,1.9999883E-4,2.4487483E-3,-1.742282E-3,4.0402962E-4,6.2727326E-5,-8.9825405E-4,2.8082938E-4,2.1388938E-3],"categories":[],"categories_nodes":[],"categories_segments":[],"categories_sizes":[],"default_left":[0,0,0,0,0,0,0,0,0,0,0,0,0,0,0],"id":16,"left_children":[1,3,5,7,9,11,13,-1,-1,-1,-1,-1,-1,-1,-1],"loss_changes":[2.1371872E-3,2.8976416E-3,1.0563334E-3,8.2377146E-4,2.4296492E-3,6.907834E-5,1.9153277E-4,0E0,0E0,0E0,0E0,0E0,0E0,0E0,0E0],"parents":[2147483647,0,0,1,1,2,2,3,3,4,4,5,5,6,6],"right_children":[2,4,6,8,10,12,14,-1,-1,-1,-1,-1,-1,-1,-1],"split_conditions":[3.971325E-2,-5.224289E-2,-4.6861522E-2,-6.0177397E-2,2.8610535E-2,2.400854E-2,-3.979969E-2,1.9999883E-4,2.4487483E-3,-1.742282E-3,4.0402962E-4,6.2727326E-5,-8.9825405E-4,2.8082938E-4,2.1388938E-3],"split_indices":[3,0,1,0,4,0,0,0,0,0,0,0,0,0,0],"split_type":[0,0,0,0,0,0,0,0,0,0,0,0,0,0,0],"sum_hessian":[3.7E1,3E1,7E0,6E0,2.4E1,2E0,5E0,4E0,2E0,1.7E1,7E0,1E0,1E0,1E0,4E0],"tree_param":{"num_deleted":"0","num_feature":"5","num_nodes":"15","size_leaf_vector":"1"}},{"base_weights":[6.0939244E-3,1.4132498E-3,2.1019071E-2,5.617547E-3,-1.0850761E-2,2.6538655E-2,1.1336807E-3,1.1793113E-3,-7.4357796E-4,-1.6781694E-3,1.5332884E-3,3.1881009E-3,8.788518E-4,2.6678792E-4,-9.673583E-5],"categories":[],"categories_nodes":[],"categories_segments":[],"categories_sizes":[],"default_left":[0,0,0,0,0,0,0,0,0,0,0,0,0,0,0],"id":17,"left_children":[1,3,5,7,9,11,13,-1,-1,-1,-1,-1,-1,-1,-1],"loss_changes":[2.6249653E-3,1.607801E-3,9.577456E-4,1.9417598E-3,1.499659E-3,3.8360571E-4,1.2251028E-5,0E0,0E0,0E0,0E0,0E0,0E0,0E0,0E0],"parents":[2147483647,0,0,1,1,2,2,3,3,4,4,5,5,6,6],"right_children":[2,4,6,8,10,12,14,-1,-1,-1,-1,-1,-1,-1,-1],"split_conditions":[3.3426292E-2,1.0593319E-2,1.7704714E-2,3.1096192E-2,1.2994037E-2,1.695249E-2,4.022589E-2,1.1793113E-3,-7.4357796E-4,-1.6781694E-3,1.5332884E-3,3.1881009E-3,8.788518E-4,2.6678792E-4,-9.673583E-5],"split_indices":[1,1,3,2,2,2,1,0,0,0,0,0,0,0,0],"split_type":[0,0,0,0,0,0,0,0,0,0,0,0,0,0,0],"sum_hessian":[3.7E1,2.9E1,8E0,2.2E1,7E0,6E0,2E0,1.5E1,7E0,6E0,1E0,4E0,2E0,1E0,1E0],"tree_param":{"num_deleted":"0","num_feature":"5","num_nodes":"15","size_leaf_vector":"1"}},{"base_weights":[-3.1354936E-4,1.0164677E-2,-4.911427E-3,2.0821816E-3,1.655306E-2,-8.234216E-3,1.45917665E-2,1.5181965E-3,-3.574168E-4,2.0967785E-3,5.1490753E-4,-1.948111E-3,2.7616214E-4,6.253831E-7,1.945152E-3],"categories":[],"categories_nodes":[],"categories_segments":[],"categories_sizes":[],"default_left":[0,0,0,0,0,0,0,0,0,0,0,0,0,0,0],"id":18,"left_children":[1,3,5,7,9,11,13,-1,-1,-1,-1,-1,-1,-1,-1],"loss_changes":[1.7361392E-3,5.3350837E-4,1.7402765E-3,4.988446E-4,1.94108E-4,2.7745175E-3,2.8340635E-4,0E0,0E0,0E0,0E0,0E0,0E0,0E0,0E0],"parents":[2147483647,0,0,1,1,2,2,3,3,4,4,5,5,6,6],"right_children":[2,4,6,8,10,12,14,-1,-1,-1,-1,-1,-1,-1,-1],"split_conditions":[-3.7397332E-2,-5.224289E-2,6.471444E-2,-8.591668E-2,-4.6861522E-2,-8.239541E-3,-4.6861522E-2,1.5181965E-3,-3.574168E-4,2.0967785E-3,5.1490753E-4,-1.948111E-3,2.7616214E-4,6.253831E-7,1.945152E-3],"split_indices":[3,3,3,2,3,2,1,0,0,0,0,0,0,0,0],"split_type":[0,0,0,0,0,0,0,0,0,0,0,0,0,0,0],"sum_hessian":[3.4E1,1E1,2.4E1,5E0,5E0,2.1E1,3E0,1E0,4E0,3E0,2E0,1E1,1.1E1,1E0,2E0],"tree_param":{"num_deleted":"0","num_feature":"5","num_nodes":"15","size_leaf_vector":"1"}},{"base_weights":[5.3589772E-3,2.2707094E-2,2.042381E-3,-7.50245E-4,3.4623325E-3,-4.5790067E-3,1.0293313E-2,1.1599845E-4,-2.285352E-4,-1.8917592E-4,-2.6474732E-3,1.6559091E-3,-1.1077345E-3],"categories":[],"categories_nodes":[],"categories_segments":[],"categories_sizes":[],"default_left":[0,0,0,0,0,0,0,0,0,0,0,0,0],"id":19,"left_children":[1,3,5,7,-1,9,11,-1,-1,-1,-1,-1,-1],"loss_changes":[2.1400182E-3,1.7031145E-3,1.8500098E-3,1.1448194E-5,0E0,1.0678616E-3,2.1919874E-3,0E0,0E0,0E0,0E0,0E0,0E0],"parents":[2147483647,0,0,1,1,2,2,3,3,5,5,6,6],"right_children":[2,4,6,8,-1,10,12,-1,-1,-1,-1,-1,-1],"split_conditions":[-5.0563212E-2,-1.9554103E-2,1.2994037E-2,-8.2772285E-2,3.4623325E-3,6.0232505E-3,1.0270447E-1,1.1599845E-4,-2.285352E-4,-1.8917592E-4,-2.6474732E-3,1.6559091E-3,-1.1077345E-3],"split_indices":[4,1,1,0,0,1,1,0,0,0,0,0,0],"split_type":[0,0,0,0,0,0,0,0,0,0,0,0,0],"sum_hessian":[3.7E1,5E0,3.2E1,2E0,3E0,1.8E1,1.4E1,1E0,1E0,1.7E1,1E0,1.1E1,3E0],"tree_param":{"num_deleted":"0","num_feature":"5","num_nodes":"13","size_leaf_vector":"1"}},{"base_weights":[-3.5296983E-4,-7.1797306E-3,1.2838137E-2,1.2522798E-2,-1.3405348E-2,2.0873725E-2,-1.2469261E-2,2.0257118E-3,1.6577796E-4,-1.730456E-3,7.4924476E-4,6.7433546E-4,2.5329695E-3,1.4515883E-4,-2.7115904E-3],"categories":[],"categories_nodes":[],"categories_segments":[],"categories_sizes":[],"default_left":[0,0,0,0,0,0,0,0,0,0,0,0,0,0,0],"id":20,"left_children":[1,3,5,7,9,11,13,-1,-1,-1,-1,-1,-1,-1,-1],"loss_changes":[3.6942754E-3,3.4797033E-3,3.107317E-3,5.546529E-4,1.8408375E-3,5.2180234E-4,8.54936E-4,0E0,0E0,0E0,0E0,0E0,0E0,0E0,0E0],"parents":[2147483647,0,0,1,1,2,2,3,3,4,4,5,5,6,6],"right_children":[2,4,6,8,10,12,14,-1,-1,-1,-1,-1,-1,-1,-1],"split_conditions":[1.8779894E-2,-4.085774E-2,1.7704714E-2,-2.7357787E-2,6.471444E-2,-4.6861522E-2,-3.979969E-2,2.0257118E-3,1.6577796E-4,-1.730456E-3,7.4924476E-4,6.7433546E-4,2.5329695E-3,1.4515883E-4,-2.7115904E-3],"split_indices":[1,3,3,0,3,3,0,0,0,0,0,0,0,0,0],"split_type":[0,0,0,0,0,0,0,0,0,0,0,0,0,0,0],"sum_hessian":[3.9E1,2.6E1,1.3E1,6E0,2E1,1E1,3E0,3E0,3E0,1.7E1,3E0,3E0,7E0,2E0,1E0],"tree_param":{"num_deleted":"0","num_feature":"5","num_nodes":"15","size_leaf_vector":"1"}},{"base_weights":[2.0574993E-3,1.204698E-2,-4.018489E-3,2.0177366E-2,-1.273714E-4,-1.06146615E-2,8.8874465E-3,8.912932E-6,2.2677255E-3,-6.2249514E-4,1.8229055E-3,-1.7074321E-3,4.0737665E-4,1.7393185E-3,1.7357133E-4],"categories":[],"categories_nodes":[],"categories_segments":[],"categories_sizes":[],"default_left":[0,0,0,0,0,0,0,0,0,0,0,0,0,0,0],"id":21,"left_children":[1,3,5,7,9,11,13,-1,-1,-1,-1,-1,-1,-1,-1],"loss_changes":[2.4155532E-3,1.4873028E-3,2.2225813E-3,4.4994405E-4,8.9698343E-4,1.6825547E-3,5.1728735E-4,0E0,0E0,0E0,0E0,0E0,0E0,0E0,0E0],"parents":[2147483647,0,0,1,1,2,2,3,3,4,4,5,5,6,6],"right_children":[2,4,6,8,10,12,14,-1,-1,-1,-1,-1,-1,-1,-1],"split_conditions":[-2.1196445E-2,2.686689E-2,3.3426292E-2,-8.591668E-2,-4.619511E-2,-1.1109557E-2,3.971325E-2,8.912932E-6,2.2677255E-3,-6.2249514E-4,1.8229055E-3,-1.7074321E-3,4.0737665E-4,1.7393185E-3,1.7357133E-4],"split_indices":[0,2,0,3,0,2,0,0,0,0,0,0,0,0,0],"split_type":[0,0,0,0,0,0,0,0,0,0,0,0,0,0,0],"sum_hessian":[3.8E1,1.4E1,2.4E1,8E0,6E0,1.6E1,8E0,1E0,7E0,5E0,1E0,1.1E1,5E0,3E0,5E0],"tree_param":{"num_deleted":"0","num_feature":"5","num_nodes":"15","size_leaf_vector":"1"}},{"base_weights":[5.1369704E-3,2.1799129E-2,1.0779012E-3,-1.4971219E-3,3.1417054E-3,-2.3909642E-3,1.2817168E-2,-2.2173086E-4,-2.837414E-6,-5.32641E-4,1.3617867E-3,1.7460192E-3,8.064055E-5],"categories":[],"categories_nodes":[],"categories_segments":[],"categories_sizes":[],"default_left":[0,0,0,0,0,0,0,0,0,0,0,0,0],"id":22,"left_children":[1,3,5,7,-1,9,11,-1,-1,-1,-1,-1,-1],"loss_changes":[2.4112856E-3,1.6154661E-3,1.2523035E-3,3.1104032E-6,0E0,1.2003678E-3,3.7628377E-4,0E0,0E0,0E0,0E0,0E0,0E0],"parents":[2147483647,0,0,1,1,2,2,3,3,5,5,6,6],"right_children":[2,4,6,8,-1,10,12,-1,-1,-1,-1,-1,-1],"split_conditions":[-4.6861522E-2,-1.1109557E-2,3.3426292E-2,-1.9554103E-2,3.1417054E-3,5.406722E-2,1.7704714E-2,-2.2173086E-4,-2.837414E-6,-5.32641E-4,1.3617867E-3,1.7460192E-3,8.064055E-5],"split_indices":[4,1,1,1,0,3,3,0,0,0,0,0,0],"split_type":[0,0,0,0,0,0,0,0,0,0,0,0,0],"sum_hessian":[3.5E1,6E0,2.9E1,2E0,4E0,2.3E1,6E0,1E0,1E0,2E1,3E0,4E0,2E0],"tree_param":{"num_deleted":"0","num_feature":"5","num_nodes":"13","size_leaf_vector":"1"}},{"base_weights":[3.0562815E-3,-9.484462E-4,1.7400697E-2,7.351227E-3,-5.4324297E-3,2.2049762E-2,7.5264485E-4,1.2857704E-3,-2.9293826E-4,-1.981318E-3,-1.1359749E-4,2.44405E-3,3.8526618E-4,1.4338236E-4,-3.0485635E-5],"categories":[],"categories_nodes":[],"categories_segments":[],"categories_sizes":[],"default_left":[0,0,0,0,0,0,0,0,0,0,0,0,0,0,0],"id":23,"left_children":[1,3,5,7,9,11,13,-1,-1,-1,-1,-1,-1,-1,-1],"loss_changes":[2.3717685E-3,1.2680497E-3,6.799849E-4,7.1698445E-4,1.3367902E-3,2.1037064E-4,2.5981526E-6,0E0,0E0,0E0,0E0,0E0,0E0,0E0,0E0],"parents":[2147483647,0,0,1,1,2,2,3,3,4,4,5,5,6,6],"right_children":[2,4,6,8,10,12,14,-1,-1,-1,-1,-1,-1,-1,-1],"split_conditions":[3.3426292E-2,-3.7397332E-2,1.7704714E-2,1.0593319E-2,-1.9554103E-2,1.0270447E-1,4.022589E-2,1.2857704E-3,-2.9293826E-4,-1.981318E-3,-1.1359749E-4,2.44405E-3,3.8526618E-4,1.4338236E-4,-3.0485635E-5],"split_indices":[1,2,3,1,2,1,1,0,0,0,0,0,0,0,0],"split_type":[0,0,0,0,0,0,0,0,0,0,0,0,0,0,0],"sum_hessian":[4E1,3.2E1,8E0,1.1E1,2.1E1,6E0,2E0,7E0,4E0,4E0,1.7E1,5E0,1E0,1E0,1E0],"tree_param":{"num_deleted":"0","num_feature":"5","num_nodes":"15","size_leaf_vector":"1"}},{"base_weights":[-1.6831919E-3,1.1734986E-2,-4.757994E-3,-3.0703088E-3,1.8271165E-2,-7.2543677E-3,9.17475E-3,-5.7916605E-4,1.18619726E-4,2.6473543E-3,3.978401E-4,-1.1352184E-3,1.7473067E-4,-4.754495E-6,1.149221E-3],"categories":[],"categories_nodes":[],"categories_segments":[],"categories_sizes":[],"default_left":[0,0,0,0,0,0,0,0,0,0,0,0,0,0,0],"id":24,"left_children":[1,3,5,7,9,11,13,-1,-1,-1,-1,-1,-1,-1,-1],"loss_changes":[1.5411315E-3,7.334886E-4,1.1099973E-3,4.16204E-5,4.808508E-4,9.789033E-4,1.0740789E-4,0E0,0E0,0E0,0E0,0E0,0E0,0E0,0E0],"parents":[2147483647,0,0,1,1,2,2,3,3,4,4,5,5,6,6],"right_children":[2,4,6,8,10,12,14,-1,-1,-1,-1,-1,-1,-1,-1],"split_conditions":[-5.224289E-2,-8.2772285E-2,4.022589E-2,-8.4906116E-2,-5.0563212E-2,1.8779894E-2,-2.1905813E-3,-5.7916605E-4,1.18619726E-4,2.6473543E-3,3.978401E-4,-1.1352184E-3,1.7473067E-4,-4.754495E-6,1.149221E-3],"split_indices":[0,0,4,0,4,1,1,0,0,0,0,0,0,0,0],"split_type":[0,0,0,0,0,0,0,0,0,0,0,0,0,0,0],"sum_hessian":[3.5E1,6E0,2.9E1,2E0,4E0,2.5E1,4E0,1E0,1E0,2E0,2E0,1.7E1,8E0,1E0,3E0],"tree_param":{"num_deleted":"0","num_feature":"5","num_nodes":"15","size_leaf_vector":"1"}},{"base_weights":[1.3372762E-5,8.192838E-3,-7.7772313E-3,1.2219187E-2,-1.0967354E-2,-1.7353548E-2,2.5061064E-3,7.592564E-4,2.5357571E-3,2.0560871E-4,-2.501884E-3,-2.3745035E-3,-8.0698024E-4,8.0811646E-4,-1.5054435E-3],"categories":[],"categories_nodes":[],"categories_segments":[],"categories_sizes":[],"default_left":[0,0,0,0,0,0,0,0,0,0,0,0,0,0,0],"id":25,"left_children":[1,3,5,7,9,11,13,-1,-1,-1,-1,-1,-1,-1,-1],"loss_changes":[2.6126367E-3,1.6769248E-3,2.1114964E-3,8.40839E-4,7.834357E-4,4.6108873E-4,1.1985686E-3,0E0,0E0,0E0,0E0,0E0,0E0,0E0,0E0],"parents":[2147483647,0,0,1,1,2,2,3,3,4,4,5,5,6,6],"right_children":[2,4,6,8,10,12,14,-1,-1,-1,-1,-1,-1,-1,-1],"split_conditions":[-2.1905813E-3,1.0270447E-1,3.3426292E-2,4.022589E-2,-5.0563212E-2,1.2994037E-2,1.113979E-1,7.592564E-4,2.5357571E-3,2.0560871E-4,-2.501884E-3,-2.3745035E-3,-8.0698024E-4,8.0811646E-4,-1.5054435E-3],"split_indices":[0,1,0,1,0,4,0,0,0,0,0,0,0,0,0],"split_type":[0,0,0,0,0,0,0,0,0,0,0,0,0,0,0],"sum_hessian":[3.9E1,1.9E1,2E1,1.6E1,3E0,1E1,1E1,1.3E1,3E0,2E0,1E0,5E0,5E0,8E0,2E0],"tree_param":{"num_deleted":"0","num_feature":"5","num_nodes":"15","size_leaf_vector":"1"}},{"base_weights":[2.7051251E-3,1.01160025E-2,-5.238173E-3,-6.004776E-3,1.2240799E-2,-8.726383E-3,1.0024208E-2,7.472591E-5,-9.754423E-4,1.9242915E-3,4.7148144E-4,1.6748908E-3,-1.154133E-3,1.154355E-3,2.733091E-4],"categories":[],"categories_nodes":[],"categories_segments":[],"categories_sizes":[],"default_left":[0,0,0,0,0,0,0,0,0,0,0,0,0,0,0],"id":26,"left_children":[1,3,5,7,9,11,13,-1,-1,-1,-1,-1,-1,-1,-1],"loss_changes":[2.2899283E-3,7.585704E-4,1.0990043E-3,8.324232E-5,8.57834E-4,1.3406897E-3,1.2761273E-5,0E0,0E0,0E0,0E0,0E0,0E0,0E0,0E0],"parents":[2147483647,0,0,1,1,2,2,3,3,4,4,5,5,6,6],"right_children":[2,4,6,8,10,12,14,-1,-1,-1,-1,-1,-1,-1,-1],"split_conditions":[-8.765523E-4,-8.2772285E-2,5.406722E-2,-8.2772285E-2,6.0232505E-3,-5.2601766E-2,4.1038558E-2,7.472591E-5,-9.754423E-4,1.9242915E-3,4.7148144E-4,1.6748908E-3,-1.154133E-3,1.154355E-3,2.733091E-4],"split_indices":[0,3,4,0,3,4,0,0,0,0,0,0,0,0,0],"split_type":[0,0,0,0,0,0,0,0,0,0,0,0,0,0,0],"sum_hessian":[3.7E1,1.9E1,1.8E1,2E0,1.7E1,1.5E1,3E0,1E0,1E0,8E0,9E0,1E0,1.4E1,2E0,1E0],"tree_param":{"num_deleted":"0","num_feature":"5","num_nodes":"15","size_leaf_vector":"1"}},{"base_weights":[-1.0256269E-3,-3.953855E-3,1.0083432E-2,-8.021094E-5,-1.9435063E-2,2.004557E-3,3.4217918E-3,6.414612E-4,-7.650821E-4,-2.4478128E-3,-6.2326225E-4,-3.9153234E-5,1.1244207E-3],"categories":[],"categories_nodes":[],"categories_segments":[],"categories_sizes":[],"default_left":[0,0,0,0,0,0,0,0,0,0,0,0,0],"id":27,"left_children":[1,3,5,7,9,-1,11,-1,-1,-1,-1,-1,-1],"loss_changes":[1.2434733E-3,1.7975019E-3,4.6232162E-4,1.2783213E-3,2.4692155E-4,0E0,1.833789E-4,0E0,0E0,0E0,0E0,0E0,0E0],"parents":[2147483647,0,0,1,1,2,2,3,3,4,4,6,6],"right_children":[2,4,6,8,10,-1,12,-1,-1,-1,-1,-1,-1],"split_conditions":[3.971325E-2,2.2392338E-2,-1.1109557E-2,-8.765523E-4,-8.239541E-3,2.004557E-3,2.686689E-2,6.414612E-4,-7.650821E-4,-2.4478128E-3,-6.2326225E-4,-3.9153234E-5,1.1244207E-3],"split_indices":[3,3,4,0,2,0,0,0,0,0,0,0,0],"split_type":[0,0,0,0,0,0,0,0,0,0,0,0,0],"sum_hessian":[3.6E1,2.9E1,7E0,2.4E1,5E0,2E0,5E0,1.3E1,1.1E1,3E0,2E0,4E0,1E0],"tree_param":{"num_deleted":"0","num_feature":"5","num_nodes":"13","size_leaf_vector":"1"}},{"base_weights":[-1.7812106E-4,4.0839957E-3,-6.027399E-3,6.873994E-3,-1.5877323E-2,-1.2235788E-2,6.3592126E-3,-8.0941994E-5,1.463835E-3,-1.0362547E-4,-2.277973E-3,-1.931721E-3,-3.1150668E-4,-5.5159268E-5,9.952514E-4],"categories":[],"categories_nodes":[],"categories_segments":[],"categories_sizes":[],"default_left":[0,0,0,0,0,0,0,0,0,0,0,0,0,0,0],"id":28,"left_children":[1,3,5,7,9,11,13,-1,-1,-1,-1,-1,-1,-1,-1],"loss_changes":[9.4703725E-4,1.3343657E-3,1.3082244E-3,1.2049837E-3,2.8371176E-4,6.5028993E-4,1.5448533E-4,0E0,0E0,0E0,0E0,0E0,0E0,0E0,0E0],"parents":[2147483647,0,0,1,1,2,2,3,3,4,4,5,5,6,6],"right_children":[2,4,6,8,10,12,14,-1,-1,-1,-1,-1,-1,-1,-1],"split_conditions":[4.957001E-3,1.0270447E-1,4.022589E-2,-3.7397332E-2,-5.0563212E-2,1.0593319E-2,-2.1905813E-3,-8.0941994E-5,1.463835E-3,-1.0362547E-4,-2.277973E-3,-1.931721E-3,-3.1150668E-4,-5.5159268E-5,9.952514E-4],"split_indices":[0,1,4,0,0,2,1,0,0,0,0,0,0,0,0],"split_type":[0,0,0,0,0,0,0,0,0,0,0,0,0,0,0],"sum_hessian":[3.6E1,2.1E1,1.5E1,1.9E1,2E0,1E1,5E0,1E1,9E0,1E0,1E0,5E0,5E0,2E0,3E0],"tree_param":{"num_deleted":"0","num_feature":"5","num_nodes":"15","size_leaf_vector":"1"}},{"base_weights":[1.2517903E-3,1.1761746E-2,-1.9429227E-3,1.724244E-2,6.002708E-4,-6.3360753E-3,6.2212567E-3,4.2963657E-5,2.0519074E-3,-1.6548648E-4,3.682839E-4,-2.3790041E-4,-2.156961E-3,9.473573E-4,-5.609444E-4],"categories":[],"categories_nodes":[],"categories_segments":[],"categories_sizes":[],"default_left":[0,0,0,0,0,0,0,0,0,0,0,0,0,0,0],"id":29,"left_children":[1,3,5,7,9,11,13,-1,-1,-1,-1,-1,-1,-1,-1],"loss_changes":[1.2987513E-3,5.402034E-4,1.1154129E-3,3.2172073E-4,3.3901033E-5,1.1542892E-3,4.7639044E-4,0E0,0E0,0E0,0E0,0E0,0E0,0E0,0E0],"parents":[2147483647,0,0,1,1,2,2,3,3,4,4,5,5,6,6],"right_children":[2,4,6,8,10,12,14,-1,-1,-1,-1,-1,-1,-1,-1],"split_conditions":[-4.619511E-2,-1.1109557E-2,3.3426292E-2,-8.2772285E-2,1.0593319E-2,2.2392338E-2,-8.765523E-4,4.2963657E-5,2.0519074E-3,-1.6548648E-4,3.682839E-4,-2.3790041E-4,-2.156961E-3,9.473573E-4,-5.609444E-4],"split_indices":[3,0,3,0,0,3,2,0,0,0,0,0,0,0,0],"split_type":[0,0,0,0,0,0,0,0,0,0,0,0,0,0,0],"sum_hessian":[3.7E1,8E0,2.9E1,5E0,3E0,1.9E1,1E1,1E0,4E0,2E0,1E0,1.6E1,3E0,8E0,2E0],"tree_param":{"num_deleted":"0","num_feature":"5","num_nodes":"15","size_leaf_vector":"1"}},{"base_weights":[-9.7116304E-4,-1.6672666E-3,4.0242748E-4,-1.8042962E-3,1.4756143E-3,6.801299E-4,-3.6361776E-4],"categories":[],"categories_nodes":[],"categories_segments":[],"categories_sizes":[],"default_left":[0,0,0,0,0,0,0],"id":30,"left_children":[1,-1,3,-1,5,-1,-1],"loss_changes":[8.047046E-4,0E0,7.1946153E-4,0E0,9.5033966E-4,0E0,0E0],"parents":[2147483647,0,0,2,2,4,4],"right_children":[2,-1,4,-1,6,-1,-1],"split_conditions":[-6.0177397E-2,-1.6672666E-3,-8.591668E-2,-1.8042962E-3,-8.239541E-3,6.801299E-4,-3.6361776E-4],"split_indices":[2,0,4,0,4,0,0],"split_type":[0,0,0,0,0,0,0],"sum_hessian":[3.6E1,2E0,3.4E1,1E0,3.3E1,1.6E1,1.7E1],"tree_param":{"num_deleted":"0","num_feature":"5","num_nodes":"7","size_leaf_vector":"1"}},{"base_weights":[1.8943881E-3,-1.7140814E-3,2.7987885E-3,1.2442072E-2,7.310892E-4,-1.42878E-4,2.3202407E-3,-9.325645E-4,4.184148E-4],"categories":[],"categories_nodes":[],"categories_segments":[],"categories_sizes":[],"default_left":[0,0,0,0,0,0,0,0,0],"id":31,"left_children":[1,-1,3,5,7,-1,-1,-1,-1],"loss_changes":[7.538067E-4,0E0,7.8848004E-4,1.0779361E-3,1.2197206E-3,0E0,0E0,0E0,0E0],"parents":[2147483647,0,0,2,2,3,3,4,4],"right_children":[2,-1,4,6,8,-1,-1,-1,-1],"split_conditions":[-8.591668E-2,-1.7140814E-3,-5.0563212E-2,-1.1109557E-2,-2.1196445E-2,-1.42878E-4,2.3202407E-3,-9.325645E-4,4.184148E-4],"split_indices":[4,0,4,1,4,0,0,0,0],"split_type":[0,0,0,0,0,0,0,0,0],"sum_hessian":[4E1,1E0,3.9E1,6E0,3.3E1,3E0,3E0,8E0,2.5E1],"tree_param":{"num_deleted":"0","num_feature":"5","num_nodes":"9","size_leaf_vector":"1"}},{"base_weights":[1.4005254E-3,8.220624E-3,-1.3288178E-3,2.5275412E-3,1.2543603E-2,-1.0077667E-2,2.6746055E-3,1.1215698E-3,-1.4532298E-4,1.5086007E-3,-8.420693E-6,-1.4187312E-3,1.1399745E-3,1.8321928E-3,-1.1644473E-4],"categories":[],"categories_nodes":[],"categories_segments":[],"categories_sizes":[],"default_left":[0,0,0,0,0,0,0,0,0,0,0,0,0,0,0],"id":32,"left_children":[1,3,5,7,9,11,13,-1,-1,-1,-1,-1,-1,-1,-1],"loss_changes":[7.1827054E-4,2.3901742E-4,1.0076634E-3,2.2381236E-4,1.9390031E-4,9.561125E-4,1.2227528E-3,0E0,0E0,0E0,0E0,0E0,0E0,0E0,0E0],"parents":[2147483647,0,0,1,1,2,2,3,3,4,4,5,5,6,6],"right_children":[2,4,6,8,10,12,14,-1,-1,-1,-1,-1,-1,-1,-1],"split_conditions":[-3.7397332E-2,-5.0563212E-2,-8.239541E-3,-8.591668E-2,3.971325E-2,5.406722E-2,4.957001E-3,1.1215698E-3,-1.4532298E-4,1.5086007E-3,-8.420693E-6,-1.4187312E-3,1.1399745E-3,1.8321928E-3,-1.1644473E-4],"split_indices":[2,2,2,2,0,3,2,0,0,0,0,0,0,0,0],"split_type":[0,0,0,0,0,0,0,0,0,0,0,0,0,0,0],"sum_hessian":[3.7E1,1E1,2.7E1,5E0,5E0,8E0,1.9E1,1E0,4E0,4E0,1E0,7E0,1E0,3E0,1.6E1],"tree_param":{"num_deleted":"0","num_feature":"5","num_nodes":"15","size_leaf_vector":"1"}},{"base_weights":[-5.383396E-4,1.0626537E-2,-3.7623898E-3,1.4631834E-2,1.9619572E-3,-1.9385457E-2,-1.3961517E-3,8.4889434E-5,1.7218644E-3,-2.5847825E-4,4.339131E-4,-1.9720896E-5,-2.5715805E-3,-5.4770766E-4,6.4972206E-4],"categories":[],"categories_nodes":[],"categories_segments":[],"categories_sizes":[],"default_left":[0,0,0,0,0,0,0,0,0,0,0,0,0,0,0],"id":33,"left_children":[1,3,5,7,9,11,13,-1,-1,-1,-1,-1,-1,-1,-1],"loss_changes":[1.4438299E-3,2.836309E-4,1.1189398E-3,1.9930617E-4,5.4449272E-5,4.8080168E-4,9.3752897E-4,0E0,0E0,0E0,0E0,0E0,0E0,0E0,0E0],"parents":[2147483647,0,0,1,1,2,2,3,3,4,4,5,5,6,6],"right_children":[2,4,6,8,10,12,14,-1,-1,-1,-1,-1,-1,-1,-1],"split_conditions":[-4.619511E-2,-8.765523E-4,-2.9675769E-2,-2.9675769E-2,-5.0096236E-2,-1.1109557E-2,6.0232505E-3,8.4889434E-5,1.7218644E-3,-2.5847825E-4,4.339131E-4,-1.9720896E-5,-2.5715805E-3,-5.4770766E-4,6.4972206E-4],"split_indices":[3,4,3,1,2,1,1,0,0,0,0,0,0,0,0],"split_type":[0,0,0,0,0,0,0,0,0,0,0,0,0,0,0],"sum_hessian":[3.8E1,8E0,3E1,5E0,3E0,3E0,2.7E1,1E0,4E0,1E0,2E0,1E0,2E0,1.8E1,9E0],"tree_param":{"num_deleted":"0","num_feature":"5","num_nodes":"15","size_leaf_vector":"1"}},{"base_weights":[3.37494E-3,5.085109E-4,1.1599234E-2,9.086386E-3,-4.2852256E-3,1.52103705E-2,-6.931627E-5,1.1879046E-3,-1.3895011E-4,-3.0322406E-6,-1.9169807E-3,2.7622198E-4,1.6824693E-3],"categories":[],"categories_nodes":[],"categories_segments":[],"categories_sizes":[],"default_left":[0,0,0,0,0,0,0,0,0,0,0,0,0],"id":34,"left_children":[1,3,5,7,9,11,-1,-1,-1,-1,-1,-1,-1],"loss_changes":[8.19204E-4,1.1491792E-3,4.100491E-4,3.0906184E-4,1.139403E-3,9.419373E-5,0E0,0E0,0E0,0E0,0E0,0E0,0E0],"parents":[2147483647,0,0,1,1,2,2,3,3,4,4,5,5],"right_children":[2,4,6,8,10,12,-1,-1,-1,-1,-1,-1,-1],"split_conditions":[3.3426292E-2,-3.7397332E-2,1.7704714E-2,3.428295E-2,1.695249E-2,-2.7357787E-2,-6.931627E-5,1.1879046E-3,-1.3895011E-4,-3.0322406E-6,-1.9169807E-3,2.7622198E-4,1.6824693E-3],"split_indices":[1,2,3,4,1,2,0,0,0,0,0,0,0],"split_type":[0,0,0,0,0,0,0,0,0,0,0,0,0],"sum_hessian":[3.4E1,2.6E1,8E0,9E0,1.7E1,6E0,2E0,7E0,2E0,1.4E1,3E0,1E0,5E0],"tree_param":{"num_deleted":"0","num_feature":"5","num_nodes":"13","size_leaf_vector":"1"}},{"base_weights":[-4.6736002E-4,7.2402973E-3,-4.1483412E-3,2.9857212E-3,1.0997253E-2,-1.1246132E-2,1.3332617E-3,6.2394876E-4,-3.432463E-4,1.5755029E-3,9.877999E-5,-2.0943845E-3,4.579892E-4,1.5295864E-3,-5.134581E-4],"categories":[],"categories_nodes":[],"categories_segments":[],"categories_sizes":[],"default_left":[0,0,0,0,0,0,0,0,0,0,0,0,0,0,0],"id":35,"left_children":[1,3,5,7,9,11,13,-1,-1,-1,-1,-1,-1,-1,-1],"loss_changes":[1.0514179E-3,1.589763E-4,9.876757E-4,1.675997E-4,2.7017365E-4,1.7841592E-3,1.4331567E-3,0E0,0E0,0E0,0E0,0E0,0E0,0E0,0E0],"parents":[2147483647,0,0,1,1,2,2,3,3,4,4,5,5,6,6],"right_children":[2,4,6,8,10,12,14,-1,-1,-1,-1,-1,-1,-1,-1],"split_conditions":[-3.7397332E-2,-8.239541E-3,1.2994037E-2,-1.9554103E-2,1.0270447E-1,3.3426292E-2,-2.7357787E-2,6.2394876E-4,-3.432463E-4,1.5755029E-3,9.877999E-5,-2.0943845E-3,4.579892E-4,1.5295864E-3,-5.134581E-4],"split_indices":[2,3,2,3,3,3,3,0,0,0,0,0,0,0,0],"split_type":[0,0,0,0,0,0,0,0,0,0,0,0,0,0,0],"sum_hessian":[3.5E1,1.1E1,2.4E1,6E0,5E0,1E1,1.4E1,4E0,2E0,3E0,2E0,6E0,4E0,4E0,1E1],"tree_param":{"num_deleted":"0","num_feature":"5","num_nodes":"15","size_leaf_vector":"1"}},{"base_weights":[-1.4911034E-3,2.38598E-3,-4.47348E-3,-4.0970338E-3,8.5707465E-3,-1.48332305E-2,2.8594784E-4,2.1066044E-4,-1.5138633E-3,9.670866E-4,4.3495605E-5,1.2806263E-4,-2.3210316E-3,-4.821921E-4,7.900093E-4],"categories":[],"categories_nodes":[],"categories_segments":[],"categories_sizes":[],"default_left":[0,0,0,0,0,0,0,0,0,0,0,0,0,0,0],"id":36,"left_children":[1,3,5,7,9,11,13,-1,-1,-1,-1,-1,-1,-1,-1],"loss_changes":[3.9225005E-4,6.3655357E-4,9.410647E-4,5.798757E-4,6.739632E-5,8.396467E-4,5.8258243E-4,0E0,0E0,0E0,0E0,0E0,0E0,0E0,0E0],"parents":[2147483647,0,0,1,1,2,2,3,3,4,4,5,5,6,6],"right_children":[2,4,6,8,10,12,14,-1,-1,-1,-1,-1,-1,-1,-1],"split_conditions":[-1.7514572E-2,-5.0096236E-2,1.2994037E-2,2.400854E-2,1.0270447E-1,4.957001E-3,-1.1109557E-2,2.1066044E-4,-1.5138633E-3,9.670866E-4,4.3495605E-5,1.2806263E-4,-2.3210316E-3,-4.821921E-4,7.900093E-4],"split_indices":[2,2,2,0,4,1,1,0,0,0,0,0,0,0,0],"split_type":[0,0,0,0,0,0,0,0,0,0,0,0,0,0,0],"sum_hessian":[3.2E1,1.4E1,1.8E1,7E0,7E0,5E0,1.3E1,5E0,2E0,6E0,1E0,2E0,3E0,8E0,5E0],"tree_param":{"num_deleted":"0","num_feature":"5","num_nodes":"15","size_leaf_vector":"1"}},{"base_weights":[5.451299E-4,9.268699E-3,-1.9254094E-3,-2.2270435E-3,1.8910703E-3,-3.5094095E-3,1.0039943E-2,4.4139E-5,-4.153129E-4,-7.1056484E-4,1.4633193E-4,8.862126E-5,1.2795783E-3],"categories":[],"categories_nodes":[],"categories_segments":[],"categories_sizes":[],"default_left":[0,0,0,0,0,0,0,0,0,0,0,0,0],"id":37,"left_children":[1,3,5,7,-1,9,11,-1,-1,-1,-1,-1,-1],"loss_changes":[8.7992294E-4,1.0396929E-3,6.417341E-4,2.7531307E-5,0E0,5.2900834E-4,8.956503E-5,0E0,0E0,0E0,0E0,0E0,0E0],"parents":[2147483647,0,0,1,1,2,2,3,3,5,5,6,6],"right_children":[2,4,6,8,-1,10,12,-1,-1,-1,-1,-1,-1],"split_conditions":[-4.6861522E-2,-1.1109557E-2,6.471444E-2,-4.085774E-2,1.8910703E-3,1.2994037E-2,-4.6861522E-2,4.4139E-5,-4.153129E-4,-7.1056484E-4,1.4633193E-4,8.862126E-5,1.2795783E-3],"split_indices":[4,1,3,3,0,2,1,0,0,0,0,0,0],"split_type":[0,0,0,0,0,0,0,0,0,0,0,0,0],"sum_hessian":[3.9E1,8E0,3.1E1,4E0,4E0,2.8E1,3E0,2E0,2E0,1.6E1,1.2E1,1E0,2E0],"tree_param":{"num_deleted":"0","num_feature":"5","num_nodes":"13","size_leaf_vector":"1"}},{"base_weights":[2.8837873E-3,-1.4527731E-3,3.7470101E-3,6.666022E-3,-2.8897661E-3,2.0656435E-4,1.275148E-3,2.9827288E-4,-6.1988545E-4],"categories":[],"categories_nodes":[],"categories_segments":[],"categories_sizes":[],"default_left":[0,0,0,0,0,0,0,0,0],"id":38,"left_children":[1,-1,3,5,7,-1,-1,-1,-1],"loss_changes":[6.2557636E-4,0E0,7.360579E-4,7.015406E-4,2.5168076E-4,0E0,0E0,0E0,0E0],"parents":[2147483647,0,0,2,2,3,3,4,4],"right_children":[2,-1,4,6,8,-1,-1,-1,-1],"split_conditions":[-8.591668E-2,-1.4527731E-3,2.686689E-2,-1.1109557E-2,-4.619511E-2,2.0656435E-4,1.275148E-3,2.9827288E-4,-6.1988545E-4],"split_indices":[4,0,2,2,4,0,0,0,0],"split_type":[0,0,0,0,0,0,0,0,0],"sum_hessian":[3.7E1,1E0,3.6E1,2.5E1,1.1E1,1.5E1,1E1,4E0,7E0],"tree_param":{"num_deleted":"0","num_feature":"5","num_nodes":"9","size_leaf_vector":"1"}},{"base_weights":[-4.4865656E-4,1.1502731E-2,-2.5445293E-3,1.2462627E-4,1.3304772E-2,-4.083075E-3,7.195651E-3,1.5960515E-3,1.3409015E-4,3.546064E-4,-7.521566E-4,1.877309E-5,1.1805021E-3],"categories":[],"categories_nodes":[],"categories_segments":[],"categories_sizes":[],"default_left":[0,0,0,0,0,0,0,0,0,0,0,0,0],"id":39,"left_children":[1,3,5,-1,7,9,11,-1,-1,-1,-1,-1,-1],"loss_changes":[1.0061638E-3,9.431434E-5,5.3889456E-4,0E0,1.3746333E-4,8.136537E-4,1.5929432E-4,0E0,0E0,0E0,0E0,0E0,0E0],"parents":[2147483647,0,0,1,1,2,2,4,4,5,5,6,6],"right_children":[2,4,6,-1,8,10,12,-1,-1,-1,-1,-1,-1],"split_conditions":[-5.2601766E-2,-2.1196445E-2,6.471444E-2,1.2462627E-4,2.686689E-2,-4.085774E-2,-5.0563212E-2,1.5960515E-3,1.3409015E-4,3.546064E-4,-7.521566E-4,1.877309E-5,1.1805021E-3],"split_indices":[0,2,3,0,2,3,2,0,0,0,0,0,0],"split_type":[0,0,0,0,0,0,0,0,0,0,0,0,0],"sum_hessian":[3.8E1,5E0,3.3E1,1E0,4E0,2.9E1,4E0,3E0,1E0,9E0,2E1,2E0,2E0],"tree_param":{"num_deleted":"0","num_feature":"5","num_nodes":"13","size_leaf_vector":"1"}},{"base_weights":[5.771629E-4,-3.9790054E-3,5.1012663E-3,6.8850336E-3,-8.6871E-3,1.0014097E-2,3.4510938E-3,1.1950005E-3,-9.219912E-4,-1.276752E-3,3.9507628E-5,-1.2613247E-4,1.4193013E-3,4.213188E-5,7.9255365E-4],"categories":[],"categories_nodes":[],"categories_segments":[],"categories_sizes":[],"default_left":[0,0,0,0,0,0,0,0,0,0,0,0,0,0,0],"id":40,"left_children":[1,3,5,7,9,11,13,-1,-1,-1,-1,-1,-1,-1,-1],"loss_changes":[7.417381E-4,9.804915E-4,1.1136677E-4,5.996045E-4,4.8681244E-4,2.0637808E-4,2.0000916E-4,0E0,0E0,0E0,0E0,0E0,0E0,0E0,0E0],"parents":[2147483647,0,0,1,1,2,2,3,3,4,4,5,5,6,6],"right_children":[2,4,6,8,10,12,14,-1,-1,-1,-1,-1,-1,-1,-1],"split_conditions":[-8.239541E-3,-2.7357787E-2,-5.0563212E-2,-2.7357787E-2,4.022589E-2,-1.9554103E-2,1.0593319E-2,1.1950005E-3,-9.219912E-4,-1.276752E-3,3.9507628E-5,-1.2613247E-4,1.4193013E-3,4.213188E-5,7.9255365E-4],"split_indices":[3,0,4,3,4,1,4,0,0,0,0,0,0,0,0],"split_type":[0,0,0,0,0,0,0,0,0,0,0,0,0,0,0],"sum_hessian":[3.4E1,1.7E1,1.7E1,5E0,1.2E1,3E0,1.4E1,4E0,1E0,8E0,4E0,1E0,2E0,9E0,5E0],"tree_param":{"num_deleted":"0","num_feature":"5","num_nodes":"15","size_leaf_vector":"1"}},{"base_weights":[2.994246E-4,3.5715478E-3,-3.3529026E-3,5.2887434E-4,1.0582974E-2,-1.5444156E-3,-1.7331727E-3,4.591621E-4,-1.7252652E-3,-7.104247E-5,1.640728E-3,6.0223305E-4,-6.5109314E-4],"categories":[],"categories_nodes":[],"categories_segments":[],"categories_sizes":[],"default_left":[0,0,0,0,0,0,0,0,0,0,0,0,0],"id":41,"left_children":[1,3,5,7,9,-1,11,-1,-1,-1,-1,-1,-1],"loss_changes":[4.5415707E-4,4.2107256E-4,3.2575475E-4,1.1628452E-3,4.0631334E-4,0E0,6.6912774E-4,0E0,0E0,0E0,0E0,0E0,0E0],"parents":[2147483647,0,0,1,1,2,2,3,3,4,4,6,6],"right_children":[2,4,6,8,10,-1,12,-1,-1,-1,-1,-1,-1],"split_conditions":[-8.765523E-4,-1.7514572E-2,-8.2772285E-2,-2.1196445E-2,-4.085774E-2,-1.5444156E-3,-3.7397332E-2,4.591621E-4,-1.7252652E-3,-7.104247E-5,1.640728E-3,6.0223305E-4,-6.5109314E-4],"split_indices":[0,0,2,0,2,0,2,0,0,0,0,0,0],"split_type":[0,0,0,0,0,0,0,0,0,0,0,0,0],"sum_hessian":[3.6E1,1.9E1,1.7E1,1.4E1,5E0,1E0,1.6E1,1.2E1,2E0,2E0,3E0,6E0,1E1],"tree_param":{"num_deleted":"0","num_feature":"5","num_nodes":"13","size_leaf_vector":"1"}},{"base_weights":[1.0038438E-3,2.0229768E-3,-7.909747E-3,2.2727098E-4,1.5433953E-3,3.466898E-4,-1.633953E-3,2.4943304E-4,-4.782987E-4,1.2673569E-4,-7.473221E-5],"categories":[],"categories_nodes":[],"categories_segments":[],"categories_sizes":[],"default_left":[0,0,0,0,0,0,0,0,0,0,0],"id":42,"left_children":[1,3,5,7,-1,9,-1,-1,-1,-1,-1],"loss_changes":[3.521142E-4,8.1528607E-4,2.840646E-4,3.6404547E-4,0E0,3.9687857E-6,0E0,0E0,0E0,0E0,0E0],"parents":[2147483647,0,0,1,1,2,2,3,3,5,5],"right_children":[2,4,6,8,-1,10,-1,-1,-1,-1,-1],"split_conditions":[1.0270447E-1,3.971325E-2,-5.0563212E-2,2.686689E-2,1.5433953E-3,-5.224289E-2,-1.633953E-3,2.4943304E-4,-4.782987E-4,1.2673569E-4,-7.473221E-5],"split_indices":[1,1,0,2,0,0,0,0,0,0,0],"split_type":[0,0,0,0,0,0,0,0,0,0,0],"sum_hessian":[3.6E1,3.3E1,3E0,3E1,3E0,2E0,1E0,2.1E1,9E0,1E0,1E0],"tree_param":{"num_deleted":"0","num_feature":"5","num_nodes":"11","size_leaf_vector":"1"}},{"base_weights":[9.5727784E-4,-7.410703E-4,7.631011E-3,1.0733105E-3,-1.8637856E-3,-1.2865209E-4,9.088732E-3,-3.7525655E-4,6.3167623E-4,1.0202192E-3,1.2039896E-4],"categories":[],"categories_nodes":[],"categories_segments":[],"categories_sizes":[],"default_left":[0,0,0,0,0,0,0,0,0,0,0],"id":43,"left_children":[1,3,5,-1,7,-1,9,-1,-1,-1,-1],"loss_changes":[4.476937E-4,4.322356E-4,1.15687086E-4,0E0,4.872417E-4,0E0,4.9172028E-5,0E0,0E0,0E0,0E0],"parents":[2147483647,0,0,1,1,2,2,4,4,6,6],"right_children":[2,4,6,-1,8,-1,10,-1,-1,-1,-1],"split_conditions":[3.3426292E-2,-8.4906116E-2,-5.2601766E-2,1.0733105E-3,3.3426292E-2,-1.2865209E-4,1.0270447E-1,-3.7525655E-4,6.3167623E-4,1.0202192E-3,1.2039896E-4],"split_indices":[1,2,2,0,0,0,1,0,0,0,0],"split_type":[0,0,0,0,0,0,0,0,0,0,0],"sum_hessian":[3.8E1,3.1E1,7E0,2E0,2.9E1,1E0,6E0,2.4E1,5E0,5E0,1E0],"tree_param":{"num_deleted":"0","num_feature":"5","num_nodes":"11","size_leaf_vector":"1"}},{"base_weights":[8.092385E-4,-1.3832902E-3,7.296909E-3,-2.3209686E-4,-1.5657159E-3,1.0238222E-2,1.0607126E-3,-2.4413153E-4,7.538851E-4,1.1408181E-4,1.450172E-3,1.9277204E-4,-7.701554E-5],"categories":[],"categories_nodes":[],"categories_segments":[],"categories_sizes":[],"default_left":[0,0,0,0,0,0,0,0,0,0,0,0,0],"id":44,"left_children":[1,3,5,7,-1,9,11,-1,-1,-1,-1,-1,-1],"loss_changes":[5.079479E-4,4.4002957E-4,1.5422367E-4,4.647654E-4,0E0,2.1617668E-4,7.834151E-6,0E0,0E0,0E0,0E0,0E0,0E0],"parents":[2147483647,0,0,1,1,2,2,3,3,5,5,6,6],"right_children":[2,4,6,8,-1,10,12,-1,-1,-1,-1,-1,-1],"split_conditions":[3.3426292E-2,1.113979E-1,1.695249E-2,3.3426292E-2,-1.5657159E-3,-2.7357787E-2,1.1754464E-1,-2.4413153E-4,7.538851E-4,1.1408181E-4,1.450172E-3,1.9277204E-4,-7.701554E-5],"split_indices":[1,0,2,0,0,2,1,0,0,0,0,0,0],"split_type":[0,0,0,0,0,0,0,0,0,0,0,0,0],"sum_hessian":[3.4E1,2.6E1,8E0,2.5E1,1E0,5E0,3E0,2E1,5E0,2E0,3E0,2E0,1E0],"tree_param":{"num_deleted":"0","num_feature":"5","num_nodes":"13","size_leaf_vector":"1"}},{"base_weights":[-2.7571167E-4,9.626653E-4,-1.1166083E-3,2.401138E-3,-4.5723207E-3,-1.128643E-3,4.8174858E-4,5.272697E-5,-7.865449E-4],"categories":[],"categories_nodes":[],"categories_segments":[],"categories_sizes":[],"default_left":[0,0,0,0,0,0,0,0,0],"id":45,"left_children":[1,-1,3,5,7,-1,-1,-1,-1],"loss_changes":[3.188432E-4,0E0,4.3644998E-4,6.4970285E-4,3.0643205E-4,0E0,0E0,0E0,0E0],"parents":[2147483647,0,0,2,2,3,3,4,4],"right_children":[2,-1,4,6,8,-1,-1,-1,-1],"split_conditions":[-8.4906116E-2,9.626653E-4,-8.239541E-3,-7.1584485E-2,-2.7357787E-2,-1.128643E-3,4.8174858E-4,5.272697E-5,-7.865449E-4],"split_indices":[1,0,4,1,2,0,0,0,0],"split_type":[0,0,0,0,0,0,0,0,0],"sum_hessian":[3.6E1,2E0,3.4E1,1.7E1,1.7E1,2E0,1.5E1,7E0,1E1],"tree_param":{"num_deleted":"0","num_feature":"5","num_nodes":"9","size_leaf_vector":"1"}},{"base_weights":[3.9283466E-4,-1.971037E-3,6.9723916E-3,-4.282664E-3,5.575653E-3,9.28502E-3,-1.5187477E-4,2.3327964E-4,-9.0420444E-4,8.131809E-4,-5.431573E-5,1.0381014E-3,8.0653095E-5],"categories":[],"categories_nodes":[],"categories_segments":[],"categories_sizes":[],"default_left":[0,0,0,0,0,0,0,0,0,0,0,0,0],"id":46,"left_children":[1,3,5,7,9,11,-1,-1,-1,-1,-1,-1,-1],"loss_changes":[5.892123E-4,5.123423E-4,2.1047005E-4,7.13774E-4,1.1390126E-4,6.596645E-5,0E0,0E0,0E0,0E0,0E0,0E0,0E0],"parents":[2147483647,0,0,1,1,2,2,3,3,4,4,5,5],"right_children":[2,4,6,8,10,12,-1,-1,-1,-1,-1,-1,-1],"split_conditions":[3.3426292E-2,3.3426292E-2,1.7704714E-2,-2.1196445E-2,1.0270447E-1,1.0270447E-1,-1.5187477E-4,2.3327964E-4,-9.0420444E-4,8.131809E-4,-5.431573E-5,1.0381014E-3,8.0653095E-5],"split_indices":[1,3,3,0,3,1,0,0,0,0,0,0,0],"split_type":[0,0,0,0,0,0,0,0,0,0,0,0,0],"sum_hessian":[3.6E1,2.7E1,9E0,2.1E1,6E0,7E0,2E0,9E0,1.2E1,4E0,2E0,6E0,1E0],"tree_param":{"num_deleted":"0","num_feature":"5","num_nodes":"13","size_leaf_vector":"1"}},{"base_weights":[2.7675314E-3,9.198582E-3,-3.070891E-4,-1.01458745E-5,1.1068735E-2,5.202723E-3,-3.0449347E-3,1.2179164E-3,5.3744334E-5,7.613245E-5,1.0564141E-3,-9.929802E-4,1.2249823E-4],"categories":[],"categories_nodes":[],"categories_segments":[],"categories_sizes":[],"default_left":[0,0,0,0,0,0,0,0,0,0,0,0,0],"id":47,"left_children":[1,3,5,-1,7,9,11,-1,-1,-1,-1,-1,-1],"loss_changes":[7.344273E-4,2.0983303E-4,4.0805235E-4,0E0,1.1039665E-4,2.0626701E-4,5.413245E-4,0E0,0E0,0E0,0E0,0E0,0E0],"parents":[2147483647,0,0,1,1,2,2,4,4,5,5,6,6],"right_children":[2,4,6,-1,8,10,12,-1,-1,-1,-1,-1,-1],"split_conditions":[-2.7357787E-2,-6.0177397E-2,-3.7397332E-2,-1.01458745E-5,3.971325E-2,-5.0563212E-2,-8.239541E-3,1.2179164E-3,5.3744334E-5,7.613245E-5,1.0564141E-3,-9.929802E-4,1.2249823E-4],"split_indices":[3,4,2,0,2,2,2,0,0,0,0,0,0],"split_type":[0,0,0,0,0,0,0,0,0,0,0,0,0],"sum_hessian":[3.6E1,1.1E1,2.5E1,2E0,9E0,8E0,1.7E1,8E0,1E0,5E0,3E0,6E0,1.1E1],"tree_param":{"num_deleted":"0","num_feature":"5","num_nodes":"13","size_leaf_vector":"1"}},{"base_weights":[1.2521624E-3,2.4593228E-3,-8.114582E-3,5.978749E-3,-1.989932E-3,-1.6858615E-4,-1.5976283E-3,1.8040508E-4,1.0449778E-3,-6.270775E-4,4.762987E-4,7.049553E-5,-9.5783456E-5],"categories":[],"categories_nodes":[],"categories_segments":[],"categories_sizes":[],"default_left":[0,0,0,0,0,0,0,0,0,0,0,0,0],"id":48,"left_children":[1,3,5,7,9,11,-1,-1,-1,-1,-1,-1,-1],"loss_changes":[3.9309272E-4,4.8166205E-4,2.4718282E-4,2.984564E-4,4.3458224E-4,2.7435542E-6,0E0,0E0,0E0,0E0,0E0,0E0,0E0],"parents":[2147483647,0,0,1,1,2,2,3,3,4,4,5,5],"right_children":[2,4,6,8,10,12,-1,-1,-1,-1,-1,-1,-1],"split_conditions":[1.0270447E-1,-8.765523E-4,-5.0563212E-2,-1.1109557E-2,4.022589E-2,-5.224289E-2,-1.5976283E-3,1.8040508E-4,1.0449778E-3,-6.270775E-4,4.762987E-4,7.049553E-5,-9.5783456E-5],"split_indices":[1,4,0,1,4,0,0,0,0,0,0,0,0],"split_type":[0,0,0,0,0,0,0,0,0,0,0,0,0],"sum_hessian":[3.2E1,2.9E1,3E0,1.6E1,1.3E1,2E0,1E0,9E0,7E0,8E0,5E0,1E0,1E0],"tree_param":{"num_deleted":"0","num_feature":"5","num_nodes":"13","size_leaf_vector":"1"}},{"base_weights":[-8.211588E-5,-3.5442214E-3,3.7487436E-3,-1.504614E-2,9.905121E-4,1.0751971E-2,-1.2324699E-3,-2.46674E-4,-2.0719157E-3,-9.611776E-5,5.476465E-4,1.3307881E-3,2.0561603E-4,2.0923224E-4,-3.1564065E-4],"categories":[],"categories_nodes":[],"categories_segments":[],"categories_sizes":[],"default_left":[0,0,0,0,0,0,0,0,0,0,0,0,0,0,0],"id":49,"left_children":[1,3,5,7,9,11,13,-1,-1,-1,-1,-1,-1,-1,-1],"loss_changes":[5.305371E-4,1.1102242E-3,6.7605835E-4,3.7707004E-4,1.4534686E-4,1.5044247E-4,8.336448E-5,0E0,0E0,0E0,0E0,0E0,0E0,0E0,0E0],"parents":[2147483647,0,0,1,1,2,2,3,3,4,4,5,5,6,6],"right_children":[2,4,6,8,10,12,14,-1,-1,-1,-1,-1,-1,-1,-1],"split_conditions":[-8.239541E-3,-2.1196445E-2,2.686689E-2,-4.085774E-2,6.471444E-2,3.428295E-2,-2.1905813E-3,-2.46674E-4,-2.0719157E-3,-9.611776E-5,5.476465E-4,1.3307881E-3,2.0561603E-4,2.0923224E-4,-3.1564065E-4],"split_indices":[2,4,2,0,3,0,3,0,0,0,0,0,0,0,0],"split_type":[0,0,0,0,0,0,0,0,0,0,0,0,0,0,0],"sum_hessian":[3.8E1,2E1,1.8E1,5E0,1.5E1,7E0,1.1E1,2E0,3E0,1.1E1,4E0,5E0,2E0,4E0,7E0],"tree_param":{"num_deleted":"0","num_feature":"5","num_nodes":"15","size_leaf_vector":"1"}},{"base_weights":[-2.576717E-4,6.2674494E-3,-1.5935004E-3,-7.6693314E-4,1.1734971E-3,-5.975734E-3,4.8141912E-4,2.2253918E-5,-1.17093696E-4,-1.6561415E-3,2.4391434E-4,1.8679055E-4,-9.846621E-4],"categories":[],"categories_nodes":[],"categories_segments":[],"categories_sizes":[],"default_left":[0,0,0,0,0,0,0,0,0,0,0,0,0],"id":50,"left_children":[1,3,5,7,-1,9,11,-1,-1,-1,-1,-1,-1],"loss_changes":[3.5864493E-4,2.7822432E-4,3.1203142E-4,1.8595817E-6,0E0,1.020245E-3,3.6206507E-4,0E0,0E0,0E0,0E0,0E0,0E0],"parents":[2147483647,0,0,1,1,2,2,3,3,5,5,6,6],"right_children":[2,4,6,8,-1,10,12,-1,-1,-1,-1,-1,-1],"split_conditions":[-5.0563212E-2,-6.0177397E-2,-2.1196445E-2,-8.2772285E-2,1.1734971E-3,1.2994037E-2,5.406722E-2,2.2253918E-5,-1.17093696E-4,-1.6561415E-3,2.4391434E-4,1.8679055E-4,-9.846621E-4],"split_indices":[4,4,4,0,0,2,0,0,0,0,0,0,0],"split_type":[0,0,0,0,0,0,0,0,0,0,0,0,0],"sum_hessian":[3.9E1,6E0,3.3E1,3E0,3E0,1E1,2.3E1,1E0,2E0,4E0,6E0,2.1E1,2E0],"tree_param":{"num_deleted":"0","num_feature":"5","num_nodes":"13","size_leaf_vector":"1"}},{"base_weights":[-1.1851436E-4,6.0930424E-3,-1.5349126E-3,-7.1394996E-4,1.0320027E-3,9.3434285E-4,-2.4773402E-3,2.114122E-5,-1.0928748E-4,-3.7208336E-4,5.230391E-4],"categories":[],"categories_nodes":[],"categories_segments":[],"categories_sizes":[],"default_left":[0,0,0,0,0,0,0,0,0,0,0],"id":51,"left_children":[1,3,5,7,-1,-1,9,-1,-1,-1,-1],"loss_changes":[3.7886988E-4,2.3755242E-4,3.819685E-4,1.6336176E-6,0E0,0E0,3.357503E-4,0E0,0E0,0E0,0E0],"parents":[2147483647,0,0,1,1,2,2,3,3,6,6],"right_children":[2,4,6,8,-1,-1,10,-1,-1,-1,-1],"split_conditions":[-4.6861522E-2,-1.1109557E-2,-8.4906116E-2,-2.9675769E-2,1.0320027E-3,9.3434285E-4,5.406722E-2,2.114122E-5,-1.0928748E-4,-3.7208336E-4,5.230391E-4],"split_indices":[4,1,2,1,0,0,4,0,0,0,0],"split_type":[0,0,0,0,0,0,0,0,0,0,0],"sum_hessian":[4.1E1,7E0,3.4E1,3E0,4E0,2E0,3.2E1,1E0,2E0,2.8E1,4E0],"tree_param":{"num_deleted":"0","num_feature":"5","num_nodes":"11","size_leaf_vector":"1"}},{"base_weights":[-6.6737726E-4,2.1585414E-5,-8.942124E-3,-1.7534059E-3,5.7386034E-3,-1.3748782E-3,3.3559463E-5,1.8775965E-4,-4.8209453E-4,1.1252266E-3,1.10639456E-4],"categories":[],"categories_nodes":[],"categories_segments":[],"categories_sizes":[],"default_left":[0,0,0,0,0,0,0,0,0,0,0],"id":52,"left_children":[1,3,5,7,9,-1,-1,-1,-1,-1,-1],"loss_changes":[2.2253173E-4,3.8552543E-4,1.3839845E-4,3.320608E-4,2.1741449E-4,0E0,0E0,0E0,0E0,0E0,0E0],"parents":[2147483647,0,0,1,1,2,2,3,3,4,4],"right_children":[2,4,6,8,10,-1,-1,-1,-1,-1,-1],"split_conditions":[1.113979E-1,3.3426292E-2,1.1754464E-1,-2.7357787E-2,3.971325E-2,-1.3748782E-3,3.3559463E-5,1.8775965E-4,-4.8209453E-4,1.1252266E-3,1.10639456E-4],"split_indices":[0,0,0,0,0,0,0,0,0,0,0],"split_type":[0,0,0,0,0,0,0,0,0,0,0],"sum_hessian":[3.8E1,3.6E1,2E0,2.8E1,8E0,1E0,1E0,1.3E1,1.5E1,3E0,5E0],"tree_param":{"num_deleted":"0","num_feature":"5","num_nodes":"11","size_leaf_vector":"1"}},{"base_weights":[9.1150025E-4,8.818644E-4,1.4172112E-4,-1.311607E-3,9.924908E-4,-9.058338E-5,4.0736576E-4],"categories":[],"categories_nodes":[],"categories_segments":[],"categories_sizes":[],"default_left":[0,0,0,0,0,0,0],"id":53,"left_children":[1,-1,3,-1,5,-1,-1],"loss_changes":[2.0569985E-4,0E0,3.73956E-4,0E0,1.8501075E-4,0E0,0E0],"parents":[2147483647,0,0,2,2,4,4],"right_children":[2,-1,4,-1,6,-1,-1],"split_conditions":[-8.4906116E-2,8.818644E-4,-8.2772285E-2,-1.311607E-3,1.7704714E-2,-9.058338E-5,4.0736576E-4],"split_indices":[2,0,2,0,0,0,0],"split_type":[0,0,0,0,0,0,0],"sum_hessian":[3.3E1,2E0,3.1E1,1E0,3E1,1.9E1,1.1E1],"tree_param":{"num_deleted":"0","num_feature":"5","num_nodes":"7","size_leaf_vector":"1"}},{"base_weights":[-3.756794E-4,5.666714E-3,-1.7279721E-3,8.902609E-3,-1.615349E-3,-3.8469927E-3,3.8792994E-3,1.5225343E-5,1.1052134E-3,-2.9698145E-4,5.467911E-5,-2.1697632E-4,-1.4305268E-3,5.8589067E-4,-2.0328835E-4],"categories":[],"categories_nodes":[],"categories_segments":[],"categories_sizes":[],"default_left":[0,0,0,0,0,0,0,0,0,0,0,0,0,0,0],"id":54,"left_children":[1,3,5,7,9,11,13,-1,-1,-1,-1,-1,-1,-1,-1],"loss_changes":[3.1212208E-4,1.7932875E-4,3.8326328E-4,9.236281E-5,1.0409499E-5,3.724023E-4,1.17244665E-4,0E0,0E0,0E0,0E0,0E0,0E0,0E0,0E0],"parents":[2147483647,0,0,1,1,2,2,3,3,4,4,5,5,6,6],"right_children":[2,4,6,8,10,12,14,-1,-1,-1,-1,-1,-1,-1,-1],"split_conditions":[-4.619511E-2,-1.3656659E-2,3.3426292E-2,-8.2772285E-2,-8.239541E-3,2.686689E-2,-8.765523E-4,1.5225343E-5,1.1052134E-3,-2.9698145E-4,5.467911E-5,-2.1697632E-4,-1.4305268E-3,5.8589067E-4,-2.0328835E-4],"split_indices":[3,0,3,0,0,3,2,0,0,0,0,0,0,0,0],"split_type":[0,0,0,0,0,0,0,0,0,0,0,0,0,0,0],"sum_hessian":[3.6E1,6E0,3E1,4E0,2E0,2.2E1,8E0,1E0,3E0,1E0,1E0,2E1,2E0,6E0,2E0],"tree_param":{"num_deleted":"0","num_feature":"5","num_nodes":"15","size_leaf_vector":"1"}},{"base_weights":[5.9048895E-4,-8.987884E-4,5.1581864E-3,7.975774E-4,-1.8882075E-3,1.0064838E-3,1.027388E-3,2.1018938E-4,-3.468871E-4,2.7043553E-4,-4.871844E-5],"categories":[],"categories_nodes":[],"categories_segments":[],"categories_sizes":[],"default_left":[0,0,0,0,0,0,0,0,0,0,0],"id":55,"left_children":[1,3,5,-1,7,-1,9,-1,-1,-1,-1],"loss_changes":[2.4952862E-4,2.6091846E-4,1.7207499E-4,0E0,1.7127336E-4,0E0,1.6556849E-5,0E0,0E0,0E0,0E0],"parents":[2147483647,0,0,1,1,2,2,4,4,6,6],"right_children":[2,4,6,-1,8,-1,10,-1,-1,-1,-1],"split_conditions":[2.686689E-2,-8.4906116E-2,3.971325E-2,7.975774E-4,-2.7357787E-2,1.0064838E-3,-4.6861522E-2,2.1018938E-4,-3.468871E-4,2.7043553E-4,-4.871844E-5],"split_indices":[0,1,0,0,3,0,3,0,0,0,0],"split_type":[0,0,0,0,0,0,0,0,0,0,0],"sum_hessian":[3.5E1,2.7E1,8E0,2E0,2.5E1,3E0,5E0,7E0,1.8E1,2E0,3E0],"tree_param":{"num_deleted":"0","num_feature":"5","num_nodes":"11","size_leaf_vector":"1"}},{"base_weights":[-1.2211774E-3,-4.6229322E-4,-1.3132178E-3,3.0833617E-4,-8.271365E-3,-8.4858584E-5,6.4940477E-4,-4.5469496E-5,-1.1952354E-3],"categories":[],"categories_nodes":[],"categories_segments":[],"categories_sizes":[],"default_left":[0,0,0,0,0,0,0,0,0],"id":56,"left_children":[1,3,-1,5,7,-1,-1,-1,-1],"loss_changes":[3.0125742E-4,2.011411E-4,0E0,2.2735869E-4,8.0884536E-5,0E0,0E0,0E0,0E0],"parents":[2147483647,0,0,1,1,3,3,4,4],"right_children":[2,4,-1,6,8,-1,-1,-1,-1],"split_conditions":[1.113979E-1,1.0270447E-1,-1.3132178E-3,3.3426292E-2,-5.0563212E-2,-8.4858584E-5,6.4940477E-4,-4.5469496E-5,-1.1952354E-3],"split_indices":[0,1,0,1,0,0,0,0,0],"split_type":[0,0,0,0,0,0,0,0,0],"sum_hessian":[3.3E1,3.2E1,1E0,3E1,2E0,2.6E1,4E0,1E0,1E0],"tree_param":{"num_deleted":"0","num_feature":"5","num_nodes":"9","size_leaf_vector":"1"}},{"base_weights":[-8.6484855E-5,4.67776E-3,-1.4668629E-3,7.98932E-3,4.3064816E-4,-3.666696E-3,2.86617E-3,8.197548E-6,9.945662E-4,-2.8839894E-4,1.980305E-4,-7.1244873E-4,8.4932326E-5,6.456295E-4,-1.20165E-4],"categories":[],"categories_nodes":[],"categories_segments":[],"categories_sizes":[],"default_left":[0,0,0,0,0,0,0,0,0,0,0,0,0,0,0],"id":57,"left_children":[1,3,5,7,9,11,13,-1,-1,-1,-1,-1,-1,-1,-1],"loss_changes":[2.633435E-4,1.2314049E-4,3.0599977E-4,7.6532044E-5,3.139393E-5,3.3397553E-4,1.6840201E-4,0E0,0E0,0E0,0E0,0E0,0E0,0E0,0E0],"parents":[2147483647,0,0,1,1,2,2,3,3,4,4,5,5,6,6],"right_children":[2,4,6,8,10,12,14,-1,-1,-1,-1,-1,-1,-1,-1],"split_conditions":[-4.619511E-2,-1.3656659E-2,3.3426292E-2,-8.2772285E-2,-8.239541E-3,1.0593319E-2,1.695249E-2,8.197548E-6,9.945662E-4,-2.8839894E-4,1.980305E-4,-7.1244873E-4,8.4932326E-5,6.456295E-4,-1.20165E-4],"split_indices":[3,0,3,0,0,2,4,0,0,0,0,0,0,0,0],"split_type":[0,0,0,0,0,0,0,0,0,0,0,0,0,0,0],"sum_hessian":[3.8E1,8E0,3E1,4E0,4E0,2E1,1E1,1E0,3E0,1E0,3E0,1.1E1,9E0,5E0,5E0],"tree_param":{"num_deleted":"0","num_feature":"5","num_nodes":"15","size_leaf_vector":"1"}},{"base_weights":[-7.823859E-4,-2.1028095E-4,-1.2119344E-3,-1.5133122E-3,5.353887E-3,4.0473766E-5,-6.1571057E-4,8.6037675E-4,-4.6935397E-6],"categories":[],"categories_nodes":[],"categories_segments":[],"categories_sizes":[],"default_left":[0,0,0,0,0,0,0,0,0],"id":58,"left_children":[1,3,-1,5,7,-1,-1,-1,-1],"loss_changes":[2.6986055E-4,3.053638E-4,0E0,3.0533096E-4,1.4082005E-4,0E0,0E0,0E0,0E0],"parents":[2147483647,0,0,1,1,3,3,4,4],"right_children":[2,4,-1,6,8,-1,-1,-1,-1],"split_conditions":[1.113979E-1,3.3426292E-2,-1.2119344E-3,1.0593319E-2,4.1038558E-2,4.0473766E-5,-6.1571057E-4,8.6037675E-4,-4.6935397E-6],"split_indices":[0,0,0,0,0,0,0,0,0],"split_type":[0,0,0,0,0,0,0,0,0],"sum_hessian":[4.1E1,4E1,1E0,3.3E1,7E0,2.4E1,9E0,4E0,3E0],"tree_param":{"num_deleted":"0","num_feature":"5","num_nodes":"9","size_leaf_vector":"1"}},{"base_weights":[-1.586761E-3,7.534284E-4,-2.3678632E-3,-4.322246E-3,2.5594418E-3,-5.8040314E-4,2.4693433E-4,5.292435E-4,-1.1018747E-3],"categories":[],"categories_nodes":[],"categories_segments":[],"categories_sizes":[],"default_left":[0,0,0,0,0,0,0,0,0],"id":59,"left_children":[1,-1,3,5,7,-1,-1,-1,-1],"loss_changes":[2.6719653E-4,0E0,3.2884724E-4,2.5586036E-4,4.2940694E-4,0E0,0E0,0E0,0E0],"parents":[2147483647,0,0,2,2,3,3,4,4],"right_children":[2,-1,4,6,8,-1,-1,-1,-1],"split_conditions":[-8.4906116E-2,7.534284E-4,3.3426292E-2,4.022589E-2,2.2392338E-2,-5.8040314E-4,2.4693433E-4,5.292435E-4,-1.1018747E-3],"split_indices":[2,0,1,4,3,0,0,0,0],"split_type":[0,0,0,0,0,0,0,0,0],"sum_hessian":[3.4E1,2E0,3.2E1,2.3E1,9E0,1.9E1,4E0,8E0,1E0],"tree_param":{"num_deleted":"0","num_feature":"5","num_nodes":"9","size_leaf_vector":"1"}},{"base_weights":[2.8399774E-4,7.4382435E-4,-3.0375185E-4,3.8509923E-3,-1.4015586E-3,-1.3182522E-5,7.8667665E-4,3.548477E-4,-3.3628658E-4],"categories":[],"categories_nodes":[],"categories_segments":[],"categories_sizes":[],"default_left":[0,0,0,0,0,0,0,0,0],"id":60,"left_children":[1,-1,3,5,7,-1,-1,-1,-1],"loss_changes":[1.6625067E-4,0E0,1.7415833E-4,1.2898979E-4,3.031892E-4,0E0,0E0,0E0,0E0],"parents":[2147483647,0,0,2,2,3,3,4,4],"right_children":[2,-1,4,6,8,-1,-1,-1,-1],"split_conditions":[-8.4906116E-2,7.4382435E-4,-4.619511E-2,-1.1109557E-2,-3.3535726E-2,-1.3182522E-5,7.8667665E-4,3.548477E-4,-3.3628658E-4],"split_indices":[1,0,4,1,3,0,0,0,0],"split_type":[0,0,0,0,0,0,0,0,0],"sum_hessian":[3.8E1,2E0,3.6E1,7E0,2.9E1,4E0,3E0,8E0,2.1E1],"tree_param":{"num_deleted":"0","num_feature":"5","num_nodes":"9","size_leaf_vector":"1"}},{"base_weights":[-7.370876E-4,-2.136572E-3,1.9146039E-3,1.4843611E-3,-7.20915E-3,9.643105E-4,-1.7707172E-4,-8.19815E-4,2.6764054E-4,2.4026477E-4,-9.6120656E-4,-4.5673177E-4,6.372522E-5],"categories":[],"categories_nodes":[],"categories_segments":[],"categories_sizes":[],"default_left":[0,0,0,0,0,0,0,0,0,0,0,0,0],"id":61,"left_children":[1,3,5,7,9,-1,11,-1,-1,-1,-1,-1,-1],"loss_changes":[1.4881973E-4,4.8825506E-4,2.2802476E-4,2.0661323E-4,2.7715415E-4,0E0,4.581152E-5,0E0,0E0,0E0,0E0,0E0,0E0],"parents":[2147483647,0,0,1,1,2,2,3,3,4,4,6,6],"right_children":[2,4,6,8,10,-1,12,-1,-1,-1,-1,-1,-1],"split_conditions":[1.2994037E-2,1.0593319E-2,1.7704714E-2,-8.591668E-2,-3.979969E-2,9.643105E-4,-8.4906116E-2,-8.19815E-4,2.6764054E-4,2.4026477E-4,-9.6120656E-4,-4.5673177E-4,6.372522E-5],"split_indices":[2,1,2,4,0,0,0,0,0,0,0,0,0],"split_type":[0,0,0,0,0,0,0,0,0,0,0,0,0],"sum_hessian":[3.8E1,2.5E1,1.3E1,1.5E1,1E1,2E0,1.1E1,1E0,1.4E1,2E0,8E0,1E0,1E1],"tree_param":{"num_deleted":"0","num_feature":"5","num_nodes":"13","size_leaf_vector":"1"}},{"base_weights":[-1.2485058E-3,6.7639333E-4,-1.9187649E-3,-3.7912037E-3,1.3975751E-3,4.2526128E-5,-7.340363E-4,6.9441437E-4,-2.937048E-4],"categories":[],"categories_nodes":[],"categories_segments":[],"categories_sizes":[],"default_left":[0,0,0,0,0,0,0,0,0],"id":62,"left_children":[1,-1,3,5,7,-1,-1,-1,-1],"loss_changes":[2.0631318E-4,0E0,2.1642642E-4,3.3234947E-4,3.3294497E-4,0E0,0E0,0E0,0E0],"parents":[2147483647,0,0,2,2,3,3,4,4],"right_children":[2,-1,4,6,8,-1,-1,-1,-1],"split_conditions":[-8.4906116E-2,6.7639333E-4,1.2994037E-2,-3.7397332E-2,2.686689E-2,4.2526128E-5,-7.340363E-4,6.9441437E-4,-2.937048E-4],"split_indices":[1,0,2,2,2,0,0,0,0],"split_type":[0,0,0,0,0,0,0,0,0],"sum_hessian":[3.5E1,2E0,3.3E1,2.1E1,1.2E1,1E1,1.1E1,5E0,7E0],"tree_param":{"num_deleted":"0","num_feature":"5","num_nodes":"9","size_leaf_vector":"1"}},{"base_weights":[-5.579947E-4,-2.3943542E-3,4.0887035E-3,6.2477076E-4,-3.4174772E-3,6.065738E-3,-2.54629E-3,-7.054135E-4,5.0397077E-5,8.3331764E-4,1.7150049E-4,-3.31359E-5,-3.488076E-4],"categories":[],"categories_nodes":[],"categories_segments":[],"categories_sizes":[],"default_left":[0,0,0,0,0,0,0,0,0,0,0,0,0],"id":63,"left_children":[1,3,5,-1,7,9,11,-1,-1,-1,-1,-1,-1],"loss_changes":[2.9991206E-4,2.4239875E-4,1.4662124E-4,0E0,3.3155727E-4,6.462872E-5,5.102167E-6,0E0,0E0,0E0,0E0,0E0,0E0],"parents":[2147483647,0,0,1,1,2,2,4,4,5,5,6,6],"right_children":[2,4,6,-1,8,10,12,-1,-1,-1,-1,-1,-1],"split_conditions":[3.3426292E-2,-8.4906116E-2,3.1096192E-2,6.2477076E-4,1.0593319E-2,-1.7514572E-2,6.0232505E-3,-7.054135E-4,5.0397077E-5,8.3331764E-4,1.7150049E-4,-3.31359E-5,-3.488076E-4],"split_indices":[3,2,4,0,2,2,1,0,0,0,0,0,0],"split_type":[0,0,0,0,0,0,0,0,0,0,0,0,0],"sum_hessian":[3.3E1,2.4E1,9E0,2E0,2.2E1,7E0,2E0,1.1E1,1.1E1,4E0,3E0,1E0,1E0],"tree_param":{"num_deleted":"0","num_feature":"5","num_nodes":"13","size_leaf_vector":"1"}},{"base_weights":[8.994273E-4,1.525897E-3,-1.0200272E-3,3.0237667E-3,-1.4721781E-3,-8.536508E-5,5.148633E-4,8.841455E-5,-4.94786E-4],"categories":[],"categories_nodes":[],"categories_segments":[],"categories_sizes":[],"default_left":[0,0,0,0,0,0,0,0,0],"id":64,"left_children":[1,3,-1,5,7,-1,-1,-1,-1],"loss_changes":[2.5894147E-4,1.5713621E-4,0E0,1.9389197E-4,1.0265261E-4,0E0,0E0,0E0,0E0],"parents":[2147483647,0,0,1,1,3,3,4,4],"right_children":[2,4,-1,6,8,-1,-1,-1,-1],"split_conditions":[1.113979E-1,2.686689E-2,-1.0200272E-3,-2.1196445E-2,1.0593319E-2,-8.536508E-5,5.148633E-4,8.841455E-5,-4.94786E-4],"split_indices":[0,2,0,4,4,0,0,0,0],"split_type":[0,0,0,0,0,0,0,0,0],"sum_hessian":[3.4E1,3.3E1,1E0,2.2E1,1.1E1,8E0,1.4E1,7E0,4E0],"tree_param":{"num_deleted":"0","num_feature":"5","num_nodes":"9","size_leaf_vector":"1"}},{"base_weights":[6.511976E-4,7.6162764E-3,-3.922316E-4,9.830199E-5,9.0288353E-4,2.6952731E-3,-2.4318905E-3,5.528273E-4,-1.2051083E-5,-5.005771E-4,1.556147E-4],"categories":[],"categories_nodes":[],"categories_segments":[],"categories_sizes":[],"default_left":[0,0,0,0,0,0,0,0,0,0,0],"id":65,"left_children":[1,3,5,-1,-1,7,9,-1,-1,-1,-1],"loss_changes":[2.791549E-4,3.7973805E-5,2.2066812E-4,0E0,0E0,1.1234583E-4,2.2334907E-4,0E0,0E0,0E0,0E0],"parents":[2147483647,0,0,1,1,2,2,5,5,6,6],"right_children":[2,4,6,-1,-1,8,10,-1,-1,-1,-1],"split_conditions":[-5.0563212E-2,-8.2772285E-2,-2.1196445E-2,9.830199E-5,9.0288353E-4,-2.1905813E-3,3.3426292E-2,5.528273E-4,-1.2051083E-5,-5.005771E-4,1.556147E-4],"split_indices":[4,0,1,0,0,0,1,0,0,0,0],"split_type":[0,0,0,0,0,0,0,0,0,0,0],"sum_hessian":[3.7E1,4E0,3.3E1,1E0,3E0,1.3E1,2E1,6E0,7E0,1.2E1,8E0],"tree_param":{"num_deleted":"0","num_feature":"5","num_nodes":"11","size_leaf_vector":"1"}},{"base_weights":[-8.971077E-5,-1.8847045E-3,4.4067446E-3,-3.4204924E-3,3.548706E-3,6.516389E-3,-3.8681924E-4,-1.0296026E-3,-4.42246E-5,5.5311964E-4,1.174662E-4,9.731523E-4,1.6721578E-4,2.8691106E-4,-2.4284993E-4],"categories":[],"categories_nodes":[],"categories_segments":[],"categories_sizes":[],"default_left":[0,0,0,0,0,0,0,0,0,0,0,0,0,0,0],"id":66,"left_children":[1,3,5,7,9,11,13,-1,-1,-1,-1,-1,-1,-1,-1],"loss_changes":[2.827231E-4,2.2075247E-4,1.0364782E-4,4.0498728E-4,2.1741827E-5,9.275132E-5,3.3557902E-5,0E0,0E0,0E0,0E0,0E0,0E0,0E0,0E0],"parents":[2147483647,0,0,1,1,2,2,3,3,4,4,5,5,6,6],"right_children":[2,4,6,8,10,12,14,-1,-1,-1,-1,-1,-1,-1,-1],"split_conditions":[2.8610535E-2,3.3426292E-2,-8.765523E-4,-1.1109557E-2,-1.7514572E-2,6.471444E-2,-2.7357787E-2,-1.0296026E-3,-4.42246E-5,5.5311964E-4,1.174662E-4,9.731523E-4,1.6721578E-4,2.8691106E-4,-2.4284993E-4],"split_indices":[4,3,3,2,2,4,1,0,0,0,0,0,0,0,0],"split_type":[0,0,0,0,0,0,0,0,0,0,0,0,0,0,0],"sum_hessian":[3.3E1,2.4E1,9E0,1.9E1,5E0,6E0,3E0,5E0,1.4E1,2E0,3E0,3E0,3E0,1E0,2E0],"tree_param":{"num_deleted":"0","num_feature":"5","num_nodes":"15","size_leaf_vector":"1"}},{"base_weights":[-1.3863196E-4,1.6586661E-3,-1.9293285E-3,-4.812234E-4,7.0885937E-3,-3.211221E-3,4.3215198E-3,1.7952498E-4,-1.0944357E-3,-2.3396211E-4,9.442161E-4,-7.606275E-5,-1.1598142E-3,6.30771E-4,1.5568864E-4],"categories":[],"categories_nodes":[],"categories_segments":[],"categories_sizes":[],"default_left":[0,0,0,0,0,0,0,0,0,0,0,0,0,0,0],"id":67,"left_children":[1,3,5,7,9,11,13,-1,-1,-1,-1,-1,-1,-1,-1],"loss_changes":[1.3515515E-4,2.4741952E-4,1.8214858E-4,4.0075253E-4,1.552307E-4,3.6113092E-4,1.2143966E-5,0E0,0E0,0E0,0E0,0E0,0E0,0E0,0E0],"parents":[2147483647,0,0,1,1,2,2,3,3,4,4,5,5,6,6],"right_children":[2,4,6,8,10,12,14,-1,-1,-1,-1,-1,-1,-1,-1],"split_conditions":[-8.765523E-4,-1.7514572E-2,1.8779894E-2,-2.1196445E-2,-5.0096236E-2,1.0593319E-2,3.7740327E-2,1.7952498E-4,-1.0944357E-3,-2.3396211E-4,9.442161E-4,-7.606275E-5,-1.1598142E-3,6.30771E-4,1.5568864E-4],"split_indices":[0,0,1,0,2,1,0,0,0,0,0,0,0,0,0],"split_type":[0,0,0,0,0,0,0,0,0,0,0,0,0,0,0],"sum_hessian":[4E1,2E1,2E1,1.5E1,5E0,1.7E1,3E0,1.3E1,2E0,1E0,4E0,1.4E1,3E0,1E0,2E0],"tree_param":{"num_deleted":"0","num_feature":"5","num_nodes":"15","size_leaf_vector":"1"}},{"base_weights":[-2.068597E-4,3.2780066E-3,-1.5215724E-3,7.849936E-4,7.444531E-4,-3.0150986E-3,2.1323857E-3,-1.8437477E-4,2.730988E-4,-1.0182925E-4,-9.20122E-4,6.233647E-4,-4.5526028E-4],"categories":[],"categories_nodes":[],"categories_segments":[],"categories_sizes":[],"default_left":[0,0,0,0,0,0,0,0,0,0,0,0,0],"id":68,"left_children":[1,3,5,7,-1,9,11,-1,-1,-1,-1,-1,-1],"loss_changes":[1.8367005E-4,1.0841528E-4,1.6469056E-4,4.5959376E-5,0E0,2.5003264E-4,2.751313E-4,0E0,0E0,0E0,0E0,0E0,0E0],"parents":[2147483647,0,0,1,1,2,2,3,3,5,5,6,6],"right_children":[2,4,6,8,-1,10,12,-1,-1,-1,-1,-1,-1],"split_conditions":[-3.7397332E-2,-4.619511E-2,3.3426292E-2,-8.239541E-3,7.444531E-4,-8.239541E-3,5.406722E-2,-1.8437477E-4,2.730988E-4,-1.0182925E-4,-9.20122E-4,6.233647E-4,-4.5526028E-4],"split_indices":[2,2,1,3,0,1,1,0,0,0,0,0,0],"split_type":[0,0,0,0,0,0,0,0,0,0,0,0,0],"sum_hessian":[3.8E1,1E1,2.8E1,7E0,3E0,2E1,8E0,3E0,4E0,1.6E1,4E0,5E0,3E0],"tree_param":{"num_deleted":"0","num_feature":"5","num_nodes":"13","size_leaf_vector":"1"}},{"base_weights":[-3.0524925E-6,-6.876899E-4,5.988288E-3,1.2000806E-3,-3.6050659E-3,7.4045785E-4,8.697091E-5,-8.3999585E-5,5.6916726E-4,-1.09555505E-4,-7.903075E-4],"categories":[],"categories_nodes":[],"categories_segments":[],"categories_sizes":[],"default_left":[0,0,0,0,0,0,0,0,0,0,0],"id":69,"left_children":[1,3,5,7,9,-1,-1,-1,-1,-1,-1],"loss_changes":[1.5999014E-4,1.9708315E-4,2.2557739E-5,2.0637119E-4,1.4234435E-4,0E0,0E0,0E0,0E0,0E0,0E0],"parents":[2147483647,0,0,1,1,2,2,3,3,4,4],"right_children":[2,4,6,8,10,-1,-1,-1,-1,-1,-1],"split_conditions":[5.406722E-2,1.0593319E-2,4.1038558E-2,-1.7514572E-2,1.0593319E-2,7.4045785E-4,8.697091E-5,-8.3999585E-5,5.6916726E-4,-1.09555505E-4,-7.903075E-4],"split_indices":[4,0,0,0,1,0,0,0,0,0,0],"split_type":[0,0,0,0,0,0,0,0,0,0,0],"sum_hessian":[3.7E1,3.4E1,3E0,2.1E1,1.3E1,2E0,1E0,1.5E1,6E0,9E0,4E0],"tree_param":{"num_deleted":"0","num_feature":"5","num_nodes":"11","size_leaf_vector":"1"}},{"base_weights":[1.0050801E-3,-3.155649E-4,5.148816E-3,-1.3680328E-3,5.0098873E-3,6.7648645E-3,1.437539E-3,3.5588918E-4,-3.1112137E-4,-3.4227516E-5,8.692088E-4,8.351281E-4,-5.836105E-5,-2.3142667E-5,2.0710033E-4],"categories":[],"categories_nodes":[],"categories_segments":[],"categories_sizes":[],"default_left":[0,0,0,0,0,0,0,0,0,0,0,0,0,0,0],"id":70,"left_children":[1,3,5,7,9,11,13,-1,-1,-1,-1,-1,-1,-1,-1],"loss_changes":[2.0410372E-4,1.6939484E-4,4.4253684E-5,2.2578548E-4,1.0151374E-4,7.482036E-5,4.708204E-6,0E0,0E0,0E0,0E0,0E0,0E0,0E0,0E0],"parents":[2147483647,0,0,1,1,2,2,3,3,4,4,5,5,6,6],"right_children":[2,4,6,8,10,12,14,-1,-1,-1,-1,-1,-1,-1,-1],"split_conditions":[2.8610535E-2,3.971325E-2,6.471444E-2,-4.619511E-2,-4.6861522E-2,1.0270447E-1,-2.1905813E-3,3.5588918E-4,-3.1112137E-4,-3.4227516E-5,8.692088E-4,8.351281E-4,-5.836105E-5,-2.3142667E-5,2.0710033E-4],"split_indices":[4,3,4,3,1,3,1,0,0,0,0,0,0,0,0],"split_type":[0,0,0,0,0,0,0,0,0,0,0,0,0,0,0],"sum_hessian":[3.6E1,2.8E1,8E0,2.4E1,4E0,5E0,3E0,6E0,1.8E1,2E0,2E0,4E0,1E0,1E0,2E0],"tree_param":{"num_deleted":"0","num_feature":"5","num_nodes":"15","size_leaf_vector":"1"}},{"base_weights":[1.9603437E-4,-3.0851709E-3,1.064488E-3,7.3204155E-4,-7.085394E-4,5.598473E-3,-3.0227806E-4,3.2945862E-4,-7.3224124E-5,7.25883E-4,-2.1818327E-4,-1.2247848E-4,6.563531E-4],"categories":[],"categories_nodes":[],"categories_segments":[],"categories_sizes":[],"default_left":[0,0,0,0,0,0,0,0,0,0,0,0,0],"id":71,"left_children":[1,3,5,7,-1,9,11,-1,-1,-1,-1,-1,-1],"loss_changes":[1.0871838E-4,1.273444E-4,1.8759919E-4,2.117388E-5,0E0,1.0626414E-4,1.6004902E-4,0E0,0E0,0E0,0E0,0E0,0E0],"parents":[2147483647,0,0,1,1,2,2,3,3,5,5,6,6],"right_children":[2,4,6,8,-1,10,12,-1,-1,-1,-1,-1,-1],"split_conditions":[-5.0096236E-2,6.0232505E-3,-1.7514572E-2,-8.591668E-2,-7.085394E-4,3.3426292E-2,5.406722E-2,3.2945862E-4,-7.3224124E-5,7.25883E-4,-2.1818327E-4,-1.2247848E-4,6.563531E-4],"split_indices":[2,1,2,2,0,4,4,0,0,0,0,0,0],"split_type":[0,0,0,0,0,0,0,0,0,0,0,0,0],"sum_hessian":[3.6E1,7E0,2.9E1,4E0,3E0,6E0,2.3E1,1E0,3E0,5E0,1E0,2.1E1,2E0],"tree_param":{"num_deleted":"0","num_feature":"5","num_nodes":"13","size_leaf_vector":"1"}},{"base_weights":[2.51507E-4,5.438928E-3,-6.9928187E-4,9.109363E-5,6.162339E-4,-3.7509273E-3,1.2231312E-3,-7.4639806E-4,4.9797232E-5,2.1690626E-4,-8.847749E-4],"categories":[],"categories_nodes":[],"categories_segments":[],"categories_sizes":[],"default_left":[0,0,0,0,0,0,0,0,0,0,0],"id":72,"left_children":[1,3,5,-1,-1,7,9,-1,-1,-1,-1],"loss_changes":[1.9122475E-4,1.4040095E-5,1.9818313E-4,0E0,0E0,2.0880996E-4,2.1924493E-4,0E0,0E0,0E0,0E0],"parents":[2147483647,0,0,1,1,2,2,5,5,6,6],"right_children":[2,4,6,-1,-1,8,10,-1,-1,-1,-1],"split_conditions":[-5.2601766E-2,-2.1196445E-2,-2.1196445E-2,9.109363E-5,6.162339E-4,1.2994037E-2,1.0270447E-1,-7.4639806E-4,4.9797232E-5,2.1690626E-4,-8.847749E-4],"split_indices":[0,2,4,0,0,2,0,0,0,0,0],"split_type":[0,0,0,0,0,0,0,0,0,0,0],"sum_hessian":[3.7E1,5E0,3.2E1,1E0,4E0,1.2E1,2E1,6E0,6E0,1.9E1,1E0],"tree_param":{"num_deleted":"0","num_feature":"5","num_nodes":"11","size_leaf_vector":"1"}},{"base_weights":[-2.3429729E-4,-1.078882E-3,2.7510363E-3,4.4643265E-4,-1.6769875E-3,7.231935E-4,1.0777743E-3,1.15145685E-5,-4.555915E-4,-2.160552E-5,2.1021604E-4],"categories":[],"categories_nodes":[],"categories_segments":[],"categories_sizes":[],"default_left":[0,0,0,0,0,0,0,0,0,0,0],"id":73,"left_children":[1,3,5,-1,7,-1,9,-1,-1,-1,-1],"loss_changes":[9.121589E-5,1.0031847E-4,5.2187337E-5,0E0,1.3466956E-4,0E0,9.731849E-6,0E0,0E0,0E0,0E0],"parents":[2147483647,0,0,1,1,2,2,4,4,6,6],"right_children":[2,4,6,-1,8,-1,10,-1,-1,-1,-1],"split_conditions":[3.1096192E-2,-8.4906116E-2,3.428295E-2,4.4643265E-4,1.0593319E-2,7.231935E-4,-2.1905813E-3,1.15145685E-5,-4.555915E-4,-2.160552E-5,2.1021604E-4],"split_indices":[0,1,0,0,4,0,1,0,0,0,0],"split_type":[0,0,0,0,0,0,0,0,0,0,0],"sum_hessian":[3.4E1,2.7E1,7E0,2E0,2.5E1,1E0,6E0,1.6E1,9E0,3E0,3E0],"tree_param":{"num_deleted":"0","num_feature":"5","num_nodes":"11","size_leaf_vector":"1"}},{"base_weights":[1.2752024E-3,1.8850737E-3,-8.510469E-4,-3.0961302E-3,2.5532122E-3,1.5262682E-4,-8.481663E-4,3.532255E-4,-7.4866046E-5],"categories":[],"categories_nodes":[],"categories_segments":[],"categories_sizes":[],"default_left":[0,0,0,0,0,0,0,0,0],"id":74,"left_children":[1,3,-1,5,7,-1,-1,-1,-1],"loss_changes":[2.0105085E-4,1.0774912E-4,0E0,1.1252159E-4,8.992666E-5,0E0,0E0,0E0,0E0],"parents":[2147483647,0,0,1,1,3,3,4,4],"right_children":[2,4,-1,6,8,-1,-1,-1,-1],"split_conditions":[1.113979E-1,-6.0177397E-2,-8.510469E-4,3.1096192E-2,2.686689E-2,1.5262682E-4,-8.481663E-4,3.532255E-4,-7.4866046E-5],"split_indices":[0,2,0,0,2,0,0,0,0],"split_type":[0,0,0,0,0,0,0,0,0],"sum_hessian":[3E1,2.9E1,1E0,3E0,2.6E1,2E0,1E0,2E1,6E0],"tree_param":{"num_deleted":"0","num_feature":"5","num_nodes":"9","size_leaf_vector":"1"}},{"base_weights":[2.0716795E-4,4.7078356E-3,-5.7029416E-4,6.830195E-5,5.3761946E-4,-2.1351753E-3,1.9295402E-3,-7.066884E-4,1.5589552E-5,6.978199E-4,5.0658047E-5],"categories":[],"categories_nodes":[],"categories_segments":[],"categories_sizes":[],"default_left":[0,0,0,0,0,0,0,0,0,0,0],"id":75,"left_children":[1,3,5,-1,-1,7,9,-1,-1,-1,-1],"loss_changes":[1.4264877E-4,1.24680955E-5,1.4103793E-4,0E0,0E0,2.4967734E-4,9.704151E-5,0E0,0E0,0E0,0E0],"parents":[2147483647,0,0,1,1,2,2,5,5,6,6],"right_children":[2,4,6,-1,-1,8,10,-1,-1,-1,-1],"split_conditions":[-5.2601766E-2,-2.1196445E-2,1.2994037E-2,6.830195E-5,5.3761946E-4,-2.1196445E-2,1.7704714E-2,-7.066884E-4,1.5589552E-5,6.978199E-4,5.0658047E-5],"split_indices":[0,2,2,0,0,4,2,0,0,0,0],"split_type":[0,0,0,0,0,0,0,0,0,0,0],"sum_hessian":[3.9E1,5E0,3.4E1,1E0,4E0,2.1E1,1.3E1,6E0,1.5E1,2E0,1.1E1],"tree_param":{"num_deleted":"0","num_feature":"5","num_nodes":"11","size_leaf_vector":"1"}},{"base_weights":[-1.528115E-3,2.103261E-3,-3.6044684E-3,4.522307E-3,-6.1625056E-4,-5.8963937E-3,3.6124524E-4,6.488685E-5,5.059735E-4,2.4223495E-4,-1.5264089E-4,-8.231885E-4,-1.4104253E-4,3.953358E-4,-2.0937042E-4],"categories":[],"categories_nodes":[],"categories_segments":[],"categories_sizes":[],"default_left":[0,0,0,0,0,0,0,0,0,0,0,0,0,0,0],"id":76,"left_children":[1,3,5,7,9,11,13,-1,-1,-1,-1,-1,-1,-1,-1],"loss_changes":[2.6394182E-4,8.830898E-5,2.0209068E-4,1.1288765E-5,2.3056746E-5,1.3506666E-4,8.764326E-5,0E0,0E0,0E0,0E0,0E0,0E0,0E0,0E0],"parents":[2147483647,0,0,1,1,2,2,3,3,4,4,5,5,6,6],"right_children":[2,4,6,8,10,12,14,-1,-1,-1,-1,-1,-1,-1,-1],"split_conditions":[-2.1196445E-2,-8.765523E-4,3.3426292E-2,-8.2772285E-2,-8.591668E-2,3.3426292E-2,4.1038558E-2,6.488685E-5,5.059735E-4,2.4223495E-4,-1.5264089E-4,-8.231885E-4,-1.4104253E-4,3.953358E-4,-2.0937042E-4],"split_indices":[0,3,0,0,0,3,0,0,0,0,0,0,0,0,0],"split_type":[0,0,0,0,0,0,0,0,0,0,0,0,0,0,0],"sum_hessian":[3.3E1,1.2E1,2.1E1,6E0,6E0,1.3E1,8E0,1E0,5E0,1E0,5E0,8E0,5E0,3E0,5E0],"tree_param":{"num_deleted":"0","num_feature":"5","num_nodes":"15","size_leaf_vector":"1"}},{"base_weights":[-5.7780114E-4,-1.500703E-4,-7.988056E-4,-1.0159119E-3,3.0073645E-3,-7.920156E-6,-5.496281E-4,7.1908376E-4,4.1440053E-5],"categories":[],"categories_nodes":[],"categories_segments":[],"categories_sizes":[],"default_left":[0,0,0,0,0,0,0,0,0],"id":77,"left_children":[1,3,-1,5,7,-1,-1,-1,-1],"loss_changes":[1.1607624E-4,1.014734E-4,0E0,1.2127214E-4,8.380087E-5,0E0,0E0,0E0,0E0],"parents":[2147483647,0,0,1,1,3,3,4,4],"right_children":[2,4,-1,6,8,-1,-1,-1,-1],"split_conditions":[1.113979E-1,3.3426292E-2,-7.988056E-4,1.7704714E-2,3.7740327E-2,-7.920156E-6,-5.496281E-4,7.1908376E-4,4.1440053E-5],"split_indices":[0,0,0,0,0,0,0,0,0],"split_type":[0,0,0,0,0,0,0,0,0],"sum_hessian":[3.6E1,3.5E1,1E0,2.8E1,7E0,2.4E1,4E0,2E0,5E0],"tree_param":{"num_deleted":"0","num_feature":"5","num_nodes":"9","size_leaf_vector":"1"}},{"base_weights":[-3.9820184E-4,1.0241113E-3,-2.7745622E-3,-6.000041E-4,5.4550865E-3,-5.1205354E-3,8.158288E-4,9.9077646E-5,-8.353906E-4,-2.6663454E-5,8.382606E-4,-7.433561E-4,-9.491192E-5,-3.7038515E-6,2.5400828E-4],"categories":[],"categories_nodes":[],"categories_segments":[],"categories_sizes":[],"default_left":[0,0,0,0,0,0,0,0,0,0,0,0,0,0,0],"id":78,"left_children":[1,3,5,7,9,11,13,-1,-1,-1,-1,-1,-1,-1,-1],"loss_changes":[1.1775904E-4,1.615942E-4,1.1367597E-4,2.1796771E-4,1.02737744E-4,7.013341E-5,8.917439E-6,0E0,0E0,0E0,0E0,0E0,0E0,0E0,0E0],"parents":[2147483647,0,0,1,1,2,2,3,3,4,4,5,5,6,6],"right_children":[2,4,6,8,10,12,14,-1,-1,-1,-1,-1,-1,-1,-1],"split_conditions":[-8.765523E-4,-1.7514572E-2,3.3426292E-2,-2.1196445E-2,-5.224289E-2,1.2994037E-2,1.113979E-1,9.9077646E-5,-8.353906E-4,-2.6663454E-5,8.382606E-4,-7.433561E-4,-9.491192E-5,-3.7038515E-6,2.5400828E-4],"split_indices":[0,0,0,0,3,4,0,0,0,0,0,0,0,0,0],"split_type":[0,0,0,0,0,0,0,0,0,0,0,0,0,0,0],"sum_hessian":[3.3E1,2.1E1,1.2E1,1.6E1,5E0,7E0,5E0,1.4E1,2E0,2E0,3E0,4E0,3E0,4E0,1E0],"tree_param":{"num_deleted":"0","num_feature":"5","num_nodes":"15","size_leaf_vector":"1"}},{"base_weights":[5.8616814E-4,-4.9449276E-4,2.49228E-3,5.221509E-4,-8.801692E-4,5.2801496E-3,5.7032995E-4,-4.6105033E-5,5.79922E-4,6.35905E-4,-5.7175757E-6,-5.6530444E-5,1.1377882E-4],"categories":[],"categories_nodes":[],"categories_segments":[],"categories_sizes":[],"default_left":[0,0,0,0,0,0,0,0,0,0,0,0,0],"id":79,"left_children":[1,3,5,7,-1,9,11,-1,-1,-1,-1,-1,-1],"loss_changes":[8.568669E-5,2.3262331E-4,7.7360775E-5,1.3238424E-4,0E0,3.4914236E-5,7.087448E-6,0E0,0E0,0E0,0E0,0E0,0E0],"parents":[2147483647,0,0,1,1,2,2,3,3,5,5,6,6],"right_children":[2,4,6,8,-1,10,12,-1,-1,-1,-1,-1,-1],"split_conditions":[1.2994037E-2,6.0232505E-3,2.686689E-2,-8.239541E-3,-8.801692E-4,3.7740327E-2,3.7740327E-2,-4.6105033E-5,5.79922E-4,6.35905E-4,-5.7175757E-6,-5.6530444E-5,1.1377882E-4],"split_indices":[2,2,2,2,0,1,2,0,0,0,0,0,0],"split_type":[0,0,0,0,0,0,0,0,0,0,0,0,0],"sum_hessian":[4E1,2.6E1,1.4E1,2.4E1,2E0,5E0,9E0,2.1E1,3E0,4E0,1E0,3E0,6E0],"tree_param":{"num_deleted":"0","num_feature":"5","num_nodes":"13","size_leaf_vector":"1"}},{"base_weights":[1.0319995E-3,-5.671669E-4,1.3855805E-3,2.941191E-3,-4.3454752E-4,5.3282663E-5,5.055436E-4,4.477398E-5,-7.275572E-4],"categories":[],"categories_nodes":[],"categories_segments":[],"categories_sizes":[],"default_left":[0,0,0,0,0,0,0,0,0],"id":80,"left_children":[1,-1,3,5,7,-1,-1,-1,-1],"loss_changes":[9.3189E-5,0E0,1.00377445E-4,9.4051895E-5,1.0586529E-4,0E0,0E0,0E0,0E0],"parents":[2147483647,0,0,2,2,3,3,4,4],"right_children":[2,-1,4,6,8,-1,-1,-1,-1],"split_conditions":[-8.591668E-2,-5.671669E-4,-8.765523E-4,-1.7514572E-2,1.0270447E-1,5.3282663E-5,5.055436E-4,4.477398E-5,-7.275572E-4],"split_indices":[4,0,4,0,0,0,0,0,0],"split_type":[0,0,0,0,0,0,0,0,0],"sum_hessian":[3.5E1,1E0,3.4E1,1.8E1,1.6E1,9E0,9E0,1.5E1,1E0],"tree_param":{"num_deleted":"0","num_feature":"5","num_nodes":"9","size_leaf_vector":"1"}},{"base_weights":[7.173469E-5,3.0914166E-3,-7.7979255E-4,4.784958E-3,-2.2174977E-4,-6.338551E-4,-1.9792357E-4,5.6725763E-5,5.5150467E-4,-1.8854765E-4,9.61318E-5,4.2183299E-4,-1.0395906E-4],"categories":[],"categories_nodes":[],"categories_segments":[],"categories_sizes":[],"default_left":[0,0,0,0,0,0,0,0,0,0,0,0,0],"id":81,"left_children":[1,3,5,7,9,-1,11,-1,-1,-1,-1,-1,-1],"loss_changes":[1.05264306E-4,5.1559924E-5,1.0224846E-4,1.5347323E-5,9.685748E-6,0E0,1.1589578E-4,0E0,0E0,0E0,0E0,0E0,0E0],"parents":[2147483647,0,0,1,1,2,2,3,3,4,4,6,6],"right_children":[2,4,6,8,10,-1,12,-1,-1,-1,-1,-1,-1],"split_conditions":[-4.619511E-2,-1.1109557E-2,-5.2601766E-2,-8.2772285E-2,-8.239541E-3,-6.338551E-4,-3.7397332E-2,5.6725763E-5,5.5150467E-4,-1.8854765E-4,9.61318E-5,4.2183299E-4,-1.0395906E-4],"split_indices":[3,0,2,0,0,0,2,0,0,0,0,0,0],"split_type":[0,0,0,0,0,0,0,0,0,0,0,0,0],"sum_hessian":[3.9E1,8E0,3.1E1,5E0,3E0,2E0,2.9E1,1E0,4E0,1E0,2E0,4E0,2.5E1],"tree_param":{"num_deleted":"0","num_feature":"5","num_nodes":"13","size_leaf_vector":"1"}},{"base_weights":[-2.6292924E-4,4.182109E-3,-1.0202486E-3,4.630143E-4,1.19498654E-4,-2.2208805E-3,2.40902E-3,5.766533E-5,-3.5648397E-4,-1.9908191E-4,4.2074366E-4],"categories":[],"categories_nodes":[],"categories_segments":[],"categories_sizes":[],"default_left":[0,0,0,0,0,0,0,0,0,0,0],"id":82,"left_children":[1,3,5,-1,-1,7,9,-1,-1,-1,-1],"loss_changes":[1.1535515E-4,1.1587035E-6,1.2475153E-4,0E0,0E0,8.477065E-5,7.167819E-5,0E0,0E0,0E0,0E0],"parents":[2147483647,0,0,1,1,2,2,5,5,6,6],"right_children":[2,4,6,-1,-1,8,10,-1,-1,-1,-1],"split_conditions":[-5.2601766E-2,2.686689E-2,3.7740327E-2,4.630143E-4,1.19498654E-4,-3.979969E-2,-5.0563212E-2,5.766533E-5,-3.5648397E-4,-1.9908191E-4,4.2074366E-4],"split_indices":[0,2,3,0,0,1,2,0,0,0,0],"split_type":[0,0,0,0,0,0,0,0,0,0,0],"sum_hessian":[3.2E1,4E0,2.8E1,3E0,1E0,2.1E1,7E0,7E0,1.4E1,2E0,5E0],"tree_param":{"num_deleted":"0","num_feature":"5","num_nodes":"11","size_leaf_vector":"1"}},{"base_weights":[3.3187197E-4,-3.9796313E-4,2.8899666E-3,-2.06081E-3,1.1904789E-3,4.337397E-3,-1.4506934E-3,-3.8264217E-4,1.5196127E-4,3.084356E-4,-1.2294093E-5,5.010542E-4,1.4926307E-5,3.9448964E-6,-2.2154891E-4],"categories":[],"categories_nodes":[],"categories_segments":[],"categories_sizes":[],"default_left":[0,0,0,0,0,0,0,0,0,0,0,0,0,0,0],"id":83,"left_children":[1,3,5,7,9,11,13,-1,-1,-1,-1,-1,-1,-1,-1],"loss_changes":[7.582959E-5,8.6976106E-5,6.283747E-5,1.06960855E-4,4.266593E-5,1.898667E-5,3.5063622E-6,0E0,0E0,0E0,0E0,0E0,0E0,0E0,0E0],"parents":[2147483647,0,0,1,1,2,2,3,3,4,4,5,5,6,6],"right_children":[2,4,6,8,10,12,14,-1,-1,-1,-1,-1,-1,-1,-1],"split_conditions":[3.3426292E-2,-1.1109557E-2,1.7704714E-2,4.022589E-2,-1.1109557E-2,5.406722E-2,-5.0563212E-2,-3.8264217E-4,1.5196127E-4,3.084356E-4,-1.2294093E-5,5.010542E-4,1.4926307E-5,3.9448964E-6,-2.2154891E-4],"split_indices":[1,3,3,4,4,1,0,0,0,0,0,0,0,0,0],"split_type":[0,0,0,0,0,0,0,0,0,0,0,0,0,0,0],"sum_hessian":[3.9E1,3.1E1,8E0,1.5E1,1.6E1,6E0,2E0,1E1,5E0,6E0,1E1,5E0,1E0,1E0,1E0],"tree_param":{"num_deleted":"0","num_feature":"5","num_nodes":"15","size_leaf_vector":"1"}},{"base_weights":[5.1110086E-4,3.483221E-3,-3.1496517E-4,2.327254E-4,6.037072E-4,-4.008816E-3,6.543652E-4,9.8648576E-5,-5.986101E-5,-7.4460055E-4,-1.1447392E-4,4.6349014E-4,-7.036405E-5],"categories":[],"categories_nodes":[],"categories_segments":[],"categories_sizes":[],"default_left":[0,0,0,0,0,0,0,0,0,0,0,0,0],"id":84,"left_children":[1,3,5,7,-1,9,11,-1,-1,-1,-1,-1,-1],"loss_changes":[1.0175896E-4,7.330657E-5,1.2078177E-4,3.7236587E-6,0E0,6.0386898E-5,1.4921228E-4,0E0,0E0,0E0,0E0,0E0,0E0],"parents":[2147483647,0,0,1,1,2,2,3,3,5,5,6,6],"right_children":[2,4,6,8,-1,10,12,-1,-1,-1,-1,-1,-1],"split_conditions":[-4.619511E-2,-1.1109557E-2,-2.1196445E-2,-6.0177397E-2,6.037072E-4,3.3426292E-2,-8.765523E-4,9.8648576E-5,-5.986101E-5,-7.4460055E-4,-1.1447392E-4,4.6349014E-4,-7.036405E-5],"split_indices":[4,1,4,0,0,1,4,0,0,0,0,0,0],"split_type":[0,0,0,0,0,0,0,0,0,0,0,0,0],"sum_hessian":[4E1,8E0,3.2E1,4E0,4E0,6E0,2.6E1,2E0,2E0,2E0,4E0,6E0,2E1],"tree_param":{"num_deleted":"0","num_feature":"5","num_nodes":"13","size_leaf_vector":"1"}},{"base_weights":[-4.3890445E-4,-9.248128E-5,-6.4550695E-4,-9.767719E-4,3.1246324E-3,3.8807662E-4,-1.4803217E-4,6.7429687E-4,7.946922E-5],"categories":[],"categories_nodes":[],"categories_segments":[],"categories_sizes":[],"default_left":[0,0,0,0,0,0,0,0,0],"id":85,"left_children":[1,3,-1,5,7,-1,-1,-1,-1],"loss_changes":[7.651617E-5,1.0546713E-4,0E0,7.667912E-5,6.2085484E-5,0E0,0E0,0E0,0E0],"parents":[2147483647,0,0,1,1,3,3,4,4],"right_children":[2,4,-1,6,8,-1,-1,-1,-1],"split_conditions":[1.113979E-1,3.3426292E-2,-6.4550695E-4,-8.4906116E-2,3.7740327E-2,3.8807662E-4,-1.4803217E-4,6.7429687E-4,7.946922E-5],"split_indices":[0,0,0,2,0,0,0,0,0],"split_type":[0,0,0,0,0,0,0,0,0],"sum_hessian":[3.6E1,3.5E1,1E0,2.8E1,7E0,2E0,2.6E1,2E0,5E0],"tree_param":{"num_deleted":"0","num_feature":"5","num_nodes":"9","size_leaf_vector":"1"}},{"base_weights":[-5.3262283E-6,3.6220482E-4,-2.7724614E-4,-9.551362E-4,1.5967491E-3,-1.5456839E-4,2.3067392E-4,3.67057E-4,-5.156963E-4],"categories":[],"categories_nodes":[],"categories_segments":[],"categories_sizes":[],"default_left":[0,0,0,0,0,0,0,0,0],"id":86,"left_children":[1,-1,3,5,7,-1,-1,-1,-1],"loss_changes":[4.2431122E-5,0E0,5.2339616E-5,6.135429E-5,1.7299486E-4,0E0,0E0,0E0,0E0],"parents":[2147483647,0,0,2,2,3,3,4,4],"right_children":[2,-1,4,6,8,-1,-1,-1,-1],"split_conditions":[-8.4906116E-2,3.6220482E-4,3.3426292E-2,6.471444E-2,2.2392338E-2,-1.5456839E-4,2.3067392E-4,3.67057E-4,-5.156963E-4],"split_indices":[2,0,1,3,3,0,0,0,0],"split_type":[0,0,0,0,0,0,0,0,0],"sum_hessian":[4.1E1,2E0,3.9E1,2.9E1,1E1,2.5E1,4E0,8E0,2E0],"tree_param":{"num_deleted":"0","num_feature":"5","num_nodes":"9","size_leaf_vector":"1"}},{"base_weights":[4.0475617E-4,2.2962738E-3,-3.653428E-4,8.109453E-4,6.4819446E-4,-4.376404E-3,2.4241967E-4,3.3805784E-4,-2.5403535E-5,6.006848E-5,-6.2356616E-4,-1.553677E-4,2.0212005E-4],"categories":[],"categories_nodes":[],"categories_segments":[],"categories_sizes":[],"default_left":[0,0,0,0,0,0,0,0,0,0,0,0,0],"id":87,"left_children":[1,3,5,7,-1,9,11,-1,-1,-1,-1,-1,-1],"loss_changes":[6.0561815E-5,6.934864E-5,7.4194104E-5,2.8224886E-5,0E0,4.0760424E-5,8.940157E-5,0E0,0E0,0E0,0E0,0E0,0E0],"parents":[2147483647,0,0,1,1,2,2,3,3,5,5,6,6],"right_children":[2,4,6,8,-1,10,12,-1,-1,-1,-1,-1,-1],"split_conditions":[-3.7397332E-2,-4.085774E-2,-1.9554103E-2,-8.4906116E-2,6.4819446E-4,-8.2772285E-2,-1.7514572E-2,3.3805784E-4,-2.5403535E-5,6.006848E-5,-6.2356616E-4,-1.553677E-4,2.0212005E-4],"split_indices":[2,2,2,2,0,0,0,0,0,0,0,0,0],"split_type":[0,0,0,0,0,0,0,0,0,0,0,0,0],"sum_hessian":[4E1,1.1E1,2.9E1,9E0,2E0,3E0,2.6E1,2E0,7E0,1E0,2E0,1.3E1,1.3E1],"tree_param":{"num_deleted":"0","num_feature":"5","num_nodes":"13","size_leaf_vector":"1"}},{"base_weights":[3.567141E-4,7.02061E-4,-3.5610062E-3,-1.7058441E-3,1.4159525E-3,6.2884765E-6,-5.4043945E-4,8.177684E-5,-4.4338987E-4,1.9112503E-4,-3.0184138E-4],"categories":[],"categories_nodes":[],"categories_segments":[],"categories_sizes":[],"default_left":[0,0,0,0,0,0,0,0,0,0,0],"id":88,"left_children":[1,3,5,7,9,-1,-1,-1,-1,-1,-1],"loss_changes":[4.985408E-5,5.914184E-5,2.0380565E-5,5.8702324E-5,6.287357E-5,0E0,0E0,0E0,0E0,0E0,0E0],"parents":[2147483647,0,0,1,1,2,2,3,3,4,4],"right_children":[2,4,6,8,10,-1,-1,-1,-1,-1,-1],"split_conditions":[1.0270447E-1,-5.0096236E-2,-5.0563212E-2,6.0232505E-3,1.113979E-1,6.2884765E-6,-5.4043945E-4,8.177684E-5,-4.4338987E-4,1.9112503E-4,-3.0184138E-4],"split_indices":[1,2,0,1,0,0,0,0,0,0,0],"split_type":[0,0,0,0,0,0,0,0,0,0,0],"sum_hessian":[3.4E1,3.2E1,2E0,7E0,2.5E1,1E0,1E0,4E0,3E0,2.3E1,2E0],"tree_param":{"num_deleted":"0","num_feature":"5","num_nodes":"11","size_leaf_vector":"1"}},{"base_weights":[-3.3362836E-4,8.4263476E-4,-1.5567045E-3,-3.0794851E-3,1.7705001E-3,1.4060552E-3,-3.1552557E-3,-4.776165E-4,-9.218703E-5,-3.312301E-5,4.5200434E-4,3.1221143E-4,9.520884E-6,-5.818102E-4,1.7363492E-4],"categories":[],"categories_nodes":[],"categories_segments":[],"categories_sizes":[],"default_left":[0,0,0,0,0,0,0,0,0,0,0,0,0,0,0],"id":89,"left_children":[1,3,5,7,9,11,13,-1,-1,-1,-1,-1,-1,-1,-1],"loss_changes":[5.310347E-5,7.459702E-5,8.968667E-5,1.02401245E-5,9.395793E-5,1.5449174E-5,1.6640936E-4,0E0,0E0,0E0,0E0,0E0,0E0,0E0,0E0],"parents":[2147483647,0,0,1,1,2,2,3,3,4,4,5,5,6,6],"right_children":[2,4,6,8,10,12,14,-1,-1,-1,-1,-1,-1,-1,-1],"split_conditions":[-8.765523E-4,-6.0177397E-2,-3.979969E-2,-8.2772285E-2,-1.7514572E-2,-8.4906116E-2,4.022589E-2,-4.776165E-4,-9.218703E-5,-3.312301E-5,4.5200434E-4,3.1221143E-4,9.520884E-6,-5.818102E-4,1.7363492E-4],"split_indices":[4,1,1,1,0,1,4,0,0,0,0,0,0,0,0],"split_type":[0,0,0,0,0,0,0,0,0,0,0,0,0,0,0],"sum_hessian":[3.5E1,1.8E1,1.7E1,3E0,1.5E1,6E0,1.1E1,1E0,2E0,9E0,6E0,2E0,4E0,7E0,4E0],"tree_param":{"num_deleted":"0","num_feature":"5","num_nodes":"15","size_leaf_vector":"1"}},{"base_weights":[-1.4745536E-4,-7.565348E-4,2.4839502E-3,1.6353384E-3,-1.7006404E-3,6.1476656E-4,-2.1106881E-4,2.5611554E-4,-2.8855988E-4,-3.237583E-4,1.3937063E-4,-1.1980017E-4,8.4622036E-5],"categories":[],"categories_nodes":[],"categories_segments":[],"categories_sizes":[],"default_left":[0,0,0,0,0,0,0,0,0,0,0,0,0],"id":90,"left_children":[1,3,5,7,9,-1,11,-1,-1,-1,-1,-1,-1],"loss_changes":[5.9577662E-5,7.052655E-5,7.0414055E-5,4.5060508E-5,1.0914056E-4,0E0,6.23114E-6,0E0,0E0,0E0,0E0,0E0,0E0],"parents":[2147483647,0,0,1,1,2,2,3,3,4,4,6,6],"right_children":[2,4,6,8,10,-1,12,-1,-1,-1,-1,-1,-1],"split_conditions":[3.971325E-2,-4.6861522E-2,-1.1109557E-2,1.695249E-2,2.8610535E-2,6.1476656E-4,5.406722E-2,2.5611554E-4,-2.8855988E-4,-3.237583E-4,1.3937063E-4,-1.1980017E-4,8.4622036E-5],"split_indices":[3,0,4,4,4,0,3,0,0,0,0,0,0],"split_type":[0,0,0,0,0,0,0,0,0,0,0,0,0],"sum_hessian":[3.5E1,2.9E1,6E0,8E0,2.1E1,2E0,4E0,7E0,1E0,1.4E1,7E0,2E0,2E0],"tree_param":{"num_deleted":"0","num_feature":"5","num_nodes":"13","size_leaf_vector":"1"}},{"base_weights":[1.9407978E-4,3.0033274E-3,-6.551638E-4,2.3894222E-4,5.167047E-4,1.7458719E-3,-1.7673158E-3,8.7814136E-5,-4.7990434E-5,3.5789944E-4,-1.8985603E-4,1.0006259E-4,-3.22276E-4],"categories":[],"categories_nodes":[],"categories_segments":[],"categories_sizes":[],"default_left":[0,0,0,0,0,0,0,0,0,0,0,0,0],"id":91,"left_children":[1,3,5,7,-1,9,11,-1,-1,-1,-1,-1,-1],"loss_changes":[9.262561E-5,5.2597556E-5,8.3195E-5,2.7188541E-6,0E0,7.360184E-5,8.782506E-5,0E0,0E0,0E0,0E0,0E0,0E0],"parents":[2147483647,0,0,1,1,2,2,3,3,5,5,6,6],"right_children":[2,4,6,8,-1,10,12,-1,-1,-1,-1,-1,-1],"split_conditions":[-4.619511E-2,-1.1109557E-2,-3.3535726E-2,-6.0177397E-2,5.167047E-4,4.1038558E-2,-4.085774E-2,8.7814136E-5,-4.7990434E-5,3.5789944E-4,-1.8985603E-4,1.0006259E-4,-3.22276E-4],"split_indices":[4,1,3,0,0,0,1,0,0,0,0,0,0],"split_type":[0,0,0,0,0,0,0,0,0,0,0,0,0],"sum_hessian":[3.7E1,8E0,2.9E1,4E0,4E0,9E0,2E1,2E0,2E0,6E0,3E0,7E0,1.3E1],"tree_param":{"num_deleted":"0","num_feature":"5","num_nodes":"13","size_leaf_vector":"1"}},{"base_weights":[3.9454626E-5,-4.6358953E-4,2.2615853E-3,2.0317908E-3,-1.2760668E-3,4.1787475E-4,1.2456003E-3,-3.1111712E-4,4.2646402E-4,1.7646044E-4,-2.90669E-4,1.5554231E-4,-1.51756685E-5],"categories":[],"categories_nodes":[],"categories_segments":[],"categories_sizes":[],"default_left":[0,0,0,0,0,0,0,0,0,0,0,0,0],"id":92,"left_children":[1,3,5,7,9,-1,11,-1,-1,-1,-1,-1,-1],"loss_changes":[4.240815E-5,6.5443324E-5,8.429608E-6,1.051357E-4,1.241257E-4,0E0,2.8336435E-6,0E0,0E0,0E0,0E0,0E0,0E0],"parents":[2147483647,0,0,1,1,2,2,3,3,4,4,6,6],"right_children":[2,4,6,8,10,-1,12,-1,-1,-1,-1,-1,-1],"split_conditions":[3.3426292E-2,-4.619511E-2,3.7740327E-2,-1.9554103E-2,-4.085774E-2,4.1787475E-4,2.2392338E-2,-3.1111712E-4,4.2646402E-4,1.7646044E-4,-2.90669E-4,1.5554231E-4,-1.51756685E-5],"split_indices":[0,4,0,1,1,0,2,0,0,0,0,0,0],"split_type":[0,0,0,0,0,0,0,0,0,0,0,0,0],"sum_hessian":[3.6E1,3E1,6E0,7E0,2.3E1,1E0,5E0,2E0,5E0,8E0,1.5E1,4E0,1E0],"tree_param":{"num_deleted":"0","num_feature":"5","num_nodes":"13","size_leaf_vector":"1"}},{"base_weights":[3.738365E-4,7.346675E-4,-5.766794E-4,1.1696824E-3,-4.005375E-3,-7.3128314E-5,1.6551655E-4,-5.318741E-4,-6.893221E-5],"categories":[],"categories_nodes":[],"categories_segments":[],"categories_sizes":[],"default_left":[0,0,0,0,0,0,0,0,0],"id":93,"left_children":[1,3,-1,5,7,-1,-1,-1,-1],"loss_changes":[7.95715E-5,7.273065E-5,0E0,2.9819876E-5,9.399242E-6,0E0,0E0,0E0,0E0],"parents":[2147483647,0,0,1,1,3,3,4,4],"right_children":[2,4,-1,6,8,-1,-1,-1,-1],"split_conditions":[1.113979E-1,1.0270447E-1,-5.766794E-4,-5.224289E-2,-4.619511E-2,-7.3128314E-5,1.6551655E-4,-5.318741E-4,-6.893221E-5],"split_indices":[0,2,0,3,0,0,0,0,0],"split_type":[0,0,0,0,0,0,0,0,0],"sum_hessian":[3.3E1,3.2E1,1E0,3E1,2E0,6E0,2.4E1,1E0,1E0],"tree_param":{"num_deleted":"0","num_feature":"5","num_nodes":"9","size_leaf_vector":"1"}},{"base_weights":[3.8507895E-4,-4.0195207E-4,3.4850682E-3,2.0975932E-3,-1.6334541E-3,3.9338036E-3,1.719594E-5,8.111627E-5,5.2576873E-4,-8.197023E-5,-6.5139815E-4,2.0596199E-5,4.5207838E-4],"categories":[],"categories_nodes":[],"categories_segments":[],"categories_sizes":[],"default_left":[0,0,0,0,0,0,0,0,0,0,0,0,0],"id":94,"left_children":[1,3,5,7,9,11,-1,-1,-1,-1,-1,-1,-1],"loss_changes":[9.655255E-5,1.0192857E-4,1.1217227E-5,4.045282E-5,8.203433E-5,1.438606E-5,0E0,0E0,0E0,0E0,0E0,0E0,0E0],"parents":[2147483647,0,0,1,1,2,2,3,3,4,4,5,5],"right_children":[2,4,6,8,10,12,-1,-1,-1,-1,-1,-1,-1],"split_conditions":[3.3426292E-2,-3.7397332E-2,1.0270447E-1,-4.085774E-2,1.7704714E-2,-2.7357787E-2,1.719594E-5,8.111627E-5,5.2576873E-4,-8.197023E-5,-6.5139815E-4,2.0596199E-5,4.5207838E-4],"split_indices":[1,2,1,2,1,2,0,0,0,0,0,0,0],"split_type":[0,0,0,0,0,0,0,0,0,0,0,0,0],"sum_hessian":[3.8E1,3.1E1,7E0,1E1,2.1E1,6E0,1E0,8E0,2E0,1.9E1,2E0,1E0,5E0],"tree_param":{"num_deleted":"0","num_feature":"5","num_nodes":"13","size_leaf_vector":"1"}},{"base_weights":[-5.144754E-4,-1.1498737E-3,1.4431671E-3,2.4877366E-4,-1.4985506E-3,-2.7420009E-3,3.6285247E-3,7.4200376E-5,-2.0178888E-4,-4.9559138E-5,-4.7406144E-4,4.1440516E-4,2.676826E-5],"categories":[],"categories_nodes":[],"categories_segments":[],"categories_sizes":[],"default_left":[0,0,0,0,0,0,0,0,0,0,0,0,0],"id":95,"left_children":[1,3,5,-1,7,9,11,-1,-1,-1,-1,-1,-1],"loss_changes":[5.0170886E-5,4.177853E-5,1.014103E-4,0E0,3.4078228E-5,1.560941E-5,1.10189285E-5,0E0,0E0,0E0,0E0,0E0,0E0],"parents":[2147483647,0,0,1,1,2,2,4,4,5,5,6,6],"right_children":[2,4,6,-1,8,10,12,-1,-1,-1,-1,-1,-1],"split_conditions":[3.3426292E-2,-8.4906116E-2,-1.1109557E-2,2.4877366E-4,-4.6861522E-2,4.022589E-2,1.0270447E-1,7.4200376E-5,-2.0178888E-4,-4.9559138E-5,-4.7406144E-4,4.1440516E-4,2.676826E-5],"split_indices":[1,1,2,0,0,1,1,0,0,0,0,0,0],"split_type":[0,0,0,0,0,0,0,0,0,0,0,0,0],"sum_hessian":[3.8E1,2.9E1,9E0,2E0,2.7E1,3E0,6E0,5E0,2.2E1,2E0,1E0,5E0,1E0],"tree_param":{"num_deleted":"0","num_feature":"5","num_nodes":"13","size_leaf_vector":"1"}},{"base_weights":[2.8920933E-5,-5.3195155E-4,2.338905E-3,1.4525255E-3,-1.590214E-3,-4.6255192E-4,3.3498157E-3,-1.3377104E-6,4.3876749E-4,-4.1081653E-6,-3.823285E-4,-9.14271E-5,2.2044313E-5,2.5429763E-5,3.91806E-4],"categories":[],