{"learner":{"attributes":{"scikit_learn":"{\"_estimator_type\": \"regressor\"}"},"feature_names":["lag_5","lag_4","lag_3","lag_2","lag_1"],"feature_types":["float","float","float","float","float"],"gradient_booster":{"model":{"gbtree_model_param":{"num_parallel_tree":"1","num_trees":"150"},"iteration_indptr":[0,1,2,3,4,5,6,7,8,9,10,11,12,13,14,15,16,17,18,19,20,21,22,23,24,25,26,27,28,29,30,31,32,33,34,35,36,37,38,39,40,41,42,43,44,45,46,47,48,49,50,51,52,53,54,55,56,57,58,59,60,61,62,63,64,65,66,67,68,69,70,71,72,73,74,75,76,77,78,79,80,81,82,83,84,85,86,87,88,89,90,91,92,93,94,95,96,97,98,99,100,101,102,103,104,105,106,107,108,109,110,111,112,113,114,115,116,117,118,119,120,121,122,123,124,125,126,127,128,129,130,131,132,133,134,135,136,137,138,139,140,141,142,143,144,145,146,147,148,149,150],"tree_info":[0,0,0,0,0,0,0,0,0,0,0,0,0,0,0,0,0,0,0,0,0,0,0,0,0,0,0,0,0,0,0,0,0,0,0,0,0,0,0,0,0,0,0,0,0,0,0,0,0,0,0,0,0,0,0,0,0,0,0,0,0,0,0,0,0,0,0,0,0,0,0,0,0,0,0,0,0,0,0,0,0,0,0,0,0,0,0,0,0,0,0,0,0,0,0,0,0,0,0,0,0,0,0,0,0,0,0,0,0,0,0,0,0,0,0,0,0,0,0,0,0,0,0,0,0,0,0,0,0,0,0,0,0,0,0,0,0,0,0,0,0,0,0,0,0,0,0,0,0,0],"trees":[{"base_weights":[3.4071424E-4,-1.7740114E-2,3.36945E-2,1.823684E-2,-3.362691E-2,5.7266805E-2,5.308687E-3,5.042971E-3,-2.656346E-3,-4.035063E-3,1.1200673E-3,6.523633E-3,4.7248424E-4,-1.7571617E-3,2.686182E-3],"categories":[],"categories_nodes":[],"categories_segments":[],"categories_sizes":[],"default_left":[0,0,0,0,0,0,0,0,0,0,0,0,0,0,0],"id":0,"left_children":[1,3,5,7,9,11,13,-1,-1,-1,-1,-1,-1,-1,-1],"loss_changes":[2.2308048E-2,1.4330652E-2,8.394537E-3,1.2877591E-2,5.5758953E-3,2.6229061E-3,3.9240015E-3,0E0,0E0,0E0,0E0,0E0,0E0,0E0,0E0],"parents":[2147483647,0,0,1,1,2,2,3,3,4,4,5,5,6,6],"right_children":[2,4,6,8,10,12,14,-1,-1,-1,-1,-1,-1,-1,-1],"split_conditions":[5.775357E-2,-4.7672376E-2,9.9751495E-2,6.151854E-2,9.9751495E-2,5.775357E-2,5.1249288E-2,5.042971E-3,-2.656346E-3,-4.035063E-3,1.1200673E-3,6.523633E-3,4.7248424E-4,-1.7571617E-3,2.686182E-3],"split_indices":[0,2,0,3,1,1,3,0,0,0,0,0,0,0,0],"split_type":[0,0,0,0,0,0,0,0,0,0,0,0,0,0,0],"sum_hessian":[3.5E1,2.3E1,1.2E1,7E0,1.6E1,6E0,6E0,4E0,3E0,1.4E1,2E0,5E0,1E0,3E0,3E0],"tree_param":{"num_deleted":"0","num_feature":"5","num_nodes":"15","size_leaf_vector":"1"}},{"base_weights":[4.972292E-3,2.2008743E-2,-1.5363079E-2,-5.7066274E-3,3.4294374E-2,-7.4028755E-3,-7.1363165E-3,-4.058692E-3,6.8712415E-4,4.308024E-3,-1.2280528E-3,-2.1271713E-3,1.34673E-3],"categories":[],"categories_nodes":[],"categories_segments":[],"categories_sizes":[],"default_left":[0,0,0,0,0,0,0,0,0,0,0,0,0],"id":1,"left_children":[1,3,5,7,9,11,-1,-1,-1,-1,-1,-1,-1],"loss_changes":[1.2810052E-2,7.0057223E-3,7.049833E-3,3.3499205E-3,6.257858E-3,4.9175927E-3,0E0,0E0,0E0,0E0,0E0,0E0,0E0],"parents":[2147483647,0,0,1,1,2,2,3,3,4,4,5,5],"right_children":[2,4,6,8,10,12,-1,-1,-1,-1,-1,-1,-1],"split_conditions":[4.8479293E-2,-2.9385678E-2,1.267353E-1,-1.6615335E-2,6.151854E-2,9.937102E-2,-7.1363165E-3,-4.058692E-3,6.8712415E-4,4.308024E-3,-1.2280528E-3,-2.1271713E-3,1.34673E-3],"split_indices":[4,4,4,0,3,4,0,0,0,0,0,0,0],"split_type":[0,0,0,0,0,0,0,0,0,0,0,0,0],"sum_hessian":[3.5E1,1.9E1,1.6E1,6E0,1.3E1,1.5E1,1E0,1E0,5E0,1.1E1,2E0,9E0,6E0],"tree_param":{"num_deleted":"0","num_feature":"5","num_nodes":"13","size_leaf_vector":"1"}},{"base_weights":[-2.2266165E-3,2.6704539E-2,-1.7906036E-2,3.812742E-2,-2.0273242E-3,-3.5398763E-2,1.1294428E-2,4.32027E-3,-3.7750453E-4,2.0685307E-4,-5.059253E-3,5.3959927E-3,-8.6042745E-4],"categories":[],"categories_nodes":[],"categories_segments":[],"categories_sizes":[],"default_left":[0,0,0,0,0,0,0,0,0,0,0,0,0],"id":2,"left_children":[1,3,5,7,-1,9,11,-1,-1,-1,-1,-1,-1],"loss_changes":[1.5447756E-2,7.2124256E-3,1.1637313E-2,2.289759E-3,0E0,8.074425E-3,8.105178E-3,0E0,0E0,0E0,0E0,0E0,0E0],"parents":[2147483647,0,0,1,1,2,2,3,3,5,5,6,6],"right_children":[2,4,6,8,-1,10,12,-1,-1,-1,-1,-1,-1],"split_conditions":[-8.819561E-3,8.714325E-2,1.2323916E-2,1.0651168E-1,-2.0273242E-3,-3.154836E-2,-2.639661E-2,4.32027E-3,-3.7750453E-4,2.0685307E-4,-5.059253E-3,5.3959927E-3,-8.6042745E-4],"split_indices":[4,3,3,0,0,0,2,0,0,0,0,0,0],"split_type":[0,0,0,0,0,0,0,0,0,0,0,0,0],"sum_hessian":[3.2E1,1.1E1,2.1E1,9E0,2E0,1.3E1,8E0,8E0,1E0,4E0,9E0,2E0,6E0],"tree_param":{"num_deleted":"0","num_feature":"5","num_nodes":"13","size_leaf_vector":"1"}},{"base_weights":[-7.274411E-3,1.5233014E-2,-2.0845348E-2,6.1661704E-3,5.246728E-3,-4.3637723E-2,-8.291087E-3,-1.9062558E-3,1.4779692E-3,-4.8341933E-3,-3.002032E-4,4.542179E-3,-1.4122538E-3],"categories":[],"categories_nodes":[],"categories_segments":[],"categories_sizes":[],"default_left":[0,0,0,0,0,0,0,0,0,0,0,0,0],"id":3,"left_children":[1,3,5,7,-1,9,11,-1,-1,-1,-1,-1,-1],"loss_changes":[1.284086E-2,5.0780335E-3,7.077872E-3,3.324054E-3,0E0,1.575306E-3,6.2795035E-3,0E0,0E0,0E0,0E0,0E0,0E0],"parents":[2147483647,0,0,1,1,2,2,3,3,5,5,6,6],"right_children":[2,4,6,8,-1,10,12,-1,-1,-1,-1,-1,-1],"split_conditions":[-1.0461342E-2,1.125234E-1,4.275315E-2,6.8904315E-3,5.246728E-3,1.125234E-1,-4.7672376E-2,-1.9062558E-3,1.4779692E-3,-4.8341933E-3,-3.002032E-4,4.542179E-3,-1.4122538E-3],"split_indices":[4,2,4,3,0,1,2,0,0,0,0,0,0],"split_type":[0,0,0,0,0,0,0,0,0,0,0,0,0],"sum_hessian":[4E1,1.5E1,2.5E1,1.3E1,2E0,8E0,1.7E1,3E0,1E1,7E0,1E0,1E0,1.6E1],"tree_param":{"num_deleted":"0","num_feature":"5","num_nodes":"13","size_leaf_vector":"1"}},{"base_weights":[9.186725E-4,1.2946634E-2,-2.0792902E-2,-2.7665E-3,5.061114E-2,-3.341719E-2,3.713066E-3,7.477218E-4,-6.3306647E-3,7.2512687E-3,1.058142E-3,-4.118834E-3,-1.1463382E-3,1.9614408E-3,-9.141207E-4],"categories":[],"categories_nodes":[],"categories_segments":[],"categories_sizes":[],"default_left":[0,0,0,0,0,0,0,0,0,0,0,0,0,0,0],"id":4,"left_children":[1,3,5,7,9,11,13,-1,-1,-1,-1,-1,-1,-1,-1],"loss_changes":[1.0976182E-2,1.6119355E-2,4.764637E-3,1.2876481E-2,6.246414E-3,1.2339056E-3,1.4057005E-3,0E0,0E0,0E0,0E0,0E0,0E0,0E0,0E0],"parents":[2147483647,0,0,1,1,2,2,3,3,4,4,5,5,6,6],"right_children":[2,4,6,8,10,12,14,-1,-1,-1,-1,-1,-1,-1,-1],"split_conditions":[4.8479293E-2,6.8904315E-3,-8.819561E-3,-3.9006954E-3,4.8479293E-2,9.9751495E-2,5.0717525E-2,7.477218E-4,-6.3306647E-3,7.2512687E-3,1.058142E-3,-4.118834E-3,-1.1463382E-3,1.9614408E-3,-9.141207E-4],"split_indices":[1,1,0,1,4,1,0,0,0,0,0,0,0,0,0],"split_type":[0,0,0,0,0,0,0,0,0,0,0,0,0,0,0],"sum_hessian":[4E1,2.6E1,1.4E1,1.9E1,7E0,9E0,5E0,1.7E1,2E0,4E0,3E0,6E0,3E0,2E0,3E0],"tree_param":{"num_deleted":"0","num_feature":"5","num_nodes":"15","size_leaf_vector":"1"}},{"base_weights":[4.003595E-3,-6.8592057E-3,3.2637432E-2,-1.140501E-4,-5.4046786E-3,4.497509E-2,1.28039215E-2,2.06954E-3,-6.4424024E-4,2.1437656E-3,6.921246E-3,-1.3165743E-3,4.316217E-3],"categories":[],"categories_nodes":[],"categories_segments":[],"categories_sizes":[],"default_left":[0,0,0,0,0,0,0,0,0,0,0,0,0],"id":5,"left_children":[1,3,5,7,-1,9,11,-1,-1,-1,-1,-1,-1],"loss_changes":[1.3598745E-2,1.0179037E-2,2.3605311E-3,3.952325E-3,0E0,2.5096461E-3,5.2986233E-3,0E0,0E0,0E0,0E0,0E0,0E0],"parents":[2147483647,0,0,1,1,2,2,3,3,5,5,6,6],"right_children":[2,4,6,8,-1,10,12,-1,-1,-1,-1,-1,-1],"split_conditions":[5.775357E-2,5.0717525E-2,9.9751495E-2,-2.639661E-2,-5.4046786E-3,8.714325E-2,5.1249288E-2,2.06954E-3,-6.4424024E-4,2.1437656E-3,6.921246E-3,-1.3165743E-3,4.316217E-3],"split_indices":[0,0,0,3,0,0,3,0,0,0,0,0,0],"split_type":[0,0,0,0,0,0,0,0,0,0,0,0,0],"sum_hessian":[4.2E1,3.1E1,1.1E1,2.8E1,3E0,6E0,5E0,6E0,2.2E1,4E0,2E0,3E0,2E0],"tree_param":{"num_deleted":"0","num_feature":"5","num_nodes":"13","size_leaf_vector":"1"}},{"base_weights":[-6.1218813E-4,2.8222522E-3,-5.869158E-3,1.4154895E-2,-1.4378303E-2,-2.0178675E-4,4.678869E-3,-2.1984817E-3,2.084052E-3],"categories":[],"categories_nodes":[],"categories_segments":[],"categories_sizes":[],"default_left":[0,0,0,0,0,0,0,0,0],"id":6,"left_children":[1,3,-1,5,7,-1,-1,-1,-1],"loss_changes":[7.1470994E-3,6.8310667E-3,0E0,1.1177765E-2,4.208669E-3,0E0,0E0,0E0,0E0],"parents":[2147483647,0,0,1,1,3,3,4,4],"right_children":[2,4,-1,6,8,-1,-1,-1,-1],"split_conditions":[1.267353E-1,4.275315E-2,-5.869158E-3,-8.819561E-3,1.2653461E-1,-2.0178675E-4,4.678869E-3,-2.1984817E-3,2.084052E-3],"split_indices":[4,1,0,1,1,0,0,0,0],"split_type":[0,0,0,0,0,0,0,0,0],"sum_hessian":[3.4E1,3.3E1,1E0,2E1,1.3E1,1.4E1,6E0,1.1E1,2E0],"tree_param":{"num_deleted":"0","num_feature":"5","num_nodes":"9","size_leaf_vector":"1"}},{"base_weights":[1.1496108E-3,-1.0316821E-2,2.685328E-2,-2.645971E-3,-5.376271E-2,3.29952E-2,-2.0353931E-3,3.750775E-3,-6.022557E-4,-6.057626E-3,-1.6661035E-3,4.2104037E-3,1.3643797E-3],"categories":[],"categories_nodes":[],"categories_segments":[],"categories_sizes":[],"default_left":[0,0,0,0,0,0,0,0,0,0,0,0,0],"id":7,"left_children":[1,3,5,7,9,11,-1,-1,-1,-1,-1,-1,-1],"loss_changes":[1.1476757E-2,8.855952E-3,4.150898E-3,3.4798721E-3,1.9129366E-6,1.3644965E-3,0E0,0E0,0E0,0E0,0E0,0E0,0E0],"parents":[2147483647,0,0,1,1,2,2,3,3,4,4,5,5],"right_children":[2,4,6,8,10,12,-1,-1,-1,-1,-1,-1,-1],"split_conditions":[5.775357E-2,5.0717525E-2,1.267353E-1,-6.374996E-2,5.6898598E-2,9.9751495E-2,-2.0353931E-3,3.750775E-3,-6.022557E-4,-6.057626E-3,-1.6661035E-3,4.2104037E-3,1.3643797E-3],"split_indices":[0,0,0,0,0,0,0,0,0,0,0,0,0],"split_type":[0,0,0,0,0,0,0,0,0,0,0,0,0],"sum_hessian":[3.7E1,2.6E1,1.1E1,2.3E1,3E0,1E1,1E0,1E0,2.2E1,2E0,1E0,6E0,4E0],"tree_param":{"num_deleted":"0","num_feature":"5","num_nodes":"13","size_leaf_vector":"1"}},{"base_weights":[3.201779E-3,-1.0933551E-2,3.2466397E-2,3.4534938E-3,-2.2323493E-2,3.61501E-2,-2.185314E-4,1.3853092E-4,-3.96922E-3,4.188054E-3,8.8189077E-4],"categories":[],"categories_nodes":[],"categories_segments":[],"categories_sizes":[],"default_left":[0,0,0,0,0,0,0,0,0,0,0],"id":8,"left_children":[1,3,5,-1,7,9,-1,-1,-1,-1,-1],"loss_changes":[1.400592E-2,1.2682261E-2,1.4831126E-3,0E0,7.879019E-3,1.1968566E-3,0E0,0E0,0E0,0E0,0E0],"parents":[2147483647,0,0,1,1,2,2,4,4,5,5],"right_children":[2,4,6,-1,8,10,-1,-1,-1,-1,-1],"split_conditions":[5.775357E-2,-3.154836E-2,5.775357E-2,3.4534938E-3,-2.5445243E-2,3.427414E-2,-2.185314E-4,1.3853092E-4,-3.96922E-3,4.188054E-3,8.8189077E-4],"split_indices":[0,1,1,0,0,4,0,0,0,0,0],"split_type":[0,0,0,0,0,0,0,0,0,0,0],"sum_hessian":[3.2E1,2.2E1,1E1,4E0,1.8E1,9E0,1E0,8E0,1E1,7E0,2E0],"tree_param":{"num_deleted":"0","num_feature":"5","num_nodes":"11","size_leaf_vector":"1"}},{"base_weights":[8.769449E-4,-1.3551876E-2,1.1986627E-2,2.1900646E-3,-2.2713177E-2,-5.679012E-4,3.402804E-2,1.7273944E-3,-3.0817192E-3,2.1116678E-3,-1.3521857E-3,-9.634253E-5,4.5852433E-3],"categories":[],"categories_nodes":[],"categories_segments":[],"categories_sizes":[],"default_left":[0,0,0,0,0,0,0,0,0,0,0,0,0],"id":9,"left_children":[1,3,5,-1,7,9,11,-1,-1,-1,-1,-1,-1],"loss_changes":[6.2538264E-3,6.018884E-3,6.1071534E-3,0E0,5.0691226E-3,4.4990527E-3,3.3541974E-3,0E0,0E0,0E0,0E0,0E0,0E0],"parents":[2147483647,0,0,1,1,2,2,4,4,5,5,6,6],"right_children":[2,4,6,-1,8,10,12,-1,-1,-1,-1,-1,-1],"split_conditions":[1.2323916E-2,-5.393587E-2,4.275315E-2,2.1900646E-3,-2.5445243E-2,4.992392E-2,3.0393729E-2,1.7273944E-3,-3.0817192E-3,2.1116678E-3,-1.3521857E-3,-9.634253E-5,4.5852433E-3],"split_indices":[3,1,0,0,0,3,3,0,0,0,0,0,0],"split_type":[0,0,0,0,0,0,0,0,0,0,0,0,0],"sum_hessian":[3.7E1,1.6E1,2.1E1,3E0,1.3E1,1.4E1,7E0,2E0,1.1E1,5E0,9E0,2E0,5E0],"tree_param":{"num_deleted":"0","num_feature":"5","num_nodes":"13","size_leaf_vector":"1"}},{"base_weights":[3.840792E-3,2.1766905E-2,-5.899654E-3,2.8255185E-2,-1.360461E-3,-2.8248535E-2,1.4795202E-3,3.1771641E-3,1.2400247E-3,-3.2973476E-3,5.055545E-6,-2.9075723E-3,1.2176693E-3],"categories":[],"categories_nodes":[],"categories_segments":[],"categories_sizes":[],"default_left":[0,0,0,0,0,0,0,0,0,0,0,0,0],"id":10,"left_children":[1,3,5,7,-1,9,11,-1,-1,-1,-1,-1,-1],"loss_changes":[7.461967E-3,3.8269046E-3,4.65945E-3,3.3081602E-4,0E0,9.376481E-4,7.5448505E-3,0E0,0E0,0E0,0E0,0E0,0E0],"parents":[2147483647,0,0,1,1,2,2,3,3,5,5,6,6],"right_children":[2,4,6,8,-1,10,12,-1,-1,-1,-1,-1,-1],"split_conditions":[-8.819561E-3,8.714325E-2,3.0393729E-2,-1.8636452E-2,-1.360461E-3,1.125234E-1,-4.9477868E-2,3.1771641E-3,1.2400247E-3,-3.2973476E-3,5.055545E-6,-2.9075723E-3,1.2176693E-3],"split_indices":[4,3,4,4,0,1,3,0,0,0,0,0,0],"split_type":[0,0,0,0,0,0,0,0,0,0,0,0,0],"sum_hessian":[4.1E1,1.4E1,2.7E1,1.2E1,2E0,6E0,2.1E1,9E0,3E0,5E0,1E0,5E0,1.6E1],"tree_param":{"num_deleted":"0","num_feature":"5","num_nodes":"13","size_leaf_vector":"1"}},{"base_weights":[-5.3965095E-3,1.0380822E-2,-1.6823385E-2,-8.402762E-3,2.13903E-2,2.9556217E-2,-2.2647928E-2,3.3646773E-3,-2.1018814E-3,2.7796242E-3,3.2308424E-4,3.5630357E-3,8.7039697E-4,-3.9894455E-3,-8.965878E-4],"categories":[],"categories_nodes":[],"categories_segments":[],"categories_sizes":[],"default_left":[0,0,0,0,0,0,0,0,0,0,0,0,0,0,0],"id":11,"left_children":[1,3,5,7,9,11,13,-1,-1,-1,-1,-1,-1,-1,-1],"loss_changes":[7.2057787E-3,3.6952945E-3,6.882608E-3,4.4207093E-3,1.1898079E-3,6.985292E-5,4.597636E-3,0E0,0E0,0E0,0E0,0E0,0E0,0E0,0E0],"parents":[2147483647,0,0,1,1,2,2,3,3,4,4,5,5,6,6],"right_children":[2,4,6,8,10,12,14,-1,-1,-1,-1,-1,-1,-1,-1],"split_conditions":[-8.819561E-3,-3.2102757E-3,-4.7672376E-2,-4.9477868E-2,-2.0658812E-2,-6.374996E-2,-3.2102757E-3,3.3646773E-3,-2.1018814E-3,2.7796242E-3,3.2308424E-4,3.5630357E-3,8.7039697E-4,-3.9894455E-3,-8.965878E-4],"split_indices":[4,0,2,1,4,0,2,0,0,0,0,0,0,0,0],"split_type":[0,0,0,0,0,0,0,0,0,0,0,0,0,0,0],"sum_hessian":[3.8E1,1.6E1,2.2E1,6E0,1E1,2E0,2E1,1E0,5E0,7E0,3E0,1E0,1E0,8E0,1.2E1],"tree_param":{"num_deleted":"0","num_feature":"5","num_nodes":"15","size_leaf_vector":"1"}},{"base_weights":[4.3244073E-3,1.3961144E-2,-1.1382664E-2,1.9265076E-3,4.29129E-2,2.3711568E-2,-2.2132186E-2,9.995308E-4,-4.1749263E-3,5.586486E-3,7.022002E-4,2.6906116E-3,7.0639636E-4,-2.8311643E-3,5.843396E-4],"categories":[],"categories_nodes":[],"categories_segments":[],"categories_sizes":[],"default_left":[0,0,0,0,0,0,0,0,0,0,0,0,0,0,0],"id":12,"left_children":[1,3,5,7,9,11,13,-1,-1,-1,-1,-1,-1,-1,-1],"loss_changes":[5.910781E-3,8.2795005E-3,6.183482E-3,6.7606955E-3,2.8617177E-3,2.2662338E-5,2.2399225E-3,0E0,0E0,0E0,0E0,0E0,0E0,0E0,0E0],"parents":[2147483647,0,0,1,1,2,2,3,3,4,4,5,5,6,6],"right_children":[2,4,6,8,10,12,14,-1,-1,-1,-1,-1,-1,-1,-1],"split_conditions":[4.8479293E-2,6.8904315E-3,-1.6615335E-2,-3.9006954E-3,9.937102E-2,4.8479293E-2,1.125234E-1,9.995308E-4,-4.1749263E-3,5.586486E-3,7.022002E-4,2.6906116E-3,7.0639636E-4,-2.8311643E-3,5.843396E-4],"split_indices":[1,1,3,1,0,0,1,0,0,0,0,0,0,0,0],"split_type":[0,0,0,0,0,0,0,0,0,0,0,0,0,0,0],"sum_hessian":[3.7E1,2.3E1,1.4E1,1.7E1,6E0,3E0,1.1E1,1.5E1,2E0,4E0,2E0,2E0,1E0,9E0,2E0],"tree_param":{"num_deleted":"0","num_feature":"5","num_nodes":"15","size_leaf_vector":"1"}},{"base_weights":[1.2282176E-3,2.4582203E-2,-6.867233E-3,3.0009627E-2,-1.2132302E-3,-2.3494927E-2,5.859327E-4,1.1892349E-3,3.7086208E-3,-3.1780482E-3,-5.1928643E-4,5.5863936E-3,-4.971164E-4],"categories":[],"categories_nodes":[],"categories_segments":[],"categories_sizes":[],"default_left":[0,0,0,0,0,0,0,0,0,0,0,0,0],"id":13,"left_children":[1,3,5,7,-1,9,11,-1,-1,-1,-1,-1,-1],"loss_changes":[7.3531317E-3,2.3567379E-3,3.6077069E-3,7.1283244E-4,0E0,1.199753E-3,6.7285984E-3,0E0,0E0,0E0,0E0,0E0,0E0],"parents":[2147483647,0,0,1,1,2,2,3,3,5,5,6,6],"right_children":[2,4,6,8,-1,10,12,-1,-1,-1,-1,-1,-1],"split_conditions":[-1.8636452E-2,8.714325E-2,3.0393729E-2,3.6884848E-2,-1.2132302E-3,5.6898598E-2,3.427414E-2,1.1892349E-3,3.7086208E-3,-3.1780482E-3,-5.1928643E-4,5.5863936E-3,-4.971164E-4],"split_indices":[4,3,4,3,0,0,4,0,0,0,0,0,0],"split_type":[0,0,0,0,0,0,0,0,0,0,0,0,0],"sum_hessian":[3.7E1,9E0,2.8E1,8E0,1E0,8E0,2E1,3E0,5E0,5E0,3E0,1E0,1.9E1],"tree_param":{"num_deleted":"0","num_feature":"5","num_nodes":"13","size_leaf_vector":"1"}},{"base_weights":[1.130852E-3,3.5083445E-3,-4.341819E-3,1.09264515E-2,-6.910824E-3,3.2411778E-4,3.640815E-3,4.560793E-4,-2.6790318E-3],"categories":[],"categories_nodes":[],"categories_segments":[],"categories_sizes":[],"default_left":[0,0,0,0,0,0,0,0,0],"id":14,"left_children":[1,3,-1,5,7,-1,-1,-1,-1],"loss_changes":[4.1770963E-3,2.9352596E-3,0E0,4.190339E-3,3.770984E-3,0E0,0E0,0E0,0E0],"parents":[2147483647,0,0,1,1,3,3,4,4],"right_children":[2,4,-1,6,8,-1,-1,-1,-1],"split_conditions":[1.267353E-1,3.6884848E-2,-4.341819E-3,6.8904315E-3,4.275315E-2,3.2411778E-4,3.640815E-3,4.560793E-4,-2.6790318E-3],"split_indices":[4,1,0,1,2,0,0,0,0],"split_type":[0,0,0,0,0,0,0,0,0],"sum_hessian":[3.7E1,3.6E1,1E0,2.1E1,1.5E1,1.7E1,4E0,1E1,5E0],"tree_param":{"num_deleted":"0","num_feature":"5","num_nodes":"9","size_leaf_vector":"1"}},{"base_weights":[-1.446105E-3,-2.1819305E-2,3.536674E-3,-3.9962754E-3,-2.940684E-3,1.6324896E-2,-1.2897518E-2,-1.4193723E-3,9.292581E-4,1.9330186E-4,4.7185128E-3,-2.1572427E-3,1.6351584E-3],"categories":[],"categories_nodes":[],"categories_segments":[],"categories_sizes":[],"default_left":[0,0,0,0,0,0,0,0,0,0,0,0,0],"id":15,"left_children":[1,3,5,-1,7,9,11,-1,-1,-1,-1,-1,-1],"loss_changes":[4.137774E-3,2.6226684E-3,7.1459664E-3,0E0,8.202033E-4,8.3473865E-3,4.1587427E-3,0E0,0E0,0E0,0E0,0E0,0E0],"parents":[2147483647,0,0,1,1,2,2,4,4,5,5,6,6],"right_children":[2,4,6,-1,8,10,12,-1,-1,-1,-1,-1,-1],"split_conditions":[-2.9385678E-2,-3.2102757E-3,4.8479293E-2,-3.9962754E-3,-2.0658812E-2,-3.9006954E-3,1.125234E-1,-1.4193723E-3,9.292581E-4,1.9330186E-4,4.7185128E-3,-2.1572427E-3,1.6351584E-3],"split_indices":[3,2,1,0,1,1,1,0,0,0,0,0,0],"split_type":[0,0,0,0,0,0,0,0,0,0,0,0,0],"sum_hessian":[3.9E1,7E0,3.2E1,3E0,4E0,1.8E1,1.4E1,2E0,2E0,1.3E1,5E0,1.1E1,3E0],"tree_param":{"num_deleted":"0","num_feature":"5","num_nodes":"13","size_leaf_vector":"1"}},{"base_weights":[-4.0396797E-3,1.211287E-2,-9.470225E-3,-1.6024834E-2,2.6461149E-2,-1.2241006E-2,1.8623546E-3,-2.9755742E-3,-1.5292845E-4,7.5335236E-4,3.2525496E-3,5.635365E-4,-1.655997E-3],"categories":[],"categories_nodes":[],"categories_segments":[],"categories_sizes":[],"default_left":[0,0,0,0,0,0,0,0,0,0,0,0,0],"id":16,"left_children":[1,3,5,7,9,11,-1,-1,-1,-1,-1,-1,-1],"loss_changes":[3.4479634E-3,4.4613113E-3,2.48538E-3,7.506432E-4,5.5845454E-4,2.1779216E-3,0E0,0E0,0E0,0E0,0E0,0E0,0E0],"parents":[2147483647,0,0,1,1,2,2,3,3,4,4,5,5],"right_children":[2,4,6,8,10,12,-1,-1,-1,-1,-1,-1,-1],"split_conditions":[-2.0658812E-2,-3.2102757E-3,1.125234E-1,-1.6615335E-2,3.6884848E-2,-5.352934E-2,1.8623546E-3,-2.9755742E-3,-1.5292845E-4,7.5335236E-4,3.2525496E-3,5.635365E-4,-1.655997E-3],"split_indices":[4,0,1,0,3,1,0,0,0,0,0,0,0],"split_type":[0,0,0,0,0,0,0,0,0,0,0,0,0],"sum_hessian":[3.7E1,9E0,2.8E1,3E0,6E0,2.6E1,2E0,1E0,2E0,2E0,4E0,5E0,2.1E1],"tree_param":{"num_deleted":"0","num_feature":"5","num_nodes":"13","size_leaf_vector":"1"}},{"base_weights":[3.6781542E-3,1.9728346E-2,-5.457079E-3,2.5126303E-2,-8.4396005E-3,-2.1639878E-2,6.774113E-3,5.0468015E-4,2.6492912E-3,-1.1707932E-3,-9.51469E-5,-3.6197938E-3,3.069378E-4,2.855339E-3,-6.970865E-4],"categories":[],"categories_nodes":[],"categories_segments":[],"categories_sizes":[],"default_left":[0,0,0,0,0,0,0,0,0,0,0,0,0,0,0],"id":17,"left_children":[1,3,5,7,9,11,13,-1,-1,-1,-1,-1,-1,-1,-1],"loss_changes":[5.6793042E-3,2.3407475E-3,5.094964E-3,1.9558519E-4,6.228134E-5,4.068012E-3,4.6893777E-3,0E0,0E0,0E0,0E0,0E0,0E0,0E0,0E0],"parents":[2147483647,0,0,1,1,2,2,3,3,4,4,5,5,6,6],"right_children":[2,4,6,8,10,12,14,-1,-1,-1,-1,-1,-1,-1,-1],"split_conditions":[-8.819561E-3,8.714325E-2,6.8904315E-3,-6.374996E-2,-2.9385678E-2,5.1249288E-2,4.275315E-2,5.0468015E-4,2.6492912E-3,-1.1707932E-3,-9.51469E-5,-3.6197938E-3,3.069378E-4,2.855339E-3,-6.970865E-4],"split_indices":[4,3,1,4,1,2,1,0,0,0,0,0,0,0,0],"split_type":[0,0,0,0,0,0,0,0,0,0,0,0,0,0,0],"sum_hessian":[3.7E1,1.3E1,2.4E1,1.1E1,2E0,1E1,1.4E1,1E0,1E1,1E0,1E0,6E0,4E0,5E0,9E0],"tree_param":{"num_deleted":"0","num_feature":"5","num_nodes":"15","size_leaf_vector":"1"}},{"base_weights":[-1.5382054E-3,6.0791234E-3,-1.2099919E-2,-6.2721553E-3,2.693397E-2,-1.987532E-2,1.4251265E-2,-2.297514E-3,9.126975E-4,4.161211E-3,1.8528009E-4,4.7944617E-4,-2.2553888E-3,1.7324784E-4,1.7846702E-3],"categories":[],"categories_nodes":[],"categories_segments":[],"categories_sizes":[],"default_left":[0,0,0,0,0,0,0,0,0,0,0,0,0,0,0],"id":18,"left_children":[1,3,5,7,9,11,13,-1,-1,-1,-1,-1,-1,-1,-1],"loss_changes":[2.8893785E-3,5.5781985E-3,3.3566137E-3,3.8106535E-3,2.8680614E-3,9.0109E-4,1.4912296E-4,0E0,0E0,0E0,0E0,0E0,0E0,0E0,0E0],"parents":[2147483647,0,0,1,1,2,2,3,3,4,4,5,5,6,6],"right_children":[2,4,6,8,10,12,14,-1,-1,-1,-1,-1,-1,-1,-1],"split_conditions":[4.8479293E-2,6.8904315E-3,1.125234E-1,1.3971569E-2,4.8479293E-2,-3.154836E-2,1.2653461E-1,-2.297514E-3,9.126975E-4,4.161211E-3,1.8528009E-4,4.7944617E-4,-2.2553888E-3,1.7324784E-4,1.7846702E-3],"split_indices":[1,1,1,2,4,3,1,0,0,0,0,0,0,0,0],"split_type":[0,0,0,0,0,0,0,0,0,0,0,0,0,0,0],"sum_hessian":[3.4E1,2E1,1.4E1,1.3E1,7E0,1.1E1,3E0,6E0,7E0,4E0,3E0,1E0,1E1,1E0,2E0],"tree_param":{"num_deleted":"0","num_feature":"5","num_nodes":"15","size_leaf_vector":"1"}},{"base_weights":[9.92138E-4,-1.4233727E-3,2.9647553E-3,4.5965607E-3,-1.1211594E-2,-5.540766E-4,4.219909E-3,-3.3461961E-3,1.0347504E-4],"categories":[],"categories_nodes":[],"categories_segments":[],"categories_sizes":[],"default_left":[0,0,0,0,0,0,0,0,0],"id":19,"left_children":[1,3,-1,5,7,-1,-1,-1,-1],"loss_changes":[2.6724632E-3,2.1728147E-3,0E0,9.001165E-3,3.849424E-3,0E0,0E0,0E0,0E0],"parents":[2147483647,0,0,1,1,3,3,4,4],"right_children":[2,4,-1,6,8,-1,-1,-1,-1],"split_conditions":[1.2653461E-1,4.992392E-2,2.9647553E-3,1.3971569E-2,5.775357E-2,-5.540766E-4,4.219909E-3,-3.3461961E-3,1.0347504E-4],"split_indices":[2,2,0,2,2,0,0,0,0],"split_type":[0,0,0,0,0,0,0,0,0],"sum_hessian":[3.7E1,3.5E1,2E0,2.2E1,1.3E1,1.8E1,4E0,4E0,9E0],"tree_param":{"num_deleted":"0","num_feature":"5","num_nodes":"9","size_leaf_vector":"1"}},{"base_weights":[2.8908718E-3,4.769379E-3,-3.5185448E-3,1.4790998E-2,-1.4343678E-3,9.547377E-4,4.4100843E-3,-2.9269152E-3,3.6917004E-4],"categories":[],"categories_nodes":[],"categories_segments":[],"categories_sizes":[],"default_left":[0,0,0,0,0,0,0,0,0],"id":20,"left_children":[1,3,-1,5,7,-1,-1,-1,-1],"loss_changes":[3.028878E-3,2.4459076E-3,0E0,1.8842982E-3,3.6751276E-3,0E0,0E0,0E0,0E0],"parents":[2147483647,0,0,1,1,3,3,4,4],"right_children":[2,4,-1,6,8,-1,-1,-1,-1],"split_conditions":[1.267353E-1,-1.0461342E-2,-3.5185448E-3,8.714325E-2,6.8904315E-3,9.547377E-4,4.4100843E-3,-2.9269152E-3,3.6917004E-4],"split_indices":[4,3,0,0,3,0,0,0,0],"split_type":[0,0,0,0,0,0,0,0,0],"sum_hessian":[3.9E1,3.8E1,1E0,1.4E1,2.4E1,1.3E1,1E0,3E0,2.1E1],"tree_param":{"num_deleted":"0","num_feature":"5","num_nodes":"9","size_leaf_vector":"1"}},{"base_weights":[1.9617046E-3,-1.4007484E-4,2.7229749E-3,6.837841E-3,-1.2092211E-2,-3.729772E-4,2.486495E-3,-2.6941E-3,2.4120054E-4],"categories":[],"categories_nodes":[],"categories_segments":[],"categories_sizes":[],"default_left":[0,0,0,0,0,0,0,0,0],"id":21,"left_children":[1,3,-1,5,7,-1,-1,-1,-1],"loss_changes":[2.0750205E-3,3.1685217E-3,0E0,4.6648243E-3,3.0801627E-3,0E0,0E0,0E0,0E0],"parents":[2147483647,0,0,1,1,3,3,4,4],"right_children":[2,4,-1,6,8,-1,-1,-1,-1],"split_conditions":[1.2653461E-1,4.992392E-2,2.7229749E-3,-1.43239135E-2,3.427414E-2,-3.729772E-4,2.486495E-3,-2.6941E-3,2.4120054E-4],"split_indices":[2,2,0,2,0,0,0,0,0],"split_type":[0,0,0,0,0,0,0,0,0],"sum_hessian":[3.8E1,3.6E1,2E0,2.3E1,1.3E1,1.5E1,8E0,6E0,7E0],"tree_param":{"num_deleted":"0","num_feature":"5","num_nodes":"9","size_leaf_vector":"1"}},{"base_weights":[1.1468286E-3,1.0561308E-2,-6.0807187E-3,1.6738035E-2,2.2865353E-4,-1.9003317E-2,7.394673E-3,2.0752226E-3,-9.6948363E-4,-2.3981303E-3,8.26053E-4,-2.5037357E-3,2.066854E-3,3.7560721E-3,-3.4823062E-4],"categories":[],"categories_nodes":[],"categories_segments":[],"categories_sizes":[],"default_left":[0,0,0,0,0,0,0,0,0,0,0,0,0,0,0],"id":22,"left_children":[1,3,5,7,9,11,13,-1,-1,-1,-1,-1,-1,-1,-1],"loss_changes":[2.5137898E-3,1.0173245E-3,3.7974017E-3,1.262255E-3,1.5592577E-3,3.150683E-3,3.7400678E-3,0E0,0E0,0E0,0E0,0E0,0E0,0E0,0E0],"parents":[2147483647,0,0,1,1,2,2,3,3,4,4,5,5,6,6],"right_children":[2,4,6,8,10,12,14,-1,-1,-1,-1,-1,-1,-1,-1],"split_conditions":[-8.819561E-3,1.3971569E-2,-3.2102757E-3,7.333223E-2,5.1249288E-2,1.125234E-1,3.427414E-2,2.0752226E-3,-9.6948363E-4,-2.3981303E-3,8.26053E-4,-2.5037357E-3,2.066854E-3,3.7560721E-3,-3.4823062E-4],"split_indices":[4,1,2,3,1,3,2,0,0,0,0,0,0,0,0],"split_type":[0,0,0,0,0,0,0,0,0,0,0,0,0,0,0],"sum_hessian":[3.5E1,1.5E1,2E1,9E0,6E0,1E1,1E1,8E0,1E0,1E0,5E0,9E0,1E0,2E0,8E0],"tree_param":{"num_deleted":"0","num_feature":"5","num_nodes":"15","size_leaf_vector":"1"}},{"base_weights":[2.6978364E-3,8.729507E-4,2.552207E-3,-1.5151545E-2,4.851795E-3,-2.6940927E-3,3.3730685E-4,1.1075124E-3,-8.0359355E-4],"categories":[],"categories_nodes":[],"categories_segments":[],"categories_sizes":[],"default_left":[0,0,0,0,0,0,0,0,0],"id":23,"left_children":[1,3,-1,5,7,-1,-1,-1,-1],"loss_changes":[1.6854368E-3,2.5601122E-3,0E0,1.8380233E-3,2.655546E-3,0E0,0E0,0E0,0E0],"parents":[2147483647,0,0,1,1,3,3,4,4],"right_children":[2,4,-1,6,8,-1,-1,-1,-1],"split_conditions":[1.2653461E-1,-2.9385678E-2,2.552207E-3,1.3971569E-2,4.992392E-2,-2.6940927E-3,3.3730685E-4,1.1075124E-3,-8.0359355E-4],"split_indices":[2,3,0,2,2,0,0,0,0],"split_type":[0,0,0,0,0,0,0,0,0],"sum_hessian":[4E1,3.8E1,2E0,7E0,3.1E1,4E0,3E0,2.1E1,1E1],"tree_param":{"num_deleted":"0","num_feature":"5","num_nodes":"9","size_leaf_vector":"1"}},{"base_weights":[2.3630704E-3,-3.2532155E-3,2.6095284E-2,1.4022584E-3,-1.623105E-2,3.9007494E-3,6.6592563E-3,5.2233133E-4,-1.3398201E-3,-2.5815638E-3,-1.9255327E-5,-3.8418945E-4,1.9081355E-3],"categories":[],"categories_nodes":[],"categories_segments":[],"categories_sizes":[],"default_left":[0,0,0,0,0,0,0,0,0,0,0,0,0],"id":24,"left_children":[1,3,5,7,9,-1,11,-1,-1,-1,-1,-1,-1],"loss_changes":[4.883222E-3,1.8352992E-3,1.4969734E-3,1.3707104E-3,1.2248084E-3,0E0,5.950939E-4,0E0,0E0,0E0,0E0,0E0,0E0],"parents":[2147483647,0,0,1,1,2,2,3,3,4,4,6,6],"right_children":[2,4,6,8,10,-1,12,-1,-1,-1,-1,-1,-1],"split_conditions":[8.714325E-2,5.0717525E-2,1.0651168E-1,9.937102E-2,5.775357E-2,3.9007494E-3,1.2653461E-1,5.2233133E-4,-1.3398201E-3,-2.5815638E-3,-1.9255327E-5,-3.8418945E-4,1.9081355E-3],"split_indices":[0,0,0,3,0,0,0,0,0,0,0,0,0],"split_type":[0,0,0,0,0,0,0,0,0,0,0,0,0],"sum_hessian":[3.5E1,2.9E1,6E0,2.2E1,7E0,3E0,3E0,1.8E1,4E0,4E0,3E0,2E0,1E0],"tree_param":{"num_deleted":"0","num_feature":"5","num_nodes":"13","size_leaf_vector":"1"}},{"base_weights":[1.307457E-3,6.453221E-3,-7.699031E-3,1.6292065E-3,2.2261735E-2,-2.2890093E-2,8.45441E-3,2.141511E-3,-5.892333E-4,3.608193E-3,-3.5857683E-4,-2.7910871E-3,6.127678E-4,-6.4490724E-4,1.8686313E-3],"categories":[],"categories_nodes":[],"categories_segments":[],"categories_sizes":[],"default_left":[0,0,0,0,0,0,0,0,0,0,0,0,0,0,0],"id":25,"left_children":[1,3,5,7,9,11,13,-1,-1,-1,-1,-1,-1,-1,-1],"loss_changes":[1.9034941E-3,1.946504E-3,3.874341E-3,3.2514147E-3,2.2726865E-3,1.3365629E-3,1.3404372E-3,0E0,0E0,0E0,0E0,0E0,0E0,0E0,0E0],"parents":[2147483647,0,0,1,1,2,2,3,3,4,4,5,5,6,6],"right_children":[2,4,6,8,10,12,14,-1,-1,-1,-1,-1,-1,-1,-1],"split_conditions":[5.1249288E-2,8.714325E-2,-1.0461342E-2,-2.9385678E-2,1.0651168E-1,1.0651168E-1,9.937102E-2,2.141511E-3,-5.892333E-4,3.608193E-3,-3.5857683E-4,-2.7910871E-3,6.127678E-4,-6.4490724E-4,1.8686313E-3],"split_indices":[4,0,2,0,0,1,4,0,0,0,0,0,0,0,0],"split_type":[0,0,0,0,0,0,0,0,0,0,0,0,0,0,0],"sum_hessian":[3.9E1,2.5E1,1.4E1,2E1,5E0,7E0,7E0,5E0,1.5E1,3E0,2E0,6E0,1E0,3E0,4E0],"tree_param":{"num_deleted":"0","num_feature":"5","num_nodes":"15","size_leaf_vector":"1"}},{"base_weights":[9.420299E-5,5.446768E-3,-1.06181735E-2,6.248784E-4,2.5573729E-2,-1.4756826E-2,1.9522831E-3,1.7787857E-3,-6.92298E-4,3.3375786E-3,-2.817253E-4,-2.8943738E-3,-4.884986E-5],"categories":[],"categories_nodes":[],"categories_segments":[],"categories_sizes":[],"default_left":[0,0,0,0,0,0,0,0,0,0,0,0,0],"id":26,"left_children":[1,3,5,7,9,11,-1,-1,-1,-1,-1,-1,-1],"loss_changes":[2.236705E-3,2.507319E-3,1.9097559E-3,2.973107E-3,1.2015689E-3,2.414943E-3,0E0,0E0,0E0,0E0,0E0,0E0,0E0],"parents":[2147483647,0,0,1,1,2,2,3,3,4,4,5,5],"right_children":[2,4,6,8,10,12,-1,-1,-1,-1,-1,-1,-1],"split_conditions":[5.1249288E-2,8.714325E-2,1.125234E-1,-2.639661E-2,1.0651168E-1,8.714325E-2,1.9522831E-3,1.7787857E-3,-6.92298E-4,3.3375786E-3,-2.817253E-4,-2.8943738E-3,-4.884986E-5],"split_indices":[4,0,3,0,0,4,0,0,0,0,0,0,0],"split_type":[0,0,0,0,0,0,0,0,0,0,0,0,0],"sum_hessian":[3.7E1,2.5E1,1.2E1,2.1E1,4E0,1.1E1,1E0,6E0,1.5E1,3E0,1E0,5E0,6E0],"tree_param":{"num_deleted":"0","num_feature":"5","num_nodes":"13","size_leaf_vector":"1"}},{"base_weights":[6.7991443E-4,7.5553767E-3,-1.2594429E-2,-1.9949926E-2,1.2212914E-2,-2.6109722E-3,-3.6865522E-3,-7.979885E-4,-2.7930026E-3,1.8300312E-3,-3.4458403E-4,-2.057473E-3,9.963114E-5],"categories":[],"categories_nodes":[],"categories_segments":[],"categories_sizes":[],"default_left":[0,0,0,0,0,0,0,0,0,0,0,0,0],"id":27,"left_children":[1,3,5,7,9,-1,11,-1,-1,-1,-1,-1,-1],"loss_changes":[3.4720437E-3,3.4463217E-3,1.4688484E-3,1.5921018E-4,2.1601238E-3,0E0,7.3226413E-4,0E0,0E0,0E0,0E0,0E0,0E0],"parents":[2147483647,0,0,1,1,2,2,3,3,4,4,6,6],"right_children":[2,4,6,8,10,-1,12,-1,-1,-1,-1,-1,-1],"split_conditions":[4.992392E-2,-4.9477868E-2,5.775357E-2,-5.9923053E-2,8.714325E-2,-2.6109722E-3,-6.426486E-2,-7.979885E-4,-2.7930026E-3,1.8300312E-3,-3.4458403E-4,-2.057473E-3,9.963114E-5],"split_indices":[2,3,2,3,3,0,0,0,0,0,0,0,0],"split_type":[0,0,0,0,0,0,0,0,0,0,0,0,0],"sum_hessian":[3.6E1,2.4E1,1.2E1,3E0,2.1E1,4E0,8E0,2E0,1E0,1.5E1,6E0,1E0,7E0],"tree_param":{"num_deleted":"0","num_feature":"5","num_nodes":"13","size_leaf_vector":"1"}},{"base_weights":[2.5931313E-3,-4.2395135E-3,1.0040896E-2,-1.5558436E-2,6.4358264E-3,-1.17661245E-2,1.5186708E-2,5.0532876E-4,-2.511393E-3,1.9270042E-3,-7.471027E-4,-2.2435104E-3,1.0120407E-3,2.6801499E-3,1.0049551E-3],"categories":[],"categories_nodes":[],"categories_segments":[],"categories_sizes":[],"default_left":[0,0,0,0,0,0,0,0,0,0,0,0,0,0,0],"id":28,"left_children":[1,3,5,7,9,11,13,-1,-1,-1,-1,-1,-1,-1,-1],"loss_changes":[1.925422E-3,2.516798E-3,2.1985557E-3,2.0964595E-3,2.1072861E-3,1.1610802E-3,6.256616E-4,0E0,0E0,0E0,0E0,0E0,0E0,0E0,0E0],"parents":[2147483647,0,0,1,1,2,2,3,3,4,4,5,5,6,6],"right_children":[2,4,6,8,10,12,14,-1,-1,-1,-1,-1,-1,-1,-1],"split_conditions":[1.3971569E-2,3.427414E-2,-4.7672376E-2,-4.9477868E-2,5.775357E-2,6.151854E-2,4.275315E-2,5.0532876E-4,-2.511393E-3,1.9270042E-3,-7.471027E-4,-2.2435104E-3,1.0120407E-3,2.6801499E-3,1.0049551E-3],"split_indices":[2,1,0,4,1,1,2,0,0,0,0,0,0,0,0],"split_type":[0,0,0,0,0,0,0,0,0,0,0,0,0,0,0],"sum_hessian":[3.6E1,1.9E1,1.7E1,9E0,1E1,3E0,1.4E1,3E0,6E0,5E0,5E0,2E0,1E0,3E0,1.1E1],"tree_param":{"num_deleted":"0","num_feature":"5","num_nodes":"15","size_leaf_vector":"1"}},{"base_weights":[-6.8389997E-4,-2.5583052E-3,2.2036931E-3,-7.0984187E-3,7.1134567E-3,-3.2199617E-4,-2.6655328E-3,2.410393E-3,-4.39477E-4],"categories":[],"categories_nodes":[],"categories_segments":[],"categories_sizes":[],"default_left":[0,0,0,0,0,0,0,0,0],"id":29,"left_children":[1,3,-1,5,7,-1,-1,-1,-1],"loss_changes":[1.6747226E-3,1.6312867E-3,0E0,1.8104366E-3,2.4522934E-3,0E0,0E0,0E0,0E0],"parents":[2147483647,0,0,1,1,3,3,4,4],"right_children":[2,4,-1,6,8,-1,-1,-1,-1],"split_conditions":[1.125234E-1,5.6898598E-2,2.2036931E-3,4.992392E-2,8.714325E-2,-3.2199617E-4,-2.6655328E-3,2.410393E-3,-4.39477E-4],"split_indices":[2,3,0,3,3,0,0,0,0],"split_type":[0,0,0,0,0,0,0,0,0],"sum_hessian":[3.7E1,3.5E1,2E0,2.4E1,1.1E1,2.1E1,3E0,4E0,7E0],"tree_param":{"num_deleted":"0","num_feature":"5","num_nodes":"9","size_leaf_vector":"1"}},{"base_weights":[-7.80934E-4,4.100329E-3,-9.093032E-3,-3.2132986E-4,1.741886E-2,-1.25579145E-2,1.7975218E-3,-3.9887452E-4,2.05678E-3,-5.5589667E-4,3.0297514E-3,-3.5256648E-4,-2.6304382E-3],"categories":[],"categories_nodes":[],"categories_segments":[],"categories_sizes":[],"default_left":[0,0,0,0,0,0,0,0,0,0,0,0,0],"id":30,"left_children":[1,3,5,7,9,11,-1,-1,-1,-1,-1,-1,-1],"loss_changes":[1.5385052E-3,1.4189573E-3,1.5387675E-3,1.537613E-3,1.9439639E-3,1.5213592E-3,0E0,0E0,0E0,0E0,0E0,0E0,0E0],"parents":[2147483647,0,0,1,1,2,2,3,3,4,4,5,5],"right_children":[2,4,6,8,10,12,-1,-1,-1,-1,-1,-1,-1],"split_conditions":[5.1249288E-2,2.878725E-2,1.125234E-1,1.125234E-1,-5.9923053E-2,4.8479293E-2,1.7975218E-3,-3.9887452E-4,2.05678E-3,-5.5589667E-4,3.0297514E-3,-3.5256648E-4,-2.6304382E-3],"split_indices":[4,4,3,2,3,0,0,0,0,0,0,0,0],"split_type":[0,0,0,0,0,0,0,0,0,0,0,0,0],"sum_hessian":[3.6E1,2.3E1,1.3E1,1.8E1,5E0,1.2E1,1E0,1.6E1,2E0,2E0,3E0,8E0,4E0],"tree_param":{"num_deleted":"0","num_feature":"5","num_nodes":"13","size_leaf_vector":"1"}},{"base_weights":[1.8738838E-3,1.109104E-2,-3.316162E-3,1.3767003E-2,-4.201813E-3,-1.1791071E-2,1.5763519E-3,1.5347415E-4,1.5851529E-3,-8.1143714E-4,1.811652E-4,-2.6164677E-3,-1.893143E-4,1.5777005E-3,-6.838725E-4],"categories":[],"categories_nodes":[],"categories_segments":[],"categories_sizes":[],"default_left":[0,0,0,0,0,0,0,0,0,0,0,0,0,0,0],"id":31,"left_children":[1,3,5,7,9,11,13,-1,-1,-1,-1,-1,-1,-1,-1],"loss_changes":[1.9981158E-3,6.716929E-4,1.1381042E-3,3.0715205E-4,8.528451E-5,1.3731555E-3,2.258887E-3,0E0,0E0,0E0,0E0,0E0,0E0,0E0,0E0],"parents":[2147483647,0,0,1,1,2,2,3,3,4,4,5,5,6,6],"right_children":[2,4,6,8,10,12,14,-1,-1,-1,-1,-1,-1,-1,-1],"split_conditions":[-8.819561E-3,8.714325E-2,-3.2102757E-3,-5.352934E-2,-2.9385678E-2,-3.2102757E-3,4.275315E-2,1.5347415E-4,1.5851529E-3,-8.1143714E-4,1.811652E-4,-2.6164677E-3,-1.893143E-4,1.5777005E-3,-6.838725E-4],"split_indices":[4,3,1,1,1,2,1,0,0,0,0,0,0,0,0],"split_type":[0,0,0,0,0,0,0,0,0,0,0,0,0,0,0],"sum_hessian":[4E1,1.4E1,2.6E1,1.2E1,2E0,9E0,1.7E1,2E0,1E1,1E0,1E0,3E0,6E0,6E0,1.1E1],"tree_param":{"num_deleted":"0","num_feature":"5","num_nodes":"15","size_leaf_vector":"1"}},{"base_weights":[-1.3708104E-3,-2.9586202E-3,1.8139845E-3,-7.1285274E-3,7.16649E-3,-3.790072E-4,-2.4542517E-3,1.6675586E-3,-3.5370214E-4],"categories":[],"categories_nodes":[],"categories_segments":[],"categories_sizes":[],"default_left":[0,0,0,0,0,0,0,0,0],"id":32,"left_children":[1,3,-1,5,7,-1,-1,-1,-1],"loss_changes":[1.2308788E-3,1.5710343E-3,0E0,1.4185137E-3,1.1785697E-3,0E0,0E0,0E0,0E0],"parents":[2147483647,0,0,1,1,3,3,4,4],"right_children":[2,4,-1,6,8,-1,-1,-1,-1],"split_conditions":[1.2653461E-1,5.6898598E-2,1.8139845E-3,4.8479293E-2,8.714325E-2,-3.790072E-4,-2.4542517E-3,1.6675586E-3,-3.5370214E-4],"split_indices":[2,3,0,3,3,0,0,0,0],"split_type":[0,0,0,0,0,0,0,0,0],"sum_hessian":[3.7E1,3.5E1,2E0,2.5E1,1E1,2.2E1,3E0,5E0,5E0],"tree_param":{"num_deleted":"0","num_feature":"5","num_nodes":"9","size_leaf_vector":"1"}},{"base_weights":[1.3120136E-3,2.5204287E-3,-2.2303879E-3,6.9606146E-3,-4.7518974E-3,1.1901068E-4,2.4073787E-3,-2.3076131E-3,4.00929E-4],"categories":[],"categories_nodes":[],"categories_segments":[],"categories_sizes":[],"default_left":[0,0,0,0,0,0,0,0,0],"id":33,"left_children":[1,3,-1,5,7,-1,-1,-1,-1],"loss_changes":[1.1691896E-3,1.2601144E-3,0E0,2.3413906E-3,2.5006495E-3,0E0,0E0,0E0,0E0],"parents":[2147483647,0,0,1,1,3,3,4,4],"right_children":[2,4,-1,6,8,-1,-1,-1,-1],"split_conditions":[1.267353E-1,4.992392E-2,-2.2303879E-3,1.3971569E-2,5.775357E-2,1.1901068E-4,2.4073787E-3,-2.3076131E-3,4.00929E-4],"split_indices":[4,2,0,2,2,0,0,0,0],"split_type":[0,0,0,0,0,0,0,0,0],"sum_hessian":[3.8E1,3.7E1,1E0,2.3E1,1.4E1,1.8E1,5E0,4E0,1E1],"tree_param":{"num_deleted":"0","num_feature":"5","num_nodes":"9","size_leaf_vector":"1"}},{"base_weights":[1.277807E-3,8.879682E-3,-2.5763726E-3,-1.4702718E-2,1.8374117E-2,-2.9052275E-3,1.1510857E-3,-5.4778345E-4,-2.1188685E-3,2.3004462E-3,1.4452761E-4,1.3449028E-3,-5.484556E-4],"categories":[],"categories_nodes":[],"categories_segments":[],"categories_sizes":[],"default_left":[0,0,0,0,0,0,0,0,0,0,0,0,0],"id":34,"left_children":[1,3,5,7,9,-1,11,-1,-1,-1,-1,-1,-1],"loss_changes":[1.0483421E-3,2.9569685E-3,2.4019494E-3,1.2326107E-4,6.722291E-4,0E0,1.8690659E-3,0E0,0E0,0E0,0E0,0E0,0E0],"parents":[2147483647,0,0,1,1,2,2,3,3,4,4,6,6],"right_children":[2,4,6,8,10,-1,12,-1,-1,-1,-1,-1,-1],"split_conditions":[-1.43239135E-2,1.3971569E-2,6.8904315E-3,-5.9923053E-2,9.9751495E-2,-2.9052275E-3,-2.0658812E-2,-5.4778345E-4,-2.1188685E-3,2.3004462E-3,1.4452761E-4,1.3449028E-3,-5.484556E-4],"split_indices":[3,2,3,3,4,0,2,0,0,0,0,0,0],"split_type":[0,0,0,0,0,0,0,0,0,0,0,0,0],"sum_hessian":[3.4E1,1.1E1,2.3E1,3E0,8E0,2E0,2.1E1,2E0,1E0,6E0,2E0,7E0,1.4E1],"tree_param":{"num_deleted":"0","num_feature":"5","num_nodes":"13","size_leaf_vector":"1"}},{"base_weights":[-3.989263E-3,-2.0889223E-2,-1.8198962E-3,-2.5481905E-3,-3.5555902E-4,3.5629355E-4,-1.7686345E-3,1.1416128E-3,-2.884337E-4],"categories":[],"categories_nodes":[],"categories_segments":[],"categories_sizes":[],"default_left":[0,0,0,0,0,0,0,0,0],"id":35,"left_children":[1,3,5,-1,-1,7,-1,-1,-1],"loss_changes":[1.2818235E-3,2.2782804E-4,1.1457388E-3,0E0,0E0,1.1081528E-3,0E0,0E0,0E0],"parents":[2147483647,0,0,1,1,2,2,5,5],"right_children":[2,4,6,-1,-1,8,-1,-1,-1],"split_conditions":[-5.393587E-2,5.6898598E-2,1.0651168E-1,-2.5481905E-3,-3.5555902E-4,-2.5445243E-2,-1.7686345E-3,1.1416128E-3,-2.884337E-4],"split_indices":[0,3,3,0,0,0,0,0,0],"split_type":[0,0,0,0,0,0,0,0,0],"sum_hessian":[3.5E1,3E0,3.2E1,2E0,1E0,2.9E1,3E0,6E0,2.3E1],"tree_param":{"num_deleted":"0","num_feature":"5","num_nodes":"9","size_leaf_vector":"1"}},{"base_weights":[-2.554043E-4,-5.5290936E-3,3.9214767E-3,2.3125717E-3,-1.2679622E-2,9.747234E-3,-1.434009E-2,-7.505808E-4,9.7047613E-4,2.6124928E-4,-1.821241E-3,1.7935403E-3,3.8596088E-4,-2.0469283E-3,-3.4308678E-4],"categories":[],"categories_nodes":[],"categories_segments":[],"categories_sizes":[],"default_left":[0,0,0,0,0,0,0,0,0,0,0,0,0,0,0],"id":36,"left_children":[1,3,5,7,9,11,13,-1,-1,-1,-1,-1,-1,-1,-1],"loss_changes":[7.485921E-4,8.7040337E-4,2.1611378E-3,6.534766E-4,7.244437E-4,6.539094E-4,2.640962E-4,0E0,0E0,0E0,0E0,0E0,0E0,0E0,0E0],"parents":[2147483647,0,0,1,1,2,2,3,3,4,4,5,5,6,6],"right_children":[2,4,6,8,10,12,14,-1,-1,-1,-1,-1,-1,-1,-1],"split_conditions":[6.8904315E-3,-1.8636452E-2,3.427414E-2,-1.0461342E-2,-2.9696131E-2,4.275315E-2,-1.8636452E-2,-7.505808E-4,9.7047613E-4,2.6124928E-4,-1.821241E-3,1.7935403E-3,3.8596088E-4,-2.0469283E-3,-3.4308678E-4],"split_indices":[1,1,2,2,2,1,0,0,0,0,0,0,0,0,0],"split_type":[0,0,0,0,0,0,0,0,0,0,0,0,0,0,0],"sum_hessian":[3.2E1,1.4E1,1.8E1,7E0,7E0,1.4E1,4E0,3E0,4E0,2E0,5E0,5E0,9E0,2E0,2E0],"tree_param":{"num_deleted":"0","num_feature":"5","num_nodes":"15","size_leaf_vector":"1"}},{"base_weights":[2.2353756E-4,-1.2636595E-2,2.8646374E-3,-1.7924331E-2,3.88495E-4,7.636743E-3,-3.689146E-3,-5.324351E-4,-1.9743238E-3,-2.6720483E-4,3.2547908E-4,1.1179951E-4,1.5479879E-3,-8.2354195E-4,1.087196E-3],"categories":[],"categories_nodes":[],"categories_segments":[],"categories_sizes":[],"default_left":[0,0,0,0,0,0,0,0,0,0,0,0,0,0,0],"id":37,"left_children":[1,3,5,7,9,11,13,-1,-1,-1,-1,-1,-1,-1,-1],"loss_changes":[1.394795E-3,4.8907613E-4,1.0915349E-3,9.471085E-6,3.5014225E-5,1.0052422E-3,1.0825166E-3,0E0,0E0,0E0,0E0,0E0,0E0,0E0,0E0],"parents":[2147483647,0,0,1,1,2,2,3,3,4,4,5,5,6,6],"right_children":[2,4,6,8,10,12,14,-1,-1,-1,-1,-1,-1,-1,-1],"split_conditions":[-2.9385678E-2,-3.2102757E-3,4.8479293E-2,-2.9696131E-2,6.8904315E-3,-1.6615335E-2,1.125234E-1,-5.324351E-4,-1.9743238E-3,-2.6720483E-4,3.2547908E-4,1.1179951E-4,1.5479879E-3,-8.2354195E-4,1.087196E-3],"split_indices":[3,1,1,1,1,1,1,0,0,0,0,0,0,0,0],"split_type":[0,0,0,0,0,0,0,0,0,0,0,0,0,0,0],"sum_hessian":[3.9E1,6E0,3.3E1,4E0,2E0,1.9E1,1.4E1,1E0,3E0,1E0,1E0,1.1E1,8E0,1.1E1,3E0],"tree_param":{"num_deleted":"0","num_feature":"5","num_nodes":"15","size_leaf_vector":"1"}},{"base_weights":[-8.985745E-4,-2.2190947E-3,1.5247193E-2,5.2736844E-3,-4.5482344E-3,1.8269446E-3,4.6013444E-4,1.1985082E-3,-6.111832E-4,-2.354617E-3,-2.1812331E-4],"categories":[],"categories_nodes":[],"categories_segments":[],"categories_sizes":[],"default_left":[0,0,0,0,0,0,0,0,0,0,0],"id":38,"left_children":[1,3,5,7,9,-1,-1,-1,-1,-1,-1],"loss_changes":[8.4402587E-4,6.522483E-4,1.245935E-5,7.6096517E-4,1.2077482E-3,0E0,0E0,0E0,0E0,0E0,0E0],"parents":[2147483647,0,0,1,1,2,2,3,3,4,4],"right_children":[2,4,6,8,10,-1,-1,-1,-1,-1,-1],"split_conditions":[1.2653461E-1,-2.9696131E-2,-2.9385678E-2,-1.43239135E-2,-5.393587E-2,1.8269446E-3,4.6013444E-4,1.1985082E-3,-6.111832E-4,-2.354617E-3,-2.1812331E-4],"split_indices":[2,2,0,0,0,0,0,0,0,0,0],"split_type":[0,0,0,0,0,0,0,0,0,0,0],"sum_hessian":[3.7E1,3.5E1,2E0,8E0,2.7E1,1E0,1E0,5E0,3E0,2E0,2.5E1],"tree_param":{"num_deleted":"0","num_feature":"5","num_nodes":"11","size_leaf_vector":"1"}},{"base_weights":[-3.9439744E-4,3.2062514E-3,-7.842329E-3,3.0420639E-5,1.7173823E-2,-2.1299403E-2,5.051926E-4,-2.0359443E-4,1.4484836E-3,-2.2328552E-4,2.2583704E-3,-1.981712E-4,-2.56334E-3,-1.0737994E-3,7.9164514E-4],"categories":[],"categories_nodes":[],"categories_segments":[],"categories_sizes":[],"default_left":[0,0,0,0,0,0,0,0,0,0,0,0,0,0,0],"id":39,"left_children":[1,3,5,7,9,11,13,-1,-1,-1,-1,-1,-1,-1,-1],"loss_changes":[1.0710226E-3,1.1971609E-3,1.4710923E-3,7.164565E-4,5.7536527E-4,3.678156E-4,8.349423E-4,0E0,0E0,0E0,0E0,0E0,0E0,0E0,0E0],"parents":[2147483647,0,0,1,1,2,2,3,3,4,4,5,5,6,6],"right_children":[2,4,6,8,10,12,14,-1,-1,-1,-1,-1,-1,-1,-1],"split_conditions":[5.1249288E-2,3.0393729E-2,-1.6615335E-2,1.125234E-1,-6.374996E-2,-5.9923053E-2,8.714325E-2,-2.0359443E-4,1.4484836E-3,-2.2328552E-4,2.2583704E-3,-1.981712E-4,-2.56334E-3,-1.0737994E-3,7.9164514E-4],"split_indices":[4,4,2,2,3,0,4,0,0,0,0,0,0,0,0],"split_type":[0,0,0,0,0,0,0,0,0,0,0,0,0,0,0],"sum_hessian":[3.8E1,2.6E1,1.2E1,2.2E1,4E0,4E0,8E0,2E1,2E0,1E0,3E0,1E0,3E0,3E0,5E0],"tree_param":{"num_deleted":"0","num_feature":"5","num_nodes":"15","size_leaf_vector":"1"}},{"base_weights":[-1.1204146E-3,7.826723E-3,-5.547299E-3,1.0516297E-2,-3.7474318E-3,5.4576793E-3,-8.730592E-3,1.217725E-3,-2.2161398E-4,1.03151426E-4,-6.6526624E-4,1.0776633E-3,-1.0568543E-3,-9.986861E-4,6.941114E-4],"categories":[],"categories_nodes":[],"categories_segments":[],"categories_sizes":[],"default_left":[0,0,0,0,0,0,0,0,0,0,0,0,0,0,0],"id":40,"left_children":[1,3,5,7,9,11,13,-1,-1,-1,-1,-1,-1,-1,-1],"loss_changes":[1.4296952E-3,4.1296368E-4,8.8841846E-4,2.3846631E-4,4.851413E-5,6.2534964E-4,4.433893E-4,0E0,0E0,0E0,0E0,0E0,0E0,0E0,0E0],"parents":[2147483647,0,0,1,1,2,2,3,3,4,4,5,5,6,6],"right_children":[2,4,6,8,10,12,14,-1,-1,-1,-1,-1,-1,-1,-1],"split_conditions":[-1.8636452E-2,8.714325E-2,-4.7672376E-2,1.0651168E-1,-2.0658812E-2,8.714325E-2,1.0651168E-1,1.217725E-3,-2.2161398E-4,1.03151426E-4,-6.6526624E-4,1.0776633E-3,-1.0568543E-3,-9.986861E-4,6.941114E-4],"split_indices":[4,3,1,0,0,0,1,0,0,0,0,0,0,0,0],"split_type":[0,0,0,0,0,0,0,0,0,0,0,0,0,0,0],"sum_hessian":[3.4E1,1.1E1,2.3E1,9E0,2E0,5E0,1.8E1,8E0,1E0,1E0,1E0,4E0,1E0,1.7E1,1E0],"tree_param":{"num_deleted":"0","num_feature":"5","num_nodes":"15","size_leaf_vector":"1"}},{"base_weights":[1.0209708E-3,9.948917E-3,-1.0279517E-3,1.5904386E-2,-1.2891946E-3,-1.0919676E-2,1.7828492E-3,1.8001723E-3,2.70885E-4,2.6940482E-4,-1.3637638E-3,-2.667914E-4,1.6321586E-3],"categories":[],"categories_nodes":[],"categories_segments":[],"categories_sizes":[],"default_left":[0,0,0,0,0,0,0,0,0,0,0,0,0],"id":41,"left_children":[1,3,5,7,-1,9,11,-1,-1,-1,-1,-1,-1],"loss_changes":[6.8705576E-4,1.1572347E-3,8.8138174E-4,1.1728902E-4,0E0,2.9575167E-4,1.6612565E-3,0E0,0E0,0E0,0E0,0E0,0E0],"parents":[2147483647,0,0,1,1,2,2,3,3,5,5,6,6],"right_children":[2,4,6,8,-1,10,12,-1,-1,-1,-1,-1,-1],"split_conditions":[-2.5445243E-2,9.937102E-2,-2.9385678E-2,6.151854E-2,-1.2891946E-3,-6.374996E-2,5.6898598E-2,1.8001723E-3,2.70885E-4,2.6940482E-4,-1.3637638E-3,-2.667914E-4,1.6321586E-3],"split_indices":[0,3,3,3,0,4,4,0,0,0,0,0,0],"split_type":[0,0,0,0,0,0,0,0,0,0,0,0,0],"sum_hessian":[3.6E1,6E0,3E1,5E0,1E0,6E0,2.4E1,4E0,1E0,1E0,5E0,1.9E1,5E0],"tree_param":{"num_deleted":"0","num_feature":"5","num_nodes":"13","size_leaf_vector":"1"}},{"base_weights":[-1.241189E-4,-1.656067E-2,1.8132435E-3,-2.1588437E-3,-7.38686E-5,3.817151E-3,-1.4170351E-3,1.1962783E-3,1.3836884E-4],"categories":[],"categories_nodes":[],"categories_segments":[],"categories_sizes":[],"default_left":[0,0,0,0,0,0,0,0,0],"id":42,"left_children":[1,3,5,-1,-1,7,-1,-1,-1],"loss_changes":[1.2082402E-3,3.022498E-4,1.1430983E-3,0E0,0E0,5.97932E-4,0E0,0E0,0E0],"parents":[2147483647,0,0,1,1,2,2,5,5],"right_children":[2,4,6,-1,-1,8,-1,-1,-1],"split_conditions":[-5.393587E-2,5.6898598E-2,1.0651168E-1,-2.1588437E-3,-7.38686E-5,-2.5445243E-2,-1.4170351E-3,1.1962783E-3,1.3836884E-4],"split_indices":[0,3,3,0,0,0,0,0,0],"split_type":[0,0,0,0,0,0,0,0,0],"sum_hessian":[3.6E1,3E0,3.3E1,2E0,1E0,3E1,3E0,6E0,2.4E1],"tree_param":{"num_deleted":"0","num_feature":"5","num_nodes":"9","size_leaf_vector":"1"}},{"base_weights":[-7.0338754E-4,-7.168298E-3,2.4353985E-3,9.622088E-3,-1.5699813E-2,-1.0131016E-2,5.7519027E-3,1.1505535E-3,1.04415E-4,3.4825224E-4,-1.8532921E-3,-1.5937021E-3,9.873273E-5,1.8876897E-3,1.7865206E-4],"categories":[],"categories_nodes":[],"categories_segments":[],"categories_sizes":[],"default_left":[0,0,0,0,0,0,0,0,0,0,0,0,0,0,0],"id":43,"left_children":[1,3,5,7,9,11,13,-1,-1,-1,-1,-1,-1,-1,-1],"loss_changes":[8.088446E-4,2.0132815E-3,1.18354E-3,6.876697E-5,5.536517E-4,4.0305388E-4,1.1112797E-3,0E0,0E0,0E0,0E0,0E0,0E0,0E0,0E0],"parents":[2147483647,0,0,1,1,2,2,3,3,4,4,5,5,6,6],"right_children":[2,4,6,8,10,12,14,-1,-1,-1,-1,-1,-1,-1,-1],"split_conditions":[-1.6615335E-2,-4.7672376E-2,-2.9385678E-2,-2.9696131E-2,-6.374996E-2,-3.2102757E-3,-1.43239135E-2,1.1505535E-3,1.04415E-4,3.4825224E-4,-1.8532921E-3,-1.5937021E-3,9.873273E-5,1.8876897E-3,1.7865206E-4],"split_indices":[0,2,3,0,1,1,3,0,0,0,0,0,0,0,0],"split_type":[0,0,0,0,0,0,0,0,0,0,0,0,0,0,0],"sum_hessian":[3.8E1,1.2E1,2.6E1,4E0,8E0,5E0,2.1E1,3E0,1E0,1E0,7E0,3E0,2E0,4E0,1.7E1],"tree_param":{"num_deleted":"0","num_feature":"5","num_nodes":"15","size_leaf_vector":"1"}},{"base_weights":[2.3964057E-3,-1.9007782E-4,1.2769493E-2,1.0014081E-2,-2.7331978E-3,2.3462698E-3,3.7996718E-3,5.8083696E-4,1.5521322E-3,-5.376096E-4,8.385034E-4,-1.2363769E-3,1.0931474E-3],"categories":[],"categories_nodes":[],"categories_segments":[],"categories_sizes":[],"default_left":[0,0,0,0,0,0,0,0,0,0,0,0,0],"id":44,"left_children":[1,3,5,7,9,-1,11,-1,-1,-1,-1,-1,-1],"loss_changes":[9.414708E-4,7.799322E-4,5.822625E-4,4.88176E-5,7.5030315E-4,0E0,7.115266E-4,0E0,0E0,0E0,0E0,0E0,0E0],"parents":[2147483647,0,0,1,1,2,2,3,3,4,4,6,6],"right_children":[2,4,6,8,10,-1,12,-1,-1,-1,-1,-1,-1],"split_conditions":[8.714325E-2,-3.154836E-2,9.9751495E-2,1.0651168E-1,9.9751495E-2,2.3462698E-3,1.06124006E-1,5.8083696E-4,1.5521322E-3,-5.376096E-4,8.385034E-4,-1.2363769E-3,1.0931474E-3],"split_indices":[0,1,0,2,1,0,0,0,0,0,0,0,0],"split_type":[0,0,0,0,0,0,0,0,0,0,0,0,0],"sum_hessian":[3.4E1,2.8E1,6E0,5E0,2.3E1,2E0,4E0,4E0,1E0,1.9E1,4E0,1E0,3E0],"tree_param":{"num_deleted":"0","num_feature":"5","num_nodes":"13","size_leaf_vector":"1"}},{"base_weights":[-5.4173806E-4,1.6768685E-3,-6.6996627E-3,-1.1499068E-3,1.0321467E-2,-2.0834436E-3,-5.616654E-4,-1.038306E-3,2.961467E-4,-1.3754964E-4,1.9438064E-3,8.806103E-4,-5.1519385E-4],"categories":[],"categories_nodes":[],"categories_segments":[],"categories_sizes":[],"default_left":[0,0,0,0,0,0,0,0,0,0,0,0,0],"id":45,"left_children":[1,3,5,7,9,-1,11,-1,-1,-1,-1,-1,-1],"loss_changes":[5.167289E-4,6.9608615E-4,8.558899E-4,8.6588983E-4,7.731925E-4,0E0,3.8937345E-4,0E0,0E0,0E0,0E0,0E0,0E0],"parents":[2147483647,0,0,1,1,2,2,3,3,4,4,6,6],"right_children":[2,4,6,8,10,-1,12,-1,-1,-1,-1,-1,-1],"split_conditions":[4.992392E-2,1.3971569E-2,5.775357E-2,-3.2102757E-3,-3.154836E-2,-2.0834436E-3,-2.0658812E-2,-1.038306E-3,2.961467E-4,-1.3754964E-4,1.9438064E-3,8.806103E-4,-5.1519385E-4],"split_indices":[2,2,2,1,0,0,4,0,0,0,0,0,0],"split_type":[0,0,0,0,0,0,0,0,0,0,0,0,0],"sum_hessian":[3.6E1,2.7E1,9E0,2.1E1,6E0,2E0,7E0,6E0,1.5E1,3E0,3E0,2E0,5E0],"tree_param":{"num_deleted":"0","num_feature":"5","num_nodes":"13","size_leaf_vector":"1"}},{"base_weights":[1.1092871E-3,-1.4922454E-3,1.0726373E-2,1.1493986E-2,-4.549251E-3,1.7176457E-2,3.421031E-3,3.086753E-4,1.2558082E-3,-9.3372026E-4,-1.2034544E-5,2.6251117E-4,2.115187E-3,-9.8125E-4,1.5514217E-3],"categories":[],"categories_nodes":[],"categories_segments":[],"categories_sizes":[],"default_left":[0,0,0,0,0,0,0,0,0,0,0,0,0,0,0],"id":46,"left_children":[1,3,5,7,9,11,13,-1,-1,-1,-1,-1,-1,-1,-1],"loss_changes":[9.417154E-4,1.2432582E-3,3.1819934E-4,1.4912919E-5,5.29011E-4,1.758642E-4,9.524109E-4,0E0,0E0,0E0,0E0,0E0,0E0,0E0,0E0],"parents":[2147483647,0,0,1,1,2,2,3,3,4,4,5,5,6,6],"right_children":[2,4,6,8,10,12,14,-1,-1,-1,-1,-1,-1,-1,-1],"split_conditions":[6.388104E-2,-3.154836E-2,9.9751495E-2,-3.154836E-2,6.8904315E-3,8.714325E-2,5.1249288E-2,3.086753E-4,1.2558082E-3,-9.3372026E-4,-1.2034544E-5,2.6251117E-4,2.115187E-3,-9.8125E-4,1.5514217E-3],"split_indices":[0,1,0,0,3,0,3,0,0,0,0,0,0,0,0],"split_type":[0,0,0,0,0,0,0,0,0,0,0,0,0,0,0],"sum_hessian":[3.6E1,2.9E1,7E0,5E0,2.4E1,3E0,4E0,1E0,4E0,1.1E1,1.3E1,1E0,2E0,2E0,2E0],"tree_param":{"num_deleted":"0","num_feature":"5","num_nodes":"15","size_leaf_vector":"1"}},{"base_weights":[-8.320582E-4,-3.1092404E-3,7.811383E-3,-4.561509E-3,1.148168E-2,1.1810341E-2,-1.009066E-3,4.8470526E-4,-7.3478016E-4,1.4374945E-3,2.8475747E-4,2.4246545E-4,2.351637E-3],"categories":[],"categories_nodes":[],"categories_segments":[],"categories_sizes":[],"default_left":[0,0,0,0,0,0,0,0,0,0,0,0,0],"id":47,"left_children":[1,3,5,7,9,11,-1,-1,-1,-1,-1,-1,-1],"loss_changes":[7.525471E-4,6.880718E-4,6.9189013E-4,7.6963514E-4,3.4008553E-5,7.1206485E-4,0E0,0E0,0E0,0E0,0E0,0E0,0E0],"parents":[2147483647,0,0,1,1,2,2,3,3,4,4,5,5],"right_children":[2,4,6,8,10,12,-1,-1,-1,-1,-1,-1,-1],"split_conditions":[7.333223E-2,1.2653461E-1,1.267353E-1,-2.9696131E-2,-2.9385678E-2,2.878725E-2,-1.009066E-3,4.8470526E-4,-7.3478016E-4,1.4374945E-3,2.8475747E-4,2.4246545E-4,2.351637E-3],"split_indices":[0,2,0,2,0,4,0,0,0,0,0,0,0],"split_type":[0,0,0,0,0,0,0,0,0,0,0,0,0],"sum_hessian":[3.6E1,2.9E1,7E0,2.7E1,2E0,6E0,1E0,6E0,2.1E1,1E0,1E0,4E0,2E0],"tree_param":{"num_deleted":"0","num_feature":"5","num_nodes":"13","size_leaf_vector":"1"}},{"base_weights":[-7.021881E-4,2.5167842E-3,-5.848052E-3,7.394991E-3,-2.590221E-3,-2.0124328E-3,2.732996E-3,1.3022781E-4,1.7731668E-3,3.9420422E-4,-1.1217345E-3,8.871087E-4,-1.2500216E-3],"categories":[],"categories_nodes":[],"categories_segments":[],"categories_sizes":[],"default_left":[0,0,0,0,0,0,0,0,0,0,0,0,0],"id":48,"left_children":[1,3,5,7,9,-1,11,-1,-1,-1,-1,-1,-1],"loss_changes":[5.613433E-4,5.423281E-4,1.6475698E-3,6.696709E-4,6.6412037E-4,0E0,9.5241604E-4,0E0,0E0,0E0,0E0,0E0,0E0],"parents":[2147483647,0,0,1,1,2,2,3,3,4,4,6,6],"right_children":[2,4,6,8,10,-1,12,-1,-1,-1,-1,-1,-1],"split_conditions":[5.1249288E-2,3.6884848E-2,8.714325E-2,-1.43239135E-2,3.427414E-2,-2.0124328E-3,4.8479293E-2,1.3022781E-4,1.7731668E-3,3.9420422E-4,-1.1217345E-3,8.871087E-4,-1.2500216E-3],"split_indices":[4,1,4,1,2,0,0,0,0,0,0,0,0],"split_type":[0,0,0,0,0,0,0,0,0,0,0,0,0],"sum_hessian":[3.2E1,2E1,1.2E1,1E1,1E1,4E0,8E0,7E0,3E0,6E0,4E0,6E0,2E0],"tree_param":{"num_deleted":"0","num_feature":"5","num_nodes":"13","size_leaf_vector":"1"}},{"base_weights":[8.9947844E-4,5.386236E-3,-1.5510634E-3,-4.804342E-3,1.1581484E-2,-1.6234813E-2,1.0700698E-3,2.1602942E-4,-1.2489076E-3,5.7673893E-5,1.4643307E-3,-1.9877884E-3,-2.6528045E-4,6.480782E-4,-2.871158E-4],"categories":[],"categories_nodes":[],"categories_segments":[],"categories_sizes":[],"default_left":[0,0,0,0,0,0,0,0,0,0,0,0,0,0,0],"id":49,"left_children":[1,3,5,7,9,11,13,-1,-1,-1,-1,-1,-1,-1,-1],"loss_changes":[4.3715892E-4,9.395057E-4,1.0180621E-3,3.4810838E-4,2.9480574E-4,1.4518853E-4,5.090789E-4,0E0,0E0,0E0,0E0,0E0,0E0,0E0,0E0],"parents":[2147483647,0,0,1,1,2,2,3,3,4,4,5,5,6,6],"right_children":[2,4,6,8,10,12,14,-1,-1,-1,-1,-1,-1,-1,-1],"split_conditions":[-1.0461342E-2,1.3971569E-2,6.8904315E-3,5.0717525E-2,-3.2102757E-3,-1.6615335E-2,-1.8636452E-2,2.1602942E-4,-1.2489076E-3,5.7673893E-5,1.4643307E-3,-1.9877884E-3,-2.6528045E-4,6.480782E-4,-2.871158E-4],"split_indices":[3,2,3,0,4,0,2,0,0,0,0,0,0,0,0],"split_type":[0,0,0,0,0,0,0,0,0,0,0,0,0,0,0],"sum_hessian":[3.8E1,1.3E1,2.5E1,5E0,8E0,3E0,2.2E1,3E0,2E0,2E0,6E0,2E0,1E0,9E0,1.3E1],"tree_param":{"num_deleted":"0","num_feature":"5","num_nodes":"15","size_leaf_vector":"1"}},{"base_weights":[-1.7996391E-3,-2.7876133E-3,1.1314581E-2,4.908096E-4,-1.087927E-2,1.3562248E-3,3.409624E-4,1.6517754E-4,-9.734497E-4,-1.6742917E-3,-3.2024126E-4],"categories":[],"categories_nodes":[],"categories_segments":[],"categories_sizes":[],"default_left":[0,0,0,0,0,0,0,0,0,0,0],"id":50,"left_children":[1,3,5,7,9,-1,-1,-1,-1,-1,-1],"loss_changes":[5.4980116E-4,1.0133989E-3,7.0609385E-6,3.4847367E-4,4.4154038E-4,0E0,0E0,0E0,0E0,0E0,0E0],"parents":[2147483647,0,0,1,1,2,2,3,3,4,4],"right_children":[2,4,6,8,10,-1,-1,-1,-1,-1,-1],"split_conditions":[1.2653461E-1,4.992392E-2,-2.9385678E-2,1.2653461E-1,3.427414E-2,1.3562248E-3,3.409624E-4,1.6517754E-4,-9.734497E-4,-1.6742917E-3,-3.2024126E-4],"split_indices":[2,2,0,3,0,0,0,0,0,0,0],"split_type":[0,0,0,0,0,0,0,0,0,0,0],"sum_hessian":[3.9E1,3.7E1,2E0,2.7E1,1E1,1E0,1E0,2.5E1,2E0,5E0,5E0],"tree_param":{"num_deleted":"0","num_feature":"5","num_nodes":"11","size_leaf_vector":"1"}},{"base_weights":[1.0468272E-3,3.463782E-3,-3.0972103E-3,3.4996183E-4,9.652537E-3,7.8600267E-4,-5.22396E-3,-5.694279E-4,3.5776332E-4,1.3765887E-3,3.6086803E-4,-7.9923664E-4,7.590986E-4],"categories":[],"categories_nodes":[],"categories_segments":[],"categories_sizes":[],"default_left":[0,0,0,0,0,0,0,0,0,0,0,0,0],"id":51,"left_children":[1,3,5,7,9,-1,11,-1,-1,-1,-1,-1,-1],"loss_changes":[4.31398E-4,5.1693E-4,4.139133E-4,3.9103968E-4,1.7406774E-4,0E0,5.5734767E-4,0E0,0E0,0E0,0E0,0E0,0E0],"parents":[2147483647,0,0,1,1,2,2,3,3,4,4,6,6],"right_children":[2,4,6,8,10,-1,12,-1,-1,-1,-1,-1,-1],"split_conditions":[4.992392E-2,6.8904315E-3,-5.393587E-2,-1.0461342E-2,4.8479293E-2,7.8600267E-4,1.125234E-1,-5.694279E-4,3.5776332E-4,1.3765887E-3,3.6086803E-4,-7.9923664E-4,7.590986E-4],"split_indices":[1,1,4,2,4,0,1,0,0,0,0,0,0],"split_type":[0,0,0,0,0,0,0,0,0,0,0,0,0],"sum_hessian":[4.1E1,2.6E1,1.5E1,1.8E1,8E0,2E0,1.3E1,6E0,1.2E1,4E0,4E0,1.1E1,2E0],"tree_param":{"num_deleted":"0","num_feature":"5","num_nodes":"13","size_leaf_vector":"1"}},{"base_weights":[2.1159314E-3,-1.1273524E-3,2.764957E-3,4.742962E-3,-1.9159669E-3,9.518756E-4,2.2311143E-4,-1.6211927E-3,2.564418E-4],"categories":[],"categories_nodes":[],"categories_segments":[],"categories_sizes":[],"default_left":[0,0,0,0,0,0,0,0,0],"id":52,"left_children":[1,-1,3,5,7,-1,-1,-1,-1],"loss_changes":[3.700848E-4,0E0,3.6092522E-4,3.0265638E-4,8.10191E-4,0E0,0E0,0E0,0E0],"parents":[2147483647,0,0,2,2,3,3,4,4],"right_children":[2,-1,4,6,8,-1,-1,-1,-1],"split_conditions":[-6.426486E-2,-1.1273524E-3,6.388104E-2,-1.43239135E-2,8.714325E-2,9.518756E-4,2.2311143E-4,-1.6211927E-3,2.564418E-4],"split_indices":[0,0,4,0,4,0,0,0,0],"split_type":[0,0,0,0,0,0,0,0,0],"sum_hessian":[3.8E1,1E0,3.7E1,2.6E1,1.1E1,8E0,1.8E1,2E0,9E0],"tree_param":{"num_deleted":"0","num_feature":"5","num_nodes":"9","size_leaf_vector":"1"}},{"base_weights":[1.2584492E-3,4.2987757E-4,1.4300656E-3,-3.9470885E-3,3.4722597E-3,1.6482236E-4,-1.4348294E-3,1.3854257E-4,1.1473241E-3],"categories":[],"categories_nodes":[],"categories_segments":[],"categories_sizes":[],"default_left":[0,0,0,0,0,0,0,0,0],"id":53,"left_children":[1,3,-1,5,7,-1,-1,-1,-1],"loss_changes":[3.612701E-4,4.531466E-4,0E0,8.3842117E-4,3.1803903E-4,0E0,0E0,0E0,0E0],"parents":[2147483647,0,0,1,1,3,3,4,4],"right_children":[2,4,-1,6,8,-1,-1,-1,-1],"split_conditions":[1.2653461E-1,-1.6567973E-2,1.4300656E-3,4.8479293E-2,8.714325E-2,1.6482236E-4,-1.4348294E-3,1.3854257E-4,1.1473241E-3],"split_indices":[0,2,0,4,0,0,0,0,0],"split_type":[0,0,0,0,0,0,0,0,0],"sum_hessian":[3.3E1,3.2E1,1E0,1.3E1,1.9E1,9E0,4E0,1.6E1,3E0],"tree_param":{"num_deleted":"0","num_feature":"5","num_nodes":"9","size_leaf_vector":"1"}},{"base_weights":[-8.572488E-4,-2.9427994E-3,3.7328817E-3,6.448967E-3,-6.7423433E-3,-8.3764206E-4,8.700029E-3,9.132122E-4,-1.06699765E-4,-9.193048E-4,4.7460626E-4,1.3683399E-3,-5.827841E-4],"categories":[],"categories_nodes":[],"categories_segments":[],"categories_sizes":[],"default_left":[0,0,0,0,0,0,0,0,0,0,0,0,0],"id":54,"left_children":[1,3,5,7,9,-1,11,-1,-1,-1,-1,-1,-1],"loss_changes":[3.6518424E-4,9.712762E-4,7.9465937E-4,1.710759E-4,5.7856995E-4,0E0,7.3132425E-4,0E0,0E0,0E0,0E0,0E0,0E0],"parents":[2147483647,0,0,1,1,2,2,3,3,4,4,6,6],"right_children":[2,4,6,8,10,-1,12,-1,-1,-1,-1,-1,-1],"split_conditions":[5.6898598E-2,-3.154836E-2,-2.639661E-2,3.6884848E-2,1.0651168E-1,-8.3764206E-4,5.775357E-2,9.132122E-4,-1.06699765E-4,-9.193048E-4,4.7460626E-4,1.3683399E-3,-5.827841E-4],"split_indices":[3,1,1,0,1,0,1,0,0,0,0,0,0],"split_type":[0,0,0,0,0,0,0,0,0,0,0,0,0],"sum_hessian":[3.6E1,2.5E1,1.1E1,7E0,1.8E1,3E0,8E0,5E0,2E0,1.5E1,3E0,6E0,2E0],"tree_param":{"num_deleted":"0","num_feature":"5","num_nodes":"13","size_leaf_vector":"1"}},{"base_weights":[4.9415615E-4,5.7252925E-3,-3.0949893E-3,7.6578106E-3,-1.0664981E-3,4.3546637E-3,-6.1607757E-3,1.164249E-3,2.0099194E-4,7.697893E-4,-2.6689397E-4,-1.1750378E-3,-2.5518317E-4],"categories":[],"categories_nodes":[],"categories_segments":[],"categories_sizes":[],"default_left":[0,0,0,0,0,0,0,0,0,0,0,0,0],"id":55,"left_children":[1,3,5,7,-1,9,11,-1,-1,-1,-1,-1,-1],"loss_changes":[6.936309E-4,5.567878E-4,5.2928715E-4,2.9166997E-4,0E0,1.8491581E-4,2.9277598E-4,0E0,0E0,0E0,0E0,0E0,0E0],"parents":[2147483647,0,0,1,1,2,2,3,3,5,5,6,6],"right_children":[2,4,6,8,-1,10,12,-1,-1,-1,-1,-1,-1],"split_conditions":[-1.0461342E-2,1.2653461E-1,-1.8636452E-2,1.2323916E-2,-1.0664981E-3,7.333223E-2,-1.0461342E-2,1.164249E-3,2.0099194E-4,7.697893E-4,-2.6689397E-4,-1.1750378E-3,-2.5518317E-4],"split_indices":[3,4,4,1,0,3,1,0,0,0,0,0,0],"split_type":[0,0,0,0,0,0,0,0,0,0,0,0,0],"sum_hessian":[3.5E1,1.4E1,2.1E1,1.3E1,1E0,6E0,1.5E1,7E0,6E0,4E0,2E0,5E0,1E1],"tree_param":{"num_deleted":"0","num_feature":"5","num_nodes":"13","size_leaf_vector":"1"}},{"base_weights":[1.5324431E-3,-3.1928593E-4,8.720439E-3,1.8082589E-3,-5.8641806E-3,1.285867E-2,-8.0544763E-4,-1.6546858E-4,8.9705316E-4,-1.0133901E-3,9.390158E-5,4.9072126E-4,1.9174392E-3],"categories":[],"categories_nodes":[],"categories_segments":[],"categories_sizes":[],"default_left":[0,0,0,0,0,0,0,0,0,0,0,0,0],"id":56,"left_children":[1,3,5,7,9,11,-1,-1,-1,-1,-1,-1,-1],"loss_changes":[4.5533184E-4,3.4092032E-4,5.894992E-4,5.3569704E-4,2.4189788E-4,2.072223E-4,0E0,0E0,0E0,0E0,0E0,0E0,0E0],"parents":[2147483647,0,0,1,1,2,2,3,3,4,4,5,5],"right_children":[2,4,6,8,10,12,-1,-1,-1,-1,-1,-1,-1],"split_conditions":[7.333223E-2,4.992392E-2,1.267353E-1,9.937102E-2,-3.2102757E-3,-2.9385678E-2,-8.0544763E-4,-1.6546858E-4,8.9705316E-4,-1.0133901E-3,9.390158E-5,4.9072126E-4,1.9174392E-3],"split_indices":[0,0,0,4,1,4,0,0,0,0,0,0,0],"split_type":[0,0,0,0,0,0,0,0,0,0,0,0,0],"sum_hessian":[3.3E1,2.7E1,6E0,2E1,7E0,5E0,1E0,1.4E1,6E0,4E0,3E0,3E0,2E0],"tree_param":{"num_deleted":"0","num_feature":"5","num_nodes":"13","size_leaf_vector":"1"}},{"base_weights":[1.3726945E-3,2.125079E-3,-8.364279E-4,6.4847264E-3,2.7021964E-4,-9.649214E-4,9.0630417E-4,-9.1757235E-4,1.8332845E-4],"categories":[],"categories_nodes":[],"categories_segments":[],"categories_sizes":[],"default_left":[0,0,0,0,0,0,0,0,0],"id":57,"left_children":[1,3,-1,5,7,-1,-1,-1,-1],"loss_changes":[3.0348674E-4,2.974494E-4,0E0,5.450335E-4,4.1546652E-4,0E0,0E0,0E0,0E0],"parents":[2147483647,0,0,1,1,3,3,4,4],"right_children":[2,4,-1,6,8,-1,-1,-1,-1],"split_conditions":[1.2653461E-1,-2.5445243E-2,-8.364279E-4,-6.426486E-2,-4.9477868E-2,-9.649214E-4,9.0630417E-4,-9.1757235E-4,1.8332845E-4],"split_indices":[3,0,0,0,3,0,0,0,0],"split_type":[0,0,0,0,0,0,0,0,0],"sum_hessian":[3.8E1,3.6E1,2E0,1E1,2.6E1,1E0,9E0,3E0,2.3E1],"tree_param":{"num_deleted":"0","num_feature":"5","num_nodes":"9","size_leaf_vector":"1"}},{"base_weights":[1.2586166E-3,3.7817706E-3,-1.9947684E-3,-2.5991239E-3,7.7835824E-3,-1.0501245E-2,2.7390858E-3,1.7665181E-4,-7.3180697E-4,1.5782341E-3,3.4401845E-4,4.1677264E-4,-1.3640694E-3,-9.166753E-4,4.4951352E-4],"categories":[],"categories_nodes":[],"categories_segments":[],"categories_sizes":[],"default_left":[0,0,0,0,0,0,0,0,0,0,0,0,0,0,0],"id":58,"left_children":[1,3,5,7,9,11,13,-1,-1,-1,-1,-1,-1,-1,-1],"loss_changes":[3.5231296E-4,6.3307385E-4,7.9386384E-4,2.189398E-4,4.6683254E-4,3.7921808E-4,3.1299994E-4,0E0,0E0,0E0,0E0,0E0,0E0,0E0,0E0],"parents":[2147483647,0,0,1,1,2,2,3,3,4,4,5,5,6,6],"right_children":[2,4,6,8,10,12,14,-1,-1,-1,-1,-1,-1,-1,-1],"split_conditions":[4.275315E-2,6.8904315E-3,5.775357E-2,3.6884848E-2,4.275315E-2,-5.9923053E-2,-6.426486E-2,1.7665181E-4,-7.3180697E-4,1.5782341E-3,3.4401845E-4,4.1677264E-4,-1.3640694E-3,-9.166753E-4,4.4951352E-4],"split_indices":[2,1,2,4,1,1,0,0,0,0,0,0,0,0,0],"split_type":[0,0,0,0,0,0,0,0,0,0,0,0,0,0,0],"sum_hessian":[4.1E1,2.3E1,1.8E1,9E0,1.4E1,6E0,1.2E1,5E0,4E0,4E0,1E1,1E0,5E0,1E0,1.1E1],"tree_param":{"num_deleted":"0","num_feature":"5","num_nodes":"15","size_leaf_vector":"1"}},{"base_weights":[1.0163633E-3,3.2442927E-3,-2.557266E-3,-3.7222325E-3,5.5122254E-3,3.9520147E-3,-9.631121E-3,-7.686702E-4,2.8044704E-4,-3.8301154E-5,8.000492E-4,8.057099E-4,-1.2245541E-5,-1.4873286E-3,2.3161953E-4],"categories":[],"categories_nodes":[],"categories_segments":[],"categories_sizes":[],"default_left":[0,0,0,0,0,0,0,0,0,0,0,0,0,0,0],"id":59,"left_children":[1,3,5,7,9,11,13,-1,-1,-1,-1,-1,-1,-1,-1],"loss_changes":[2.869593E-4,3.6810926E-4,6.8270223E-4,1.7680661E-4,2.5243592E-4,1.3479497E-4,4.7285808E-4,0E0,0E0,0E0,0E0,0E0,0E0,0E0,0E0],"parents":[2147483647,0,0,1,1,2,2,3,3,4,4,5,5,6,6],"right_children":[2,4,6,8,10,12,14,-1,-1,-1,-1,-1,-1,-1,-1],"split_conditions":[4.275315E-2,-2.9385678E-2,-1.8636452E-2,-3.2102757E-3,-4.9477868E-2,-1.0461342E-2,9.9751495E-2,-7.686702E-4,2.8044704E-4,-3.8301154E-5,8.000492E-4,8.057099E-4,-1.2245541E-5,-1.4873286E-3,2.3161953E-4],"split_indices":[2,3,1,2,2,4,1,0,0,0,0,0,0,0,0],"split_type":[0,0,0,0,0,0,0,0,0,0,0,0,0,0,0],"sum_hessian":[3.4E1,2.1E1,1.3E1,5E0,1.6E1,7E0,6E0,3E0,2E0,5E0,1.1E1,3E0,4E0,4E0,2E0],"tree_param":{"num_deleted":"0","num_feature":"5","num_nodes":"15","size_leaf_vector":"1"}},{"base_weights":[-1.013542E-3,-2.7732714E-3,3.1769553E-3,-7.927265E-4,-1.445836E-3,5.88304E-3,-6.902311E-4,2.0397594E-4,-4.5831414E-4,9.2397316E-4,6.784021E-5],"categories":[],"categories_nodes":[],"categories_segments":[],"categories_sizes":[],"default_left":[0,0,0,0,0,0,0,0,0,0,0],"id":60,"left_children":[1,3,5,7,-1,9,-1,-1,-1,-1,-1],"loss_changes":[2.9640208E-4,6.365381E-4,3.679107E-4,2.7775593E-4,0E0,1.6843536E-4,0E0,0E0,0E0,0E0,0E0],"parents":[2147483647,0,0,1,1,2,2,3,3,5,5],"right_children":[2,4,6,8,-1,10,-1,-1,-1,-1,-1],"split_conditions":[5.6898598E-2,4.8479293E-2,1.2653461E-1,4.8479293E-2,-1.445836E-3,4.275315E-2,-6.902311E-4,2.0397594E-4,-4.5831414E-4,9.2397316E-4,6.784021E-5],"split_indices":[3,3,3,1,0,1,0,0,0,0,0],"split_type":[0,0,0,0,0,0,0,0,0,0,0],"sum_hessian":[3.8E1,2.7E1,1.1E1,2.4E1,3E0,9E0,2E0,1.4E1,1E1,5E0,4E0],"tree_param":{"num_deleted":"0","num_feature":"5","num_nodes":"11","size_leaf_vector":"1"}},{"base_weights":[5.541353E-4,6.4100754E-3,-7.048258E-4,8.296972E-3,2.92066E-3,-9.466237E-3,4.868566E-4,1.4817213E-4,1.0074816E-3,-1.5328545E-5,3.9964035E-4,3.4300843E-5,-1.2850323E-3,-2.2896646E-4,3.8235713E-4],"categories":[],"categories_nodes":[],"categories_segments":[],"categories_sizes":[],"default_left":[0,0,0,0,0,0,0,0,0,0,0,0,0,0,0],"id":61,"left_children":[1,3,5,7,9,11,13,-1,-1,-1,-1,-1,-1,-1,-1],"loss_changes":[2.920416E-4,2.185654E-5,3.4915574E-4,3.353771E-5,1.3839697E-5,1.3718905E-4,2.8668845E-4,0E0,0E0,0E0,0E0,0E0,0E0,0E0,0E0],"parents":[2147483647,0,0,1,1,2,2,3,3,4,4,5,5,6,6],"right_children":[2,4,6,8,10,12,14,-1,-1,-1,-1,-1,-1,-1,-1],"split_conditions":[-2.5445243E-2,3.6884848E-2,-1.6615335E-2,-6.374996E-2,-5.9923053E-2,-2.0658812E-2,6.8904315E-3,1.4817213E-4,1.0074816E-3,-1.5328545E-5,3.9964035E-4,3.4300843E-5,-1.2850323E-3,-2.2896646E-4,3.8235713E-4],"split_indices":[0,1,0,1,0,0,1,0,0,0,0,0,0,0,0],"split_type":[0,0,0,0,0,0,0,0,0,0,0,0,0,0,0],"sum_hessian":[3.8E1,6E0,3.2E1,3E0,3E0,3E0,2.9E1,1E0,2E0,1E0,2E0,1E0,2E0,1.6E1,1.3E1],"tree_param":{"num_deleted":"0","num_feature":"5","num_nodes":"15","size_leaf_vector":"1"}},{"base_weights":[-7.287915E-4,-2.7628609E-3,4.1452628E-3,-7.4685126E-4,-1.3664201E-3,7.2327815E-3,-6.4990483E-4,-1.6842589E-6,-8.403521E-4,-2.4332509E-4,8.745192E-4],"categories":[],"categories_nodes":[],"categories_segments":[],"categories_sizes":[],"default_left":[0,0,0,0,0,0,0,0,0,0,0],"id":62,"left_children":[1,3,5,7,-1,9,-1,-1,-1,-1,-1],"loss_changes":[3.683627E-4,5.6120224E-4,4.085158E-4,1.2841547E-4,0E0,1.5285029E-4,0E0,0E0,0E0,0E0,0E0],"parents":[2147483647,0,0,1,1,2,2,3,3,5,5],"right_children":[2,4,6,8,-1,10,-1,-1,-1,-1,-1],"split_conditions":[5.6898598E-2,4.992392E-2,1.2653461E-1,1.267353E-1,-1.3664201E-3,-2.639661E-2,-6.4990483E-4,-1.6842589E-6,-8.403521E-4,-2.4332509E-4,8.745192E-4],"split_indices":[3,3,3,4,0,1,0,0,0,0,0],"split_type":[0,0,0,0,0,0,0,0,0,0,0],"sum_hessian":[3.5E1,2.5E1,1E1,2.2E1,3E0,8E0,2E0,2.1E1,1E0,1E0,7E0],"tree_param":{"num_deleted":"0","num_feature":"5","num_nodes":"11","size_leaf_vector":"1"}},{"base_weights":[-8.2767656E-4,-4.418491E-3,1.9068181E-3,-1.5208087E-3,-1.5502285E-3,4.2452016E-3,-3.0423515E-3,-4.5842683E-4,4.2975807E-4,1.0740352E-4,8.2944176E-4,-6.7824405E-4,9.6990913E-4],"categories":[],"categories_nodes":[],"categories_segments":[],"categories_sizes":[],"default_left":[0,0,0,0,0,0,0,0,0,0,0,0,0],"id":63,"left_children":[1,3,5,7,-1,9,11,-1,-1,-1,-1,-1,-1],"loss_changes":[3.4227342E-4,4.5818364E-4,2.4437654E-4,2.5141847E-4,0E0,1.7086187E-4,3.993624E-4,0E0,0E0,0E0,0E0,0E0,0E0],"parents":[2147483647,0,0,1,1,2,2,3,3,5,5,6,6],"right_children":[2,4,6,8,-1,10,12,-1,-1,-1,-1,-1,-1],"split_conditions":[6.8904315E-3,-1.0461342E-2,9.937102E-2,9.9751495E-2,-1.5502285E-3,5.6898598E-2,5.775357E-2,-4.5842683E-4,4.2975807E-4,1.0740352E-4,8.2944176E-4,-6.7824405E-4,9.6990913E-4],"split_indices":[3,3,3,1,0,3,4,0,0,0,0,0,0],"split_type":[0,0,0,0,0,0,0,0,0,0,0,0,0],"sum_hessian":[3.3E1,1.4E1,1.9E1,1.2E1,2E0,1.3E1,6E0,8E0,4E0,8E0,5E0,5E0,1E0],"tree_param":{"num_deleted":"0","num_feature":"5","num_nodes":"13","size_leaf_vector":"1"}},{"base_weights":[6.67459E-4,-5.4330598E-3,1.6298827E-3,5.4969604E-4,-9.5398055E-4,1.0654627E-4,5.9961565E-3,1.3660111E-4,-9.165045E-4,7.7932235E-4,-3.2916554E-4],"categories":[],"categories_nodes":[],"categories_segments":[],"categories_sizes":[],"default_left":[0,0,0,0,0,0,0,0,0,0,0],"id":64,"left_children":[1,3,5,-1,-1,7,9,-1,-1,-1,-1],"loss_changes":[2.1435018E-4,2.7687394E-4,2.0555155E-4,0E0,0E0,2.9277342E-4,1.5917915E-4,0E0,0E0,0E0,0E0],"parents":[2147483647,0,0,1,1,2,2,5,5,6,6],"right_children":[2,4,6,-1,-1,8,10,-1,-1,-1,-1],"split_conditions":[-5.393587E-2,-4.7672376E-2,5.775357E-2,5.4969604E-4,-9.5398055E-4,4.992392E-2,4.992392E-2,1.3660111E-4,-9.165045E-4,7.7932235E-4,-3.2916554E-4],"split_indices":[0,2,2,0,0,2,0,0,0,0,0],"split_type":[0,0,0,0,0,0,0,0,0,0,0],"sum_hessian":[3.4E1,4E0,3E1,1E0,3E0,2.3E1,7E0,2.1E1,2E0,6E0,1E0],"tree_param":{"num_deleted":"0","num_feature":"5","num_nodes":"11","size_leaf_vector":"1"}},{"base_weights":[4.0442936E-4,3.0512058E-3,-2.4029368E-3,1.8053103E-3,1.336161E-3,-6.2239836E-3,2.5342242E-3,-6.6390756E-4,2.6432806E-4,7.080151E-4,-1.2098053E-3,6.8866427E-4,-8.4661593E-4],"categories":[],"categories_nodes":[],"categories_segments":[],"categories_sizes":[],"default_left":[0,0,0,0,0,0,0,0,0,0,0,0,0],"id":65,"left_children":[1,3,5,7,-1,9,11,-1,-1,-1,-1,-1,-1],"loss_changes":[2.8968978E-4,2.3279188E-4,3.742103E-4,1.5199563E-4,0E0,9.452994E-4,4.8920786E-4,0E0,0E0,0E0,0E0,0E0,0E0],"parents":[2147483647,0,0,1,1,2,2,3,3,5,5,6,6],"right_children":[2,4,6,8,-1,10,12,-1,-1,-1,-1,-1,-1],"split_conditions":[3.427414E-2,2.878725E-2,9.937102E-2,-6.426486E-2,1.336161E-3,-2.639661E-2,4.8479293E-2,-6.6390756E-4,2.6432806E-4,7.080151E-4,-1.2098053E-3,6.8866427E-4,-8.4661593E-4],"split_indices":[4,4,4,0,0,2,0,0,0,0,0,0,0],"split_type":[0,0,0,0,0,0,0,0,0,0,0,0,0],"sum_hessian":[3.7E1,1.9E1,1.8E1,1.8E1,1E0,1E1,8E0,1E0,1.7E1,3E0,7E0,6E0,2E0],"tree_param":{"num_deleted":"0","num_feature":"5","num_nodes":"13","size_leaf_vector":"1"}},{"base_weights":[-1.2807767E-3,1.9191304E-3,-3.3530588E-3,-3.1160582E-3,6.085029E-3,-1.1456574E-3,-1.3659968E-3,-7.259113E-4,1.806011E-4,1.1059843E-3,8.881726E-5,-5.3019554E-4,1.6207E-4],"categories":[],"categories_nodes":[],"categories_segments":[],"categories_sizes":[],"default_left":[0,0,0,0,0,0,0,0,0,0,0,0,0],"id":66,"left_children":[1,3,5,7,9,-1,11,-1,-1,-1,-1,-1,-1],"loss_changes":[2.318927E-4,3.126265E-4,3.2249623E-4,1.5585686E-4,1.9700409E-4,0E0,2.2019216E-4,0E0,0E0,0E0,0E0,0E0,0E0],"parents":[2147483647,0,0,1,1,2,2,3,3,4,4,6,6],"right_children":[2,4,6,8,10,-1,12,-1,-1,-1,-1,-1,-1],"split_conditions":[-1.0461342E-2,1.3971569E-2,6.8904315E-3,-3.2102757E-3,1.2323916E-2,-1.1456574E-3,-1.0461342E-2,-7.259113E-4,1.806011E-4,1.1059843E-3,8.881726E-5,-5.3019554E-4,1.6207E-4],"split_indices":[3,2,3,1,1,0,1,0,0,0,0,0,0],"split_type":[0,0,0,0,0,0,0,0,0,0,0,0,0],"sum_hessian":[3.3E1,1.3E1,2E1,6E0,7E0,3E0,1.7E1,3E0,3E0,3E0,4E0,7E0,1E1],"tree_param":{"num_deleted":"0","num_feature":"5","num_nodes":"13","size_leaf_vector":"1"}},{"base_weights":[-4.7096324E-5,2.5874623E-3,-1.6665518E-3,-4.4129253E-3,5.2886684E-3,-1.059733E-2,-4.0914176E-5,-8.0357416E-4,6.8086636E-5,7.4223045E-4,8.171179E-5,-1.2766373E-3,-2.0451016E-4,3.5209613E-4,-3.0516618E-4],"categories":[],"categories_nodes":[],"categories_segments":[],"categories_sizes":[],"default_left":[0,0,0,0,0,0,0,0,0,0,0,0,0,0,0],"id":67,"left_children":[1,3,5,7,9,11,13,-1,-1,-1,-1,-1,-1,-1,-1],"loss_changes":[1.792407E-4,3.2589035E-4,3.7703983E-4,9.774064E-5,1.0842303E-4,4.80921E-5,2.5739465E-4,0E0,0E0,0E0,0E0,0E0,0E0,0E0,0E0],"parents":[2147483647,0,0,1,1,2,2,3,3,4,4,5,5,6,6],"right_children":[2,4,6,8,10,12,14,-1,-1,-1,-1,-1,-1,-1,-1],"split_conditions":[-1.0461342E-2,-3.2102757E-3,6.8904315E-3,-3.2102757E-3,5.2265525E-2,-1.6615335E-2,-1.8636452E-2,-8.0357416E-4,6.8086636E-5,7.4223045E-4,8.171179E-5,-1.2766373E-3,-2.0451016E-4,3.5209613E-4,-3.0516618E-4],"split_indices":[3,2,3,1,1,0,2,0,0,0,0,0,0,0,0],"split_type":[0,0,0,0,0,0,0,0,0,0,0,0,0,0,0],"sum_hessian":[4E1,1.5E1,2.5E1,4E0,1.1E1,3E0,2.2E1,2E0,2E0,7E0,4E0,2E0,1E0,1E1,1.2E1],"tree_param":{"num_deleted":"0","num_feature":"5","num_nodes":"15","size_leaf_vector":"1"}},{"base_weights":[-8.672902E-4,-1.3270439E-3,8.3016756E-4,-2.8675655E-3,1.8560798E-3,-1.2536538E-4,-1.1430667E-3,7.0429826E-4,-2.2661076E-4],"categories":[],"categories_nodes":[],"categories_segments":[],"categories_sizes":[],"default_left":[0,0,0,0,0,0,0,0,0],"id":68,"left_children":[1,3,-1,5,7,-1,-1,-1,-1],"loss_changes":[1.7541986E-4,1.9166192E-4,0E0,3.4499224E-4,2.9391816E-4,0E0,0E0,0E0,0E0],"parents":[2147483647,0,0,1,1,3,3,4,4],"right_children":[2,4,-1,6,8,-1,-1,-1,-1],"split_conditions":[1.125234E-1,5.6898598E-2,8.3016756E-4,4.992392E-2,9.937102E-2,-1.2536538E-4,-1.1430667E-3,7.0429826E-4,-2.2661076E-4],"split_indices":[2,3,0,3,3,0,0,0,0],"split_type":[0,0,0,0,0,0,0,0,0],"sum_hessian":[3.8E1,3.7E1,1E0,2.5E1,1.2E1,2.2E1,3E0,5E0,7E0],"tree_param":{"num_deleted":"0","num_feature":"5","num_nodes":"9","size_leaf_vector":"1"}},{"base_weights":[-6.469769E-5,1.5517024E-3,-2.6466246E-3,3.8035633E-4,5.926746E-3,-1.1329504E-3,-4.3929674E-4,-1.5850161E-4,4.256765E-4,1.1120372E-3,-1.2424613E-4,-1.9172463E-4,8.648049E-4],"categories":[],"categories_nodes":[],"categories_segments":[],"categories_sizes":[],"default_left":[0,0,0,0,0,0,0,0,0,0,0,0,0],"id":69,"left_children":[1,3,5,7,9,-1,11,-1,-1,-1,-1,-1,-1],"loss_changes":[1.6269699E-4,1.20738274E-4,2.825124E-4,1.5911878E-4,1.9998754E-4,0E0,1.9117874E-4,0E0,0E0,0E0,0E0,0E0,0E0],"parents":[2147483647,0,0,1,1,2,2,3,3,4,4,6,6],"right_children":[2,4,6,8,10,-1,12,-1,-1,-1,-1,-1,-1],"split_conditions":[5.1249288E-2,8.714325E-2,5.6898598E-2,5.6898598E-2,9.9751495E-2,-1.1329504E-3,5.775357E-2,-1.5850161E-4,4.256765E-4,1.1120372E-3,-1.2424613E-4,-1.9172463E-4,8.648049E-4],"split_indices":[4,0,4,2,0,0,0,0,0,0,0,0,0],"split_type":[0,0,0,0,0,0,0,0,0,0,0,0,0],"sum_hessian":[3.7E1,2.3E1,1.4E1,1.9E1,4E0,2E0,1.2E1,1.3E1,6E0,2E0,2E0,1.1E1,1E0],"tree_param":{"num_deleted":"0","num_feature":"5","num_nodes":"13","size_leaf_vector":"1"}},{"base_weights":[-7.057891E-4,1.2641319E-3,-4.9151354E-3,-1.4676137E-3,7.5940113E-3,-6.259893E-3,1.2057684E-3,-2.4017874E-4,7.673755E-4,9.210246E-4,1.8302059E-4,2.0906386E-4,-7.4200233E-4,1.0894612E-6,1.797758E-4],"categories":[],"categories_nodes":[],"categories_segments":[],"categories_sizes":[],"default_left":[0,0,0,0,0,0,0,0,0,0,0,0,0,0,0],"id":70,"left_children":[1,3,5,7,9,11,13,-1,-1,-1,-1,-1,-1,-1,-1],"loss_changes":[3.1302034E-4,4.6072723E-4,1.0632162E-4,1.8068361E-4,5.7668658E-5,1.1238956E-4,2.102473E-6,0E0,0E0,0E0,0E0,0E0,0E0,0E0,0E0],"parents":[2147483647,0,0,1,1,2,2,3,3,4,4,5,5,6,6],"right_children":[2,4,6,8,10,12,14,-1,-1,-1,-1,-1,-1,-1,-1],"split_conditions":[4.992392E-2,6.8904315E-3,1.0651168E-1,1.2653461E-1,4.275315E-2,-3.154836E-2,1.125234E-1,-2.4017874E-4,7.673755E-4,9.210246E-4,1.8302059E-4,2.0906386E-4,-7.4200233E-4,1.0894612E-6,1.797758E-4],"split_indices":[1,1,1,2,1,3,1,0,0,0,0,0,0,0,0],"split_type":[0,0,0,0,0,0,0,0,0,0,0,0,0,0,0],"sum_hessian":[3.6E1,2.5E1,1.1E1,1.8E1,7E0,9E0,2E0,1.7E1,1E0,5E0,2E0,1E0,8E0,1E0,1E0],"tree_param":{"num_deleted":"0","num_feature":"5","num_nodes":"15","size_leaf_vector":"1"}},{"base_weights":[5.367342E-4,-1.7048077E-3,2.1425495E-3,2.0888151E-4,-7.498096E-4,-1.7431966E-3,3.708654E-3,2.4157813E-4,-5.360589E-4,1.7158578E-4,-4.7664522E-4,8.446928E-4,1.9654422E-4],"categories":[],"categories_nodes":[],"categories_segments":[],"categories_sizes":[],"default_left":[0,0,0,0,0,0,0,0,0,0,0,0,0],"id":71,"left_children":[1,3,5,7,-1,9,11,-1,-1,-1,-1,-1,-1],"loss_changes":[1.3683423E-4,1.7895106E-4,1.4034557E-4,1.7273644E-4,0E0,8.1381775E-5,1.15555085E-4,0E0,0E0,0E0,0E0,0E0,0E0],"parents":[2147483647,0,0,1,1,2,2,3,3,5,5,6,6],"right_children":[2,4,6,8,-1,10,12,-1,-1,-1,-1,-1,-1],"split_conditions":[-1.0461342E-2,-1.8636452E-2,-2.9385678E-2,5.775357E-2,-7.498096E-4,-1.8636452E-2,4.275315E-2,2.4157813E-4,-5.360589E-4,1.7158578E-4,-4.7664522E-4,8.446928E-4,1.9654422E-4],"split_indices":[1,1,2,3,0,4,1,0,0,0,0,0,0],"split_type":[0,0,0,0,0,0,0,0,0,0,0,0,0],"sum_hessian":[3.6E1,1.5E1,2.1E1,1.2E1,3E0,6E0,1.5E1,9E0,3E0,3E0,3E0,3E0,1.2E1],"tree_param":{"num_deleted":"0","num_feature":"5","num_nodes":"13","size_leaf_vector":"1"}},{"base_weights":[-7.876056E-4,-1.3277273E-3,5.9563913E-3,-2.3202905E-3,3.1157895E-3,7.1692804E-4,1.7653071E-4,-1.502457E-4,-6.108966E-4,8.870663E-4,-3.4180316E-4],"categories":[],"categories_nodes":[],"categories_segments":[],"categories_sizes":[],"default_left":[0,0,0,0,0,0,0,0,0,0,0],"id":72,"left_children":[1,3,5,7,9,-1,-1,-1,-1,-1,-1],"loss_changes":[1.463265E-4,1.6600647E-4,2.5939735E-6,8.3776715E-5,2.9352942E-4,0E0,0E0,0E0,0E0,0E0,0E0],"parents":[2147483647,0,0,1,1,2,2,3,3,4,4],"right_children":[2,4,6,8,10,-1,-1,-1,-1,-1,-1],"split_conditions":[1.2653461E-1,7.333223E-2,-2.9385678E-2,7.333223E-2,1.0651168E-1,7.1692804E-4,1.7653071E-4,-1.502457E-4,-6.108966E-4,8.870663E-4,-3.4180316E-4],"split_indices":[2,0,0,2,0,0,0,0,0,0,0],"split_type":[0,0,0,0,0,0,0,0,0,0,0],"sum_hessian":[3.7E1,3.5E1,2E0,2.9E1,6E0,1E0,1E0,2.5E1,4E0,3E0,3E0],"tree_param":{"num_deleted":"0","num_feature":"5","num_nodes":"11","size_leaf_vector":"1"}},{"base_weights":[-7.979591E-4,-4.466117E-3,1.8601516E-3,1.0242912E-4,-7.5231954E-3,6.3208546E-3,-3.4551983E-4,2.5420857E-4,-2.3628348E-4,6.433294E-5,-9.948392E-4,1.4141953E-4,8.0006797E-4,-7.956391E-4,7.664275E-5],"categories":[],"categories_nodes":[],"categories_segments":[],"categories_sizes":[],"default_left":[0,0,0,0,0,0,0,0,0,0,0,0,0,0,0],"id":73,"left_children":[1,3,5,7,9,11,13,-1,-1,-1,-1,-1,-1,-1,-1],"loss_changes":[3.495706E-4,2.1026665E-4,2.0879973E-4,4.8107308E-5,1.8464902E-4,4.6381785E-5,1.3304132E-4,0E0,0E0,0E0,0E0,0E0,0E0,0E0,0E0],"parents":[2147483647,0,0,1,1,2,2,3,3,4,4,5,5,6,6],"right_children":[2,4,6,8,10,12,14,-1,-1,-1,-1,-1,-1,-1,-1],"split_conditions":[-3.2102757E-3,-2.9696131E-2,4.275315E-2,-1.43239135E-2,-2.9385678E-2,1.2323916E-2,-3.154836E-2,2.5420857E-4,-2.3628348E-4,6.433294E-5,-9.948392E-4,1.4141953E-4,8.0006797E-4,-7.956391E-4,7.664275E-5],"split_indices":[2,2,2,0,4,2,4,0,0,0,0,0,0,0,0],"split_type":[0,0,0,0,0,0,0,0,0,0,0,0,0,0,0],"sum_hessian":[3.4E1,1.4E1,2E1,6E0,8E0,6E0,1.4E1,3E0,3E0,2E0,6E0,2E0,4E0,1E0,1.3E1],"tree_param":{"num_deleted":"0","num_feature":"5","num_nodes":"15","size_leaf_vector":"1"}},{"base_weights":[7.621236E-4,-6.16078E-4,4.801463E-3,5.984077E-4,-1.8439132E-3,6.908458E-3,-4.9737527E-4,2.1002379E-4,-3.5615894E-4,2.6515336E-4,1.1700514E-3],"categories":[],"categories_nodes":[],"categories_segments":[],"categories_sizes":[],"default_left":[0,0,0,0,0,0,0,0,0,0,0],"id":74,"left_children":[1,3,5,-1,7,9,-1,-1,-1,-1,-1],"loss_changes":[1.7553582E-4,2.0552779E-4,1.9913161E-4,0E0,1.4975046E-4,1.1177163E-4,0E0,0E0,0E0,0E0,0E0],"parents":[2147483647,0,0,1,1,2,2,4,4,5,5],"right_children":[2,4,6,-1,8,10,-1,-1,-1,-1,-1],"split_conditions":[5.775357E-2,-3.154836E-2,1.267353E-1,5.984077E-4,-2.5445243E-2,-2.639661E-2,-4.9737527E-4,2.1002379E-4,-3.5615894E-4,2.6515336E-4,1.1700514E-3],"split_indices":[0,1,0,0,0,4,0,0,0,0,0],"split_type":[0,0,0,0,0,0,0,0,0,0,0],"sum_hessian":[3E1,2.3E1,7E0,3E0,2E1,6E0,1E0,6E0,1.4E1,4E0,2E0],"tree_param":{"num_deleted":"0","num_feature":"5","num_nodes":"11","size_leaf_vector":"1"}},{"base_weights":[3.2909913E-5,1.8940332E-3,-3.55875E-3,2.9490015E-3,-3.337628E-3,-4.9734353E-3,7.416081E-4,1.7924873E-4,5.927044E-4,3.740359E-5,-4.359053E-4,-1.381288E-4,-1.0444614E-3],"categories":[],"categories_nodes":[],"categories_segments":[],"categories_sizes":[],"default_left":[0,0,0,0,0,0,0,0,0,0,0,0,0],"id":75,"left_children":[1,3,5,7,9,11,-1,-1,-1,-1,-1,-1,-1],"loss_changes":[2.7412124E-4,1.5886207E-4,2.5424646E-4,6.859125E-5,2.0586373E-5,2.4106557E-4,0E0,0E0,0E0,0E0,0E0,0E0,0E0],"parents":[2147483647,0,0,1,1,2,2,3,3,4,4,5,5],"right_children":[2,4,6,8,10,12,-1,-1,-1,-1,-1,-1,-1],"split_conditions":[5.1249288E-2,9.937102E-2,1.125234E-1,4.992392E-2,-5.393587E-2,4.275315E-2,7.416081E-4,1.7924873E-4,5.927044E-4,3.740359E-5,-4.359053E-4,-1.381288E-4,-1.0444614E-3],"split_indices":[4,3,3,3,2,0,0,0,0,0,0,0,0],"split_type":[0,0,0,0,0,0,0,0,0,0,0,0,0],"sum_hessian":[3.9E1,2.6E1,1.3E1,2.2E1,4E0,1.2E1,1E0,1.7E1,5E0,1E0,3E0,8E0,4E0],"tree_param":{"num_deleted":"0","num_feature":"5","num_nodes":"13","size_leaf_vector":"1"}},{"base_weights":[2.6563587E-4,1.10053E-3,-6.271202E-3,3.1190843E-4,8.357029E-4,-1.072288E-3,-1.2130164E-4,-8.2670944E-5,4.0085232E-4],"categories":[],"categories_nodes":[],"categories_segments":[],"categories_sizes":[],"default_left":[0,0,0,0,0,0,0,0,0],"id":76,"left_children":[1,3,5,7,-1,-1,-1,-1,-1],"loss_changes":[1.9245896E-4,1.7479493E-4,7.706262E-5,1.2537578E-4,0E0,0E0,0E0,0E0,0E0],"parents":[2147483647,0,0,1,1,2,2,3,3],"right_children":[2,4,6,8,-1,-1,-1,-1,-1],"split_conditions":[9.9751495E-2,7.333223E-2,1.06124006E-1,5.775357E-2,8.357029E-4,-1.072288E-3,-1.2130164E-4,-8.2670944E-5,4.0085232E-4],"split_indices":[0,0,0,2,0,0,0,0,0],"split_type":[0,0,0,0,0,0,0,0,0],"sum_hessian":[3.3E1,3E1,3E0,2.8E1,2E0,1E0,2E0,2.2E1,6E0],"tree_param":{"num_deleted":"0","num_feature":"5","num_nodes":"9","size_leaf_vector":"1"}},{"base_weights":[4.895809E-4,-5.042012E-3,1.1259571E-3,3.7039258E-4,-9.191967E-4,6.197145E-3,3.7919715E-5,8.0537464E-4,1.6559618E-4,-6.1493454E-4,9.883482E-5],"categories":[],"categories_nodes":[],"categories_segments":[],"categories_sizes":[],"default_left":[0,0,0,0,0,0,0,0,0,0,0],"id":77,"left_children":[1,3,5,-1,-1,7,9,-1,-1,-1,-1],"loss_changes":[1.3592355E-4,1.7922734E-4,1.8736486E-4,0E0,0E0,3.7250313E-5,1.766137E-4,0E0,0E0,0E0,0E0],"parents":[2147483647,0,0,1,1,2,2,5,5,6,6],"right_children":[2,4,6,-1,-1,8,10,-1,-1,-1,-1],"split_conditions":[-5.393587E-2,-4.7672376E-2,-2.5445243E-2,3.7039258E-4,-9.191967E-4,1.06124006E-1,-1.6615335E-2,8.0537464E-4,1.6559618E-4,-6.1493454E-4,9.883482E-5],"split_indices":[0,2,0,0,0,1,0,0,0,0,0],"split_type":[0,0,0,0,0,0,0,0,0,0,0],"sum_hessian":[3.6E1,3E0,3.3E1,1E0,2E0,5E0,2.8E1,3E0,2E0,3E0,2.5E1],"tree_param":{"num_deleted":"0","num_feature":"5","num_nodes":"11","size_leaf_vector":"1"}},{"base_weights":[-4.671163E-4,-5.615395E-3,2.1224598E-4,-8.5791695E-4,1.6379636E-4,1.7092107E-3,-1.4984638E-3,-1.4527356E-4,4.0678467E-4,-4.2982187E-4,3.4175382E-4],"categories":[],"categories_nodes":[],"categories_segments":[],"categories_sizes":[],"default_left":[0,0,0,0,0,0,0,0,0,0,0],"id":78,"left_children":[1,3,5,-1,-1,7,9,-1,-1,-1,-1],"loss_changes":[1.2010843E-4,1.0004164E-4,8.194824E-5,0E0,0E0,1.3269347E-4,2.2114333E-4,0E0,0E0,0E0,0E0],"parents":[2147483647,0,0,1,1,2,2,5,5,6,6],"right_children":[2,4,6,-1,-1,8,10,-1,-1,-1,-1],"split_conditions":[-5.393587E-2,5.6898598E-2,1.2323916E-2,-8.5791695E-4,1.6379636E-4,-2.5445243E-2,9.9751495E-2,-1.4527356E-4,4.0678467E-4,-4.2982187E-4,3.4175382E-4],"split_indices":[0,3,1,0,0,3,1,0,0,0,0],"split_type":[0,0,0,0,0,0,0,0,0,0,0],"sum_hessian":[3.3E1,3E0,3E1,2E0,1E0,1.6E1,1.4E1,7E0,9E0,9E0,5E0],"tree_param":{"num_deleted":"0","num_feature":"5","num_nodes":"11","size_leaf_vector":"1"}},{"base_weights":[-8.788356E-5,3.0952333E-3,-1.3582008E-3,4.217327E-3,-4.6238993E-4,-7.76707E-4,-6.2302913E-4,2.5972642E-4,7.67174E-4,-2.4327476E-4,1.652242E-4],"categories":[],"categories_nodes":[],"categories_segments":[],"categories_sizes":[],"default_left":[0,0,0,0,0,0,0,0,0,0,0],"id":79,"left_children":[1,3,5,7,-1,-1,9,-1,-1,-1,-1],"loss_changes":[1.6999025E-4,1.2343959E-4,1.3650946E-4,4.1634485E-5,0E0,0E0,1.19312295E-4,0E0,0E0,0E0,0E0],"parents":[2147483647,0,0,1,1,2,2,3,3,6,6],"right_children":[2,4,6,8,-1,-1,10,-1,-1,-1,-1],"split_conditions":[-2.0658812E-2,1.0651168E-1,-1.6615335E-2,6.388104E-2,-4.6238993E-4,-7.76707E-4,-3.2102757E-3,2.5972642E-4,7.67174E-4,-2.4327476E-4,1.652242E-4],"split_indices":[0,3,0,2,0,0,1,0,0,0,0],"split_type":[0,0,0,0,0,0,0,0,0,0,0],"sum_hessian":[4E1,1.1E1,2.9E1,1E1,1E0,2E0,2.7E1,8E0,2E0,1.5E1,1.2E1],"tree_param":{"num_deleted":"0","num_feature":"5","num_nodes":"11","size_leaf_vector":"1"}},{"base_weights":[5.203704E-4,2.0975266E-3,-1.8274835E-3,4.9660273E-4,5.457135E-3,-2.9849913E-3,7.188812E-4,4.344438E-4,-2.2465421E-4,1.5160591E-4,5.861304E-4,4.8970927E-5,-9.3373936E-4],"categories":[],"categories_nodes":[],"categories_segments":[],"categories_sizes":[],"default_left":[0,0,0,0,0,0,0,0,0,0,0,0,0],"id":80,"left_children":[1,3,5,7,9,11,-1,-1,-1,-1,-1,-1,-1],"loss_changes":[1.3713878E-4,1.1561646E-4,1.7800502E-4,1.7864267E-4,2.2639579E-6,3.1359037E-4,0E0,0E0,0E0,0E0,0E0,0E0,0E0],"parents":[2147483647,0,0,1,1,2,2,3,3,4,4,5,5],"right_children":[2,4,6,8,10,12,-1,-1,-1,-1,-1,-1,-1],"split_conditions":[5.0717525E-2,9.937102E-2,1.125234E-1,-1.0461342E-2,-4.9477868E-2,3.427414E-2,7.188812E-4,4.344438E-4,-2.2465421E-4,1.5160591E-4,5.861304E-4,4.8970927E-5,-9.3373936E-4],"split_indices":[0,4,3,4,0,4,0,0,0,0,0,0,0],"split_type":[0,0,0,0,0,0,0,0,0,0,0,0,0],"sum_hessian":[3.5E1,2.1E1,1.4E1,1.5E1,6E0,1.3E1,1E0,6E0,9E0,1E0,5E0,9E0,4E0],"tree_param":{"num_deleted":"0","num_feature":"5","num_nodes":"13","size_leaf_vector":"1"}},{"base_weights":[-3.5457697E-4,-1.5024228E-3,2.808146E-3,1.501738E-3,-5.0430163E-3,3.8502577E-3,-3.8064862E-4,5.188605E-4,-4.668405E-5,-2.8482702E-4,-9.817815E-4,5.2439427E-5,7.071243E-4],"categories":[],"categories_nodes":[],"categories_segments":[],"categories_sizes":[],"default_left":[0,0,0,0,0,0,0,0,0,0,0,0,0],"id":81,"left_children":[1,3,5,7,9,11,-1,-1,-1,-1,-1,-1,-1],"loss_changes":[1.4943175E-4,3.2666864E-4,9.048101E-5,1.2580634E-4,1.1874878E-4,1.0341742E-4,0E0,0E0,0E0,0E0,0E0,0E0,0E0],"parents":[2147483647,0,0,1,1,2,2,3,3,4,4,5,5],"right_children":[2,4,6,8,10,12,-1,-1,-1,-1,-1,-1,-1],"split_conditions":[5.6898598E-2,-1.0461342E-2,1.267353E-1,-2.5445243E-2,4.992392E-2,4.275315E-2,-3.8064862E-4,5.188605E-4,-4.668405E-5,-2.8482702E-4,-9.817815E-4,5.2439427E-5,7.071243E-4],"split_indices":[3,3,0,0,3,0,0,0,0,0,0,0,0],"split_type":[0,0,0,0,0,0,0,0,0,0,0,0,0],"sum_hessian":[3.9E1,2.9E1,1E1,1.6E1,1.3E1,9E0,1E0,5E0,1.1E1,1E1,3E0,5E0,4E0],"tree_param":{"num_deleted":"0","num_feature":"5","num_nodes":"13","size_leaf_vector":"1"}},{"base_weights":[-6.74829E-4,-1.967621E-3,4.408059E-3,-7.9972524E-4,-1.1653606E-3,6.348123E-3,-3.6161623E-4,5.5792193E-6,-3.3424978E-4,7.5894623E-4,7.071253E-6],"categories":[],"categories_nodes":[],"categories_segments":[],"categories_sizes":[],"default_left":[0,0,0,0,0,0,0,0,0,0,0],"id":82,"left_children":[1,3,5,-1,7,9,-1,-1,-1,-1,-1],"loss_changes":[2.2552026E-4,1.21288365E-4,1.3192838E-4,0E0,6.665192E-5,4.6217712E-5,0E0,0E0,0E0,0E0,0E0],"parents":[2147483647,0,0,1,1,2,2,4,4,5,5],"right_children":[2,4,6,-1,8,10,-1,-1,-1,-1,-1],"split_conditions":[8.714325E-2,-5.393587E-2,1.267353E-1,-7.9972524E-4,4.992392E-2,5.775357E-2,-3.6161623E-4,5.5792193E-6,-3.3424978E-4,7.5894623E-4,7.071253E-6],"split_indices":[0,0,0,0,0,1,0,0,0,0,0],"split_type":[0,0,0,0,0,0,0,0,0,0,0],"sum_hessian":[3.2E1,2.6E1,6E0,2E0,2.4E1,5E0,1E0,1.6E1,8E0,4E0,1E0],"tree_param":{"num_deleted":"0","num_feature":"5","num_nodes":"11","size_leaf_vector":"1"}},{"base_weights":[2.210203E-6,2.490898E-3,-9.1038225E-4,3.139447E-3,-1.9972972E-4,1.3626463E-3,-3.274254E-3,3.87645E-4,-1.7467896E-4,-5.96313E-5,5.79162E-4,-7.263203E-4,1.9206806E-5],"categories":[],"categories_nodes":[],"categories_segments":[],"categories_sizes":[],"default_left":[0,0,0,0,0,0,0,0,0,0,0,0,0],"id":83,"left_children":[1,3,5,7,-1,9,11,-1,-1,-1,-1,-1,-1],"loss_changes":[9.311397E-5,3.828937E-5,1.6565609E-4,4.2783053E-5,0E0,1.4227247E-4,2.087998E-4,0E0,0E0,0E0,0E0,0E0,0E0],"parents":[2147483647,0,0,1,1,2,2,3,3,5,5,6,6],"right_children":[2,4,6,8,-1,10,12,-1,-1,-1,-1,-1,-1],"split_conditions":[-2.0658812E-2,1.0651168E-1,-1.0461342E-2,1.0651168E-1,-1.9972972E-4,-2.0658812E-2,5.6898598E-2,3.87645E-4,-1.7467896E-4,-5.96313E-5,5.79162E-4,-7.263203E-4,1.9206806E-5],"split_indices":[4,3,3,0,0,3,3,0,0,0,0,0,0],"split_type":[0,0,0,0,0,0,0,0,0,0,0,0,0],"sum_hessian":[3.9E1,1E1,2.9E1,9E0,1E0,1.5E1,1.4E1,8E0,1E0,1.1E1,4E0,6E0,8E0],"tree_param":{"num_deleted":"0","num_feature":"5","num_nodes":"13","size_leaf_vector":"1"}},{"base_weights":[6.220267E-5,2.5588777E-3,-7.1995216E-4,5.220712E-3,-2.739052E-3,-5.3167464E-3,-6.108564E-5,2.4367125E-6,6.082709E-4,-6.641079E-4,7.7531644E-5,3.4913097E-5,-7.321749E-4,-3.7519177E-4,8.641675E-5],"categories":[],"categories_nodes":[],"categories_segments":[],"categories_sizes":[],"default_left":[0,0,0,0,0,0,0,0,0,0,0,0,0,0,0],"id":84,"left_children":[1,3,5,7,9,11,13,-1,-1,-1,-1,-1,-1,-1,-1],"loss_changes":[8.190651E-5,1.5532193E-4,9.659278E-5,3.1206393E-5,6.0001574E-5,4.7996655E-5,1.0227594E-4,0E0,0E0,0E0,0E0,0E0,0E0,0E0,0E0],"parents":[2147483647,0,0,1,1,2,2,3,3,4,4,5,5,6,6],"right_children":[2,4,6,8,10,12,14,-1,-1,-1,-1,-1,-1,-1,-1],"split_conditions":[-2.5445243E-2,1.06124006E-1,-1.6615335E-2,-1.8636452E-2,-5.393587E-2,-2.0658812E-2,-2.9385678E-2,2.4367125E-6,6.082709E-4,-6.641079E-4,7.7531644E-5,3.4913097E-5,-7.321749E-4,-3.7519177E-4,8.641675E-5],"split_indices":[0,1,0,4,0,0,3,0,0,0,0,0,0,0,0],"split_type":[0,0,0,0,0,0,0,0,0,0,0,0,0,0,0],"sum_hessian":[4E1,9E0,3.1E1,6E0,3E0,3E0,2.8E1,1E0,5E0,1E0,2E0,1E0,2E0,5E0,2.3E1],"tree_param":{"num_deleted":"0","num_feature":"5","num_nodes":"15","size_leaf_vector":"1"}},{"base_weights":[1.8655343E-4,-6.961276E-4,7.938944E-4,-9.568379E-5,4.3658763E-3,7.349351E-5,-2.811191E-4,7.132545E-4,5.0773844E-5],"categories":[],"categories_nodes":[],"categories_segments":[],"categories_sizes":[],"default_left":[0,0,0,0,0,0,0,0,0],"id":85,"left_children":[1,-1,3,5,7,-1,-1,-1,-1],"loss_changes":[1.661498E-4,0E0,1.1163224E-4,6.747703E-5,7.1097864E-5,0E0,0E0,0E0,0E0],"parents":[2147483647,0,0,2,2,3,3,4,4],"right_children":[2,-1,4,6,8,-1,-1,-1,-1],"split_conditions":[-5.393587E-2,-6.961276E-4,8.714325E-2,4.992392E-2,4.275315E-2,7.349351E-5,-2.811191E-4,7.132545E-4,5.0773844E-5],"split_indices":[0,0,0,0,1,0,0,0,0],"split_type":[0,0,0,0,0,0,0,0,0],"sum_hessian":[3.6E1,2E0,3.4E1,2.8E1,6E0,2.2E1,6E0,3E0,3E0],"tree_param":{"num_deleted":"0","num_feature":"5","num_nodes":"9","size_leaf_vector":"1"}},{"base_weights":[-1.951339E-4,1.7654576E-3,-1.4695539E-3,-9.92644E-4,3.360117E-3,-7.074568E-3,-4.3087528E-4,-3.7965053E-4,2.0593782E-4,5.125608E-4,1.0346068E-4,-8.280727E-4,-1.7280458E-4,3.0603106E-4,-2.1495386E-4],"categories":[],"categories_nodes":[],"categories_segments":[],"categories_sizes":[],"default_left":[0,0,0,0,0,0,0,0,0,0,0,0,0,0,0],"id":86,"left_children":[1,3,5,7,9,11,13,-1,-1,-1,-1,-1,-1,-1,-1],"loss_changes":[1.0753636E-4,7.810535E-5,1.4831877E-4,6.772056E-5,3.9859355E-5,1.1485536E-5,1.4458224E-4,0E0,0E0,0E0,0E0,0E0,0E0,0E0,0E0],"parents":[2147483647,0,0,1,1,2,2,3,3,4,4,5,5,6,6],"right_children":[2,4,6,8,10,12,14,-1,-1,-1,-1,-1,-1,-1,-1],"split_conditions":[-1.0461342E-2,1.3971569E-2,6.8904315E-3,-3.2102757E-3,4.992392E-2,-1.6615335E-2,-1.8636452E-2,-3.7965053E-4,2.0593782E-4,5.125608E-4,1.0346068E-4,-8.280727E-4,-1.7280458E-4,3.0603106E-4,-2.1495386E-4],"split_indices":[3,2,3,1,2,0,2,0,0,0,0,0,0,0,0],"split_type":[0,0,0,0,0,0,0,0,0,0,0,0,0,0,0],"sum_hessian":[4.1E1,1.6E1,2.5E1,6E0,1E1,3E0,2.2E1,3E0,3E0,5E0,5E0,2E0,1E0,7E0,1.5E1],"tree_param":{"num_deleted":"0","num_feature":"5","num_nodes":"15","size_leaf_vector":"1"}},{"base_weights":[-7.6423236E-4,-1.1225215E-3,4.1482697E-4,-2.1470089E-4,-2.7282936E-3,-1.1893782E-4,5.4433686E-4,-5.7782984E-4,2.3014288E-4],"categories":[],"categories_nodes":[],"categories_segments":[],"categories_sizes":[],"default_left":[0,0,0,0,0,0,0,0,0],"id":87,"left_children":[1,3,-1,5,7,-1,-1,-1,-1],"loss_changes":[7.682045E-5,5.6266606E-5,0E0,1.498588E-4,2.280678E-4,0E0,0E0,0E0,0E0],"parents":[2147483647,0,0,1,1,3,3,4,4],"right_children":[2,4,-1,6,8,-1,-1,-1,-1],"split_conditions":[1.2653461E-1,5.0717525E-2,4.1482697E-4,4.275315E-2,3.427414E-2,-1.1893782E-4,5.4433686E-4,-5.7782984E-4,2.3014288E-4],"split_indices":[2,0,0,0,1,0,0,0,0],"split_type":[0,0,0,0,0,0,0,0,0],"sum_hessian":[4E1,3.8E1,2E0,2.5E1,1.3E1,2.2E1,3E0,8E0,5E0],"tree_param":{"num_deleted":"0","num_feature":"5","num_nodes":"9","size_leaf_vector":"1"}},{"base_weights":[-2.3975309E-4,5.97876E-4,-4.3879393E-3,-1.5331608E-3,2.3176782E-3,-7.1854834E-3,8.047658E-5,1.4242982E-4,-3.334449E-4,4.7059986E-4,-3.2816166E-5,-8.4095023E-4,-1.7567146E-4],"categories":[],"categories_nodes":[],"categories_segments":[],"categories_sizes":[],"default_left":[0,0,0,0,0,0,0,0,0,0,0,0,0],"id":88,"left_children":[1,3,5,7,9,11,-1,-1,-1,-1,-1,-1,-1],"loss_changes":[1.2423588E-4,1.1350223E-4,9.294356E-5,7.9330566E-5,1.0896925E-4,1.1806565E-5,0E0,0E0,0E0,0E0,0E0,0E0,0E0],"parents":[2147483647,0,0,1,1,2,2,3,3,4,4,5,5],"right_children":[2,4,6,8,10,12,-1,-1,-1,-1,-1,-1,-1],"split_conditions":[9.9751495E-2,-3.2102757E-3,-1.0461342E-2,-3.154836E-2,5.775357E-2,3.427414E-2,8.047658E-5,1.4242982E-4,-3.334449E-4,4.7059986E-4,-3.2816166E-5,-8.4095023E-4,-1.7567146E-4],"split_indices":[0,1,2,1,1,1,0,0,0,0,0,0,0],"split_type":[0,0,0,0,0,0,0,0,0,0,0,0,0],"sum_hessian":[3.4E1,2.9E1,5E0,1.3E1,1.6E1,3E0,2E0,5E0,8E0,8E0,8E0,2E0,1E0],"tree_param":{"num_deleted":"0","num_feature":"5","num_nodes":"13","size_leaf_vector":"1"}},{"base_weights":[-8.65295E-5,-4.0366704E-4,5.506642E-4,1.0944495E-3,-1.581977E-3,3.0998435E-4,-2.764514E-4,-7.7953155E-4,-4.58533E-5],"categories":[],"categories_nodes":[],"categories_segments":[],"categories_sizes":[],"default_left":[0,0,0,0,0,0,0,0,0],"id":89,"left_children":[1,3,-1,5,7,-1,-1,-1,-1],"loss_changes":[6.607982E-5,6.3514985E-5,0E0,1.3238942E-4,1.3603235E-4,0E0,0E0,0E0,0E0],"parents":[2147483647,0,0,1,1,3,3,4,4],"right_children":[2,4,-1,6,8,-1,-1,-1,-1],"split_conditions":[1.2653461E-1,-1.0461342E-2,5.506642E-4,5.0717525E-2,6.8904315E-3,3.0998435E-4,-2.764514E-4,-7.7953155E-4,-4.58533E-5],"split_indices":[0,3,0,0,3,0,0,0,0],"split_type":[0,0,0,0,0,0,0,0,0],"sum_hessian":[3.5E1,3.4E1,1E0,1.5E1,1.9E1,1E1,5E0,2E0,1.7E1],"tree_param":{"num_deleted":"0","num_feature":"5","num_nodes":"9","size_leaf_vector":"1"}},{"base_weights":[-3.6613212E-4,1.0885665E-3,-3.0235655E-3,1.2797497E-4,4.7132196E-3,-6.0312655E-3,-3.8984482E-4,1.7458669E-4,-2.0434338E-4,-4.495755E-5,6.116312E-4,-5.9174003E-5,-7.0008234E-4,4.2229518E-4,-2.631269E-4],"categories":[],"categories_nodes":[],"categories_segments":[],"categories_sizes":[],"default_left":[0,0,0,0,0,0,0,0,0,0,0,0,0,0,0],"id":90,"left_children":[1,3,5,7,9,11,13,-1,-1,-1,-1,-1,-1,-1,-1],"loss_changes":[1.424589E-4,8.296029E-5,1.0062749E-4,7.382965E-5,3.896915E-5,2.7500922E-5,9.382559E-5,0E0,0E0,0E0,0E0,0E0,0E0,0E0,0E0],"parents":[2147483647,0,0,1,1,2,2,3,3,4,4,5,5,6,6],"right_children":[2,4,6,8,10,12,14,-1,-1,-1,-1,-1,-1,-1,-1],"split_conditions":[4.275315E-2,1.3971569E-2,3.427414E-2,-1.8636452E-2,-4.7672376E-2,-1.6567973E-2,-2.0658812E-2,1.7458669E-4,-2.0434338E-4,-4.495755E-5,6.116312E-4,-5.9174003E-5,-7.0008234E-4,4.2229518E-4,-2.631269E-4],"split_indices":[2,2,0,2,3,3,4,0,0,0,0,0,0,0,0],"split_type":[0,0,0,0,0,0,0,0,0,0,0,0,0,0,0],"sum_hessian":[3.5E1,2.3E1,1.2E1,1.9E1,4E0,5E0,7E0,1.1E1,8E0,1E0,3E0,1E0,4E0,2E0,5E0],"tree_param":{"num_deleted":"0","num_feature":"5","num_nodes":"15","size_leaf_vector":"1"}},{"base_weights":[1.1293708E-5,1.1627949E-3,-2.045765E-3,2.7254233E-3,-1.0737706E-3,-3.623376E-3,1.5186094E-3,3.6567924E-4,-2.2189846E-4,-2.6697453E-4,4.0720776E-4,-5.386749E-4,3.6837115E-5,2.4867323E-4,-1.1769412E-4],"categories":[],"categories_nodes":[],"categories_segments":[],"categories_sizes":[],"default_left":[0,0,0,0,0,0,0,0,0,0,0,0,0,0,0],"id":91,"left_children":[1,3,5,7,9,11,13,-1,-1,-1,-1,-1,-1,-1,-1],"loss_changes":[9.238962E-5,9.0299494E-5,8.422723E-5,7.71904E-5,1.012105E-4,7.237372E-5,1.597486E-5,0E0,0E0,0E0,0E0,0E0,0E0,0E0,0E0],"parents":[2147483647,0,0,1,1,2,2,3,3,4,4,5,5,6,6],"right_children":[2,4,6,8,10,12,14,-1,-1,-1,-1,-1,-1,-1,-1],"split_conditions":[4.8479293E-2,4.992392E-2,-8.819561E-3,6.151854E-2,3.427414E-2,1.0651168E-1,9.9751495E-2,3.6567924E-4,-2.2189846E-4,-2.6697453E-4,4.0720776E-4,-5.386749E-4,3.6837115E-5,2.4867323E-4,-1.1769412E-4],"split_indices":[1,0,0,3,1,1,0,0,0,0,0,0,0,0,0],"split_type":[0,0,0,0,0,0,0,0,0,0,0,0,0,0,0],"sum_hessian":[3.7E1,2.4E1,1.3E1,1.4E1,1E1,9E0,4E0,1.2E1,2E0,8E0,2E0,6E0,3E0,3E0,1E0],"tree_param":{"num_deleted":"0","num_feature":"5","num_nodes":"15","size_leaf_vector":"1"}},{"base_weights":[-1.7188954E-4,-1.1142431E-3,1.8842005E-3,-2.4423082E-4,-7.7029265E-4,-2.8131902E-4,2.5669807E-3,-2.2671472E-4,1.9676145E-4,3.3207596E-4,-2.485404E-4],"categories":[],"categories_nodes":[],"categories_segments":[],"categories_sizes":[],"default_left":[0,0,0,0,0,0,0,0,0,0,0],"id":92,"left_children":[1,3,5,7,-1,-1,9,-1,-1,-1,-1],"loss_changes":[7.3789306E-5,1.4715684E-4,4.5708817E-5,1.11845955E-4,0E0,0E0,5.014561E-5,0E0,0E0,0E0,0E0],"parents":[2147483647,0,0,1,1,2,2,3,3,6,6],"right_children":[2,4,6,8,-1,-1,10,-1,-1,-1,-1],"split_conditions":[5.6898598E-2,5.1249288E-2,-2.9385678E-2,3.427414E-2,-7.7029265E-4,-2.8131902E-4,7.333223E-2,-2.2671472E-4,1.9676145E-4,3.3207596E-4,-2.485404E-4],"split_indices":[4,4,2,0,0,0,2,0,0,0,0],"split_type":[0,0,0,0,0,0,0,0,0,0,0],"sum_hessian":[3.6E1,2.5E1,1.1E1,2.3E1,2E0,1E0,1E1,1.2E1,1.1E1,9E0,1E0],"tree_param":{"num_deleted":"0","num_feature":"5","num_nodes":"11","size_leaf_vector":"1"}},{"base_weights":[1.7838049E-4,4.6942537E-3,-4.1006703E-4,5.5056735E-4,1.1299979E-4,-2.5525275E-3,1.0774095E-3,4.18609E-5,-4.4618142E-4,-1.686728E-4,1.9269614E-4],"categories":[],"categories_nodes":[],"categories_segments":[],"categories_sizes":[],"default_left":[0,0,0,0,0,0,0,0,0,0,0],"id":93,"left_children":[1,3,5,-1,-1,7,9,-1,-1,-1,-1],"loss_changes":[9.2275004E-5,5.347021E-6,1.0154278E-4,0E0,0E0,7.561351E-5,4.7867543E-5,0E0,0E0,0E0,0E0],"parents":[2147483647,0,0,1,1,2,2,5,5,6,6],"right_children":[2,4,6,-1,-1,8,10,-1,-1,-1,-1],"split_conditions":[-5.352934E-2,-2.5445243E-2,-3.2102757E-3,5.5056735E-4,1.1299979E-4,-4.7672376E-2,-2.5445243E-2,4.18609E-5,-4.4618142E-4,-1.686728E-4,1.9269614E-4],"split_indices":[3,0,0,0,0,2,3,0,0,0,0],"split_type":[0,0,0,0,0,0,0,0,0,0,0],"sum_hessian":[3.3E1,3E0,3E1,2E0,1E0,1.2E1,1.8E1,5E0,7E0,4E0,1.4E1],"tree_param":{"num_deleted":"0","num_feature":"5","num_nodes":"11","size_leaf_vector":"1"}},{"base_weights":[2.059744E-4,2.0653282E-3,-9.178769E-4,-6.189663E-4,3.923632E-3,-3.3473712E-3,1.5822233E-3,-2.6478083E-4,1.5646173E-4,8.6931665E-5,6.193221E-4,-1.4062952E-4,-7.3632185E-4,2.8268035E-4,-3.5086446E-4],"categories":[],"categories_nodes":[],"categories_segments":[],"categories_sizes":[],"default_left":[0,0,0,0,0,0,0,0,0,0,0,0,0,0,0],"id":94,"left_children":[1,3,5,7,9,11,13,-1,-1,-1,-1,-1,-1,-1,-1],"loss_changes":[8.339157E-5,7.7252116E-5,1.5714578E-4,3.515383E-5,5.7004494E-5,9.0980975E-5,9.228615E-5,0E0,0E0,0E0,0E0,0E0,0E0,0E0,0E0],"parents":[2147483647,0,0,1,1,2,2,3,3,4,4,5,5,6,6],"right_children":[2,4,6,8,10,12,14,-1,-1,-1,-1,-1,-1,-1,-1],"split_conditions":[-1.0461342E-2,1.3971569E-2,5.6898598E-2,-3.2102757E-3,-2.0658812E-2,4.992392E-2,1.2653461E-1,-2.6478083E-4,1.5646173E-4,8.6931665E-5,6.193221E-4,-1.4062952E-4,-7.3632185E-4,2.8268035E-4,-3.5086446E-4],"split_indices":[3,2,3,1,1,3,3,0,0,0,0,0,0,0,0],"split_type":[0,0,0,0,0,0,0,0,0,0,0,0,0,0,0],"sum_hessian":[3.8E1,1.4E1,2.4E1,6E0,8E0,1.2E1,1.2E1,3E0,3E0,4E0,4E0,9E0,3E0,1E1,2E0],"tree_param":{"num_deleted":"0","num_feature":"5","num_nodes":"15","size_leaf_vector":"1"}},{"base_weights":[-2.4437177E-4,-7.7492744E-4,2.2917294E-3,-2.623282E-4,-5.8134773E-4,3.492286E-3,-2.4558045E-4,1.7198134E-4,-1.288101E-4,5.666446E-5,3.9640852E-4],"categories":[],"categories_nodes":[],"categories_segments":[],"categories_sizes":[],"default_left":[0,0,0,0,0,0,0,0,0,0,0],"id":95,"left_children":[1,3,5,7,-1,9,-1,-1,-1,-1,-1],"loss_changes":[5.4252094E-5,8.370592E-5,4.847415E-5,6.524534E-5,0E0,6.0356615E-6,0E0,0E0,0E0,0E0,0E0],"parents":[2147483647,0,0,1,1,2,2,3,3,5,5],"right_children":[2,4,6,8,-1,10,-1,-1,-1,-1,-1],"split_conditions":[8.714325E-2,6.388104E-2,4.8479293E-2,-1.8636452E-2,-5.8134773E-4,-4.9477868E-2,-2.4558045E-4,1.7198134E-4,-1.288101E-4,5.666446E-5,3.9640852E-4],"split_indices":[4,4,0,2,0,0,0,0,0,0,0],"split_type":[0,0,0,0,0,0,0,0,0,0,0],"sum_hessian":[3.8E1,3.2E1,6E0,3E1,2E0,5E0,1E0,1E1,2E1,1E0,4E0],"tree_param":{"num_deleted":"0","num_feature":"5","num_nodes":"11","size_leaf_vector":"1"}},{"base_weights":[-2.462629E-4,5.377098E-4,-1.5887314E-3,1.9331272E-3,-1.5408709E-3,-3.5845493E-3,1.2042819E-3,-2.4920143E-4,2.3942709E-4,-2.5850968E-4,4.4506937E-4,-5.0472026E-4,1.0231579E-4,1.970342E-4,-4.739119E-5],"categories":[],"categories_nodes":[],"categories_segments":[],"categories_sizes":[],"default_left":[0,0,0,0,0,0,0,0,0,0,0,0,0,0,0],"id":96,"left_children":[1,3,5,7,9,11,13,-1,-1,-1,-1,-1,-1,-1,-1],"loss_changes":[4.2952623E-5,7.839137E-5,8.7932E-5,3.861657E-5,8.032749E-5,6.5819375E-5,9.932945E-6,0E0,0E0,0E0,0E0,0E0,0E0,0E0,0E0],"parents":[2147483647,0,0,1,1,2,2,3,3,4,4,5,5,6,6],"right_children":[2,4,6,8,10,12,14,-1,-1,-1,-1,-1,-1,-1,-1],"split_conditions":[4.992392E-2,4.992392E-2,-8.819561E-3,-6.426486E-2,3.427414E-2,1.0651168E-1,9.9751495E-2,-2.4920143E-4,2.3942709E-4,-2.5850968E-4,4.4506937E-4,-5.0472026E-4,1.0231579E-4,1.970342E-4,-4.739119E-5],"split_indices":[1,0,0,0,1,1,0,0,0,0,0,0,0,0,0],"split_type":[0,0,0,0,0,0,0,0,0,0,0,0,0,0,0],"sum_hessian":[3.9E1,2.5E1,1.4E1,1.5E1,1E1,8E0,6E0,1E0,1.4E1,9E0,1E0,6E0,2E0,4E0,2E0],"tree_param":{"num_deleted":"0","num_feature":"5","num_nodes":"15","size_leaf_vector":"1"}},{"base_weights":[-2.7498603E-4,-7.859533E-4,1.5155664E-3,3.2652577E-4,-4.0251464E-3,3.209389E-3,-2.9418754E-4,-6.477653E-5,2.3560785E-4,4.22816E-4,-5.808213E-4,4.8715436E-5,3.5819024E-4],"categories":[],